{
    "bias": [
        0.0,
        0.0,
        0.0,
        0.0,
        0.0,
        0.0,
        0.0,
        0.0
    ],
    "depth": 12,
    "f_count": 8,
    "f_size": 3,
    "height": 12,
    "name": "conv_2",
    "padding": 0,
    "stride": 1,
    "type": "conv",
    "weights": {
        "0": [
            0.12118711603511528,
            0.048697318863771086,
            0.020524649615839587,
            -0.07780566974784538,
            -0.04019943393487977,
            0.04264613129176785,
            -0.020140302771378384,
            0.11822497548097728,
            -0.15398093808859917,
            -0.10919631922709876,
            0.1678659252603001,
            0.03282379190005436,
            -0.07229550333715018,
            -0.21277029986492668,
            0.1071713528826695,
            0.2505599863019163,
            0.03661718959349163,
            -0.0982102818542208,
            -0.05604915751051452,
            0.18975298252696285,
            0.12972413697545596,
            0.04571862166392822,
            0.013121021505354444,
            0.11116559787569502,
            -0.11330242791204476,
            -0.041129479649871535,
            -0.054822807710802335,
            0.0301481982810724,
            -0.06412973295073676,
            0.12223248697048013,
            -0.04140196285307718,
            0.03244794994783514,
            0.16417033035275175,
            -0.11215180364230697,
            0.16063700978426831,
            -0.27762745799098143,
            0.23661609974812273,
            -0.013335732037281101,
            -0.08849761820024209,
            0.07906905343435387,
            0.10518283134455678,
            -0.09403805054828757,
            -0.043353897556906155,
            -0.25451392141382634,
            0.04847746608871048,
            -0.02883979438053951,
            -0.137053268763413,
            -0.13856318063054335,
            0.004445566297474567,
            -0.011974112852338032,
            -0.08878823691550312,
            -0.02986455333115831,
            0.22448097212411988,
            0.17358524749177776,
            0.008415361250919752,
            -0.11777729905823735,
            0.20773189206265158,
            0.2045022306432069,
            0.1801752560606247,
            -0.07112882999007131,
            -0.20141228967008185,
            0.17045920624705757,
            -0.2885079427961545,
            -0.19775461780254266,
            0.023680607421209768,
            -0.1828070020084531,
            -0.16492446345899853,
            -0.1701172987775783,
            0.3381771870475855,
            -0.0009256230717128515,
            -0.0939385672519713,
            -0.2472918655081292,
            0.11997920288363313,
            -0.13592230649235623,
            0.2625490044330936,
            -0.18394514150156,
            -0.008222533632892898,
            0.07554069166872691,
            0.0031173159544359225,
            0.23408979687492812,
            -0.07410634319034994,
            -0.17165438696222768,
            -0.03086268240134874,
            0.011706679752071389,
            -0.06611508168102537,
            -0.1591543702324171,
            0.0707966074600626,
            -0.19293025082325893,
            0.09911708035392605,
            -0.19708409223142292,
            -0.11628174892001665,
            -0.022580223111437925,
            0.012055576762065758,
            -0.20267868467941208,
            0.14815893656627183,
            -0.0751039399574488,
            -0.04503553903752674,
            -0.10581544129040828,
            -0.2300243405431132,
            0.13550671425132765,
            0.17286032292512896,
            0.05060776394538513,
            0.12745804601243851,
            -0.0611750959295897,
            0.04231136642098752,
            0.0034190683124141505,
            0.17399337661531755,
            0.007120960510763159
        ],
        "1": [
            -0.3141250940362592,
            0.3976768225061241,
            0.06775742254556097,
            0.06411001022819345,
            0.031336652033534945,
            -0.09716631047846976,
            -0.10616902763224151,
            -0.10196188150782559,
            0.05571767977953721,
            0.016801260335008717,
            0.008426799138160482,
            -0.009915626884848486,
            -0.15447632822662735,
            0.11734679083827436,
            -0.02217214575653238,
            0.22193727730174567,
            0.17531638607452293,
            0.24573766068056388,
            0.13895451778903528,
            0.0791535027014706,
            -0.15062586633063704,
            0.08721113195833988,
            -0.23234581160250437,
            -0.0362944568935355,
            0.07448696442301626,
            -0.11899968090176911,
            -0.0430067092546399,
            0.04278629451976283,
            -0.07893920335178967,
            -0.1653215098707978,
            0.050959995473196656,
            0.016334828165333912,
            0.059972901142975564,
            -0.05865662714434939,
            0.08216206176469024,
            0.039640505966386554,
            0.07037749895687324,
            0.012677582688089164,
            -0.01731899786932559,
            -0.06020102610699414,
            -0.043412057032813436,
            -0.253901080212772,
            0.2522882778730191,
            0.08054289315306393,
            0.18037282750445,
            0.06264950500442465,
            0.2916336006798727,
            -0.1268092659968061,
            -0.012734380064390635,
            -0.11132936874423911,
            0.20766391513484397,
            0.07059863580508628,
            -0.09953123933124154,
            0.10848995664286676,
            -0.060614592371291506,
            0.1253508026949313,
            -0.17742774213226745,
            0.029943991928694968,
            -0.08012955669358743,
            0.0601856178896077,
            -0.173141936725427,
            -0.08085255461165725,
            -0.0040272582349403,
            -0.14473702294287802,
            -0.25576069716004013,
            -0.04119115985051213,
            0.07390899719173151,
            -0.058648008904178095,
            -0.07120397466553686,
            0.2038608829444353,
            -0.09831429128124658,
            0.021534538363354543,
            0.01625128040645419,
            -0.07164140295937237,
            0.0004384742672848168,
            0.03741538383227343,
            0.05000429696405638,
            0.01089931191101459,
            0.017665843773260494,
            0.10887448491470232,
            -0.14877938500299864,
            -0.0018091006907329172,
            0.06353422076487976,
            0.015542651311509219,
            -0.26386017609425977,
            0.30284083657071503,
            0.013564771324603986,
            0.03100867979920334,
            0.13925607717358007,
            -0.1630476180326976,
            0.21359356474403657,
            -0.16429952291585248,
            -0.17361422601312798,
            0.03461956226938747,
            -0.013880642001643495,
            0.09093886344931551,
            0.016612961349136753,
            -0.008611877734440158,
            0.020102194881329125,
            -0.14975254910214256,
            -0.060381719697269055,
            -0.03331942404632787,
            0.12554933940137628,
            0.04036648807921103,
            0.2558257443810467,
            0.28838624990420414,
            0.05331611765265643,
            -0.24774696975308239
        ],
        "2": [
            0.09748803964853883,
            0.08858068711002295,
            -0.03406630782991454,
            -0.07275220462831716,
            0.1815618464641641,
            -0.023341909874678844,
            -0.09152638228991047,
            0.1443450413027127,
            0.06513119051037068,
            -0.1721121247412458,
            0.04678307538079715,
            0.007514169432450391,
            -0.09283323257460732,
            -0.17305501503970586,
            0.1157187326985081,
            0.013018499143585261,
            -0.038919753896805465,
            0.19356570985589538,
            -0.06408198948257478,
            -0.03527896151709988,
            -0.23435398835344445,
            0.13773879120952143,
            -0.11133012671683984,
            0.08132544442636508,
            -0.11026175273188821,
            0.018692090631122264,
            0.07563808655870455,
            -0.16515012049623035,
            0.2730787603321929,
            -0.0937823903093603,
            -0.02820125593597264,
            0.07622502658054317,
            -0.18796732575227762,
            0.20662294950126076,
            0.20137995068880382,
            0.12302260812196682,
            0.0711058793750105,
            0.1258476076186276,
            0.010913354307018352,
            0.01510392382739166,
            -0.09125480744248779,
            0.09203663026175149,
            0.1680150513726981,
            -0.08423756014531904,
            -0.38232155033797594,
            -0.0555572628854825,
            -0.1921080637579187,
            -0.1081992456710238,
            0.006593694001442542,
            0.017071273372689943,
            -0.05580570806238145,
            -0.059679062694465455,
            0.07664546192438232,
            -0.15570706525533037,
            0.12127551616910005,
            -0.21350695392210672,
            -0.10917754957436819,
            0.014199809244829293,
            0.15444521360059263,
            -0.030404310697235613,
            -0.24308794874483464,
            -0.2346345735911688,
            0.018172797370365267,
            0.08358687131868155,
            -0.14479946778539793,
            0.17616450590510024,
            -0.1429285370946151,
            -0.0876837347784111,
            0.08179464761163492,
            0.06803653672400346,
            0.036465859363425446,
            -0.22020867166114758,
            -0.07081456628475086,
            0.12061467271151854,
            -0.00523574716463144,
            0.14789829767508064,
            0.054202428503334184,
            0.1301554463289361,
            0.09741416849852827,
            0.10008775541438177,
            0.07948433830820494,
            0.1412324611570807,
            0.17045028058267195,
            -0.20763962492075336,
            -0.26130661820221945,
            0.007299874532162996,
            0.008791542954147772,
            0.07423842884621955,
            0.1453017446005631,
            -0.1360662845514924,
            0.14251224631070072,
            -0.08909566839551925,
            -0.0009986465016645423,
            -0.046911124605599784,
            0.1870335342455253,
            0.32225030859292436,
            -0.17592851112204527,
            -0.06315534438486593,
            -0.26261075849075216,
            0.08046650764042439,
            0.01633692424534586,
            -0.0375529430602999,
            -0.10726583980611139,
            -0.1402784369810786,
            0.10465284364128997,
            0.05328755201994703,
            -0.22038025408066414,
            0.17623761703080368
        ],
        "3": [
            -0.01747529483082701,
            -0.07464585474708625,
            -0.11643722954190262,
            0.14454739004908027,
            -0.25571032693138507,
            -0.06384787150930149,
            -0.13324406958148244,
            -0.20516117056491256,
            0.09419962441329968,
            0.009127886830297359,
            -0.05292896224859287,
            -0.0613021650937134,
            -0.021301991021539925,
            -0.10974210952336504,
            -0.12132635637167703,
            -0.02472953223074404,
            0.13991749597452635,
            -0.09225711799482322,
            0.10396207386171596,
            0.04379149519864872,
            -0.026426118347875147,
            -0.02953369515981868,
            0.14658307288993083,
            -0.03032180051495218,
            0.025724453650500207,
            -0.056548978808236956,
            -0.07088793078102133,
            0.03525843114532037,
            -0.05296975302857391,
            0.1331848973991177,
            0.23356498144960794,
            0.21109048419498253,
            -0.05481669895527997,
            -0.07821878954130235,
            0.0470371222316538,
            0.062332491120340366,
            0.059138673468653744,
            -0.03749676931961863,
            -0.16720833985278824,
            0.006069382358814934,
            0.19002457914673782,
            0.07137012246309733,
            0.12704426397096066,
            0.27824600558255813,
            0.043154985346709133,
            0.21840070054466496,
            0.02692447096822385,
            0.0067327272284214285,
            -0.03721535282145426,
            0.033607034057487696,
            0.05850124751124793,
            -0.032249009173699744,
            -0.1748248955577038,
            -0.19439624800043426,
            0.023022450637579378,
            -0.22070823632798228,
            -0.014700235474079238,
            -0.24664447877626147,
            0.12458953890361293,
            0.13014017180768678,
            0.2681490769451108,
            0.07887542090466479,
            -0.16645746349987767,
            0.14664192968412576,
            0.20273213249979163,
            0.1381587395188589,
            0.10715588812291535,
            0.17083494054311793,
            -0.11168260986911781,
            -0.07642809062970018,
            0.2504702562285662,
            -0.058887739569395275,
            -0.06773021833356312,
            -0.22183779285151814,
            -0.14318223446054887,
            -0.11044061041378882,
            -0.12551374378259075,
            -0.1265280223088456,
            0.09303866759722386,
            0.11132817039090448,
            0.03621272496969113,
            0.029236364159070823,
            -0.25364710026728576,
            0.31338847363027766,
            0.04824600026852507,
            0.08329435382656895,
            -0.08489072469828655,
            0.17715847797758466,
            0.25371189627787866,
            0.061336815612344824,
            -0.08795157856190051,
            0.12785572531666461,
            0.273341009521994,
            0.07803804352715196,
            0.06163983209006538,
            -0.04629427226043197,
            -0.2291853478236769,
            -0.01856418985057047,
            0.13085136728328853,
            -0.07096685058842281,
            -0.02329892468811389,
            0.2190130542643515,
            0.041684558925191066,
            0.12392138964889214,
            0.10963765335003503,
            -0.043439788186258106,
            0.0594838760290385,
            0.037668764924577436
        ],
        "4": [
            0.13905237784993685,
            0.06565243618720726,
            -0.13488075713528025,
            0.09600092264102053,
            -0.08870324433517125,
            -0.04844357188618529,
            -0.09722677333933663,
            -0.09239417527853211,
            0.11624692276640729,
            -0.0017517543435120956,
            0.0501751710120723,
            -0.10164394003181487,
            -0.06845774209979388,
            0.18230502264963339,
            -0.1491664018115481,
            -0.14638825263194172,
            -0.13591895369236975,
            0.02784554508036938,
            -0.10947594549748424,
            -0.08075981023935937,
            -0.19534082595430055,
            0.07107767083938214,
            -0.14619709402636377,
            -0.06764194349931812,
            0.09772175526049692,
            -0.0112311532938339,
            0.08802371146701109,
            -0.009260866531132141,
            -0.15342377055116668,
            -0.1486497270062429,
            0.0126604286175244,
            -0.17390876359623927,
            -0.22428428978471512,
            0.0707937280871684,
            0.2666440977142076,
            -0.11606193253836407,
            0.17854601724544125,
            -0.15076788903769417,
            -0.0893344000643061,
            -0.20900475697310184,
            -0.13861003473468356,
            -0.0006161083520851875,
            -0.013317018814359215,
            -0.11478569378900472,
            -0.03317159392325083,
            0.0765919221172714,
            -0.06721239342357203,
            0.009565745641368422,
            -0.07348909469125008,
            -0.19803763033463392,
            0.06121133406182683,
            0.018063752225730922,
            0.1413671167597354,
            0.048788940317323275,
            -0.11001569220111385,
            -0.02292837883877088,
            -0.1100577805496601,
            -0.008229560002335412,
            0.14762222106267867,
            0.08921895871492996,
            0.1664868947400639,
            0.02718326703022486,
            0.09936447187398062,
            -0.16432848360372837,
            -0.09875492097946609,
            -0.10616152223933842,
            0.01928928494854107,
            0.0246198653157753,
            0.022184194260819304,
            -0.03857481277065544,
            -0.045745610262611626,
            -0.024939046820072766,
            -0.20259484436302183,
            0.09548325609553189,
            0.25733605955997757,
            0.11596993252327209,
            0.2961285111980133,
            -0.08216830799507252,
            0.06567292190483166,
            0.21226049829314467,
            0.20416462034156876,
            0.1407531399994265,
            0.10362540262378708,
            0.15740398696704744,
            0.1454878601389783,
            0.022609520345424617,
            -0.13115473286726098,
            0.027371543853547606,
            0.13836736666667526,
            -0.15518113971239286,
            0.24066290963261963,
            0.03113250862548124,
            -0.005058901424970864,
            -0.14179797309058845,
            0.4273234457359009,
            0.08525947385708652,
            -0.02145548007893342,
            -0.01661906984649784,
            0.32194517018398255,
            -0.01691514948044984,
            -0.27862869789694605,
            -0.05118951970746088,
            -0.022384456595582816,
            0.022480174785216026,
            0.029898077171691857,
            0.007829399389771122,
            -0.09115616088008123,
            0.06179285980465676
        ],
        "5": [
            0.02493602473880547,
            0.038183218984829154,
            0.1228274941615811,
            -0.27798623210556217,
            -0.02283931737763086,
            0.16308183498999457,
            0.08615277210844664,
            0.2734630472177543,
            0.04185912425674563,
            -0.20723881308225423,
            0.250803621800651,
            0.022281634611326224,
            0.24308225007819775,
            -0.24500195835538044,
            -0.09276919190372782,
            0.18172802638827348,
            0.06354387761951125,
            -0.06086042049045352,
            -0.09779941221883745,
            0.017385902615470718,
            0.026250471817543333,
            0.03333373608803513,
            0.050127624847829136,
            0.05391451727580525,
            0.023627460916115704,
            -0.08669014152260522,
            0.3215399212363081,
            0.4437366146735157,
            -0.15690229051554735,
            -0.13249725430772263,
            0.15406676102800185,
            -0.20409607601686003,
            0.13934119355843333,
            0.09059156576220156,
            0.1745869082396168,
            0.011952742966528155,
            -0.08801261652873733,
            0.2088395462157578,
            0.057007085463613404,
            0.10078198512772307,
            0.10837845811373754,
            0.2201929307437296,
            0.2783201949738136,
            0.11570291128303614,
            -0.23022650812940643,
            0.011143112586338917,
            -0.026780972216572312,
            0.1941122589095375,
            -0.044057126943618914,
            0.0048419304014795245,
            -0.030223675447554693,
            -0.024810835603846143,
            -0.0701658903443575,
            0.06862926012566345,
            0.024981614530938414,
            -0.0762935623624443,
            -0.165359879804558,
            -0.014780603347721896,
            -0.04392226549380985,
            0.0803209532741582,
            0.010833992931108788,
            -0.053306820778684434,
            -0.16585095953033166,
            -0.1190274502094759,
            0.1299725792121149,
            -0.22771081835783424,
            0.12457931802676785,
            -0.22010070239564197,
            0.020352612659739394,
            -0.15397357250823823,
            -0.023215541945606454,
            -0.10521774431051514,
            -0.010122489995911529,
            0.0029962391110542118,
            -0.1542976703674411,
            0.08932449106316041,
            0.07520741019562702,
            -0.08656114639781479,
            0.20862916019237607,
            0.209056818058759,
            -0.10768528374286773,
            -0.023474912744838993,
            0.18365008168095714,
            -0.24350691665687274,
            -0.03986116656724344,
            -0.0902348644501723,
            -0.01426535549339547,
            0.06938167100883001,
            -0.17413432766196904,
            0.1444052798049471,
            0.10646073520189589,
            0.01234244076912738,
            0.14917866702492386,
            -0.20029605584788374,
            -0.049806110056835814,
            0.25717336332337526,
            -0.08170219526537109,
            -0.05715819202831083,
            -0.01099619477722164,
            -0.08012023225027223,
            -0.21276713906355427,
            -0.026856781029889157,
            -0.028201942866422375,
            -0.12337169523322072,
            0.06919268746722389,
            0.034433105273115286,
            -0.20621978828041623,
            0.08073102855504123
        ],
        "6": [
            -0.1029059016698585,
            -0.03392412035574633,
            0.24060105452924516,
            0.2360249391548178,
            0.03598497095125994,
            -0.0509447292243076,
            -0.1625296499648712,
            -0.06646517263654984,
            0.26093659497969013,
            0.02022635824084099,
            -0.0851722220415433,
            -0.06179704585771318,
            -0.24139476780580554,
            -0.03186267759386248,
            0.04963562280401863,
            0.23794503593999428,
            -0.2893499968948228,
            -0.025581895373332494,
            -0.02020129219467237,
            0.058284412663453466,
            -0.03618261199114606,
            0.2069154700957012,
            -0.130618489455297,
            -0.020468038034457424,
            0.051145517937452575,
            0.09034374152141837,
            -0.09414651995853694,
            -0.2015624555344578,
            0.16098911817667316,
            -0.05494993892776472,
            0.14946503484403292,
            -0.1964696885889167,
            0.20203170296607578,
            -0.0944710750688513,
            0.1279898964183849,
            0.26076982799896237,
            0.22576108580484497,
            -0.2114123965382041,
            0.26604229338154495,
            0.25160512896175163,
            -0.017949862034826895,
            -0.0118500141939622,
            0.009018769771506487,
            -0.054026821121037294,
            0.15399141137477998,
            0.19094081847455333,
            -0.058126307451687835,
            0.18506097191775916,
            0.06428321532219371,
            0.4002768894986897,
            -0.1355332756925584,
            0.14716184619225714,
            0.08656919030385825,
            -0.09426930010862412,
            -0.03930292618747442,
            0.10644489046700804,
            0.21169355519225638,
            0.002979310742718812,
            0.2173602313545843,
            0.08150181161399037,
            0.07926285047738174,
            0.0032114810218683513,
            0.09636856072926342,
            -0.10593565092905036,
            0.06769406484588326,
            0.08393764176847952,
            0.10992574531627503,
            0.07154043448834121,
            -0.06097460690121028,
            0.13791767880642528,
            -0.03128362236406337,
            -0.008627300089162874,
            -0.025926078248010707,
            -0.00968913302167371,
            -0.2035038794478032,
            -0.22619777284264023,
            0.09283901708207253,
            0.16921174989300333,
            0.21038370914236407,
            -0.07200563140038084,
            0.18313080736829102,
            -0.07916715124347914,
            -0.2068859008701104,
            0.2073961923495109,
            -0.013120448018818386,
            -0.08196525143838974,
            0.07794463847671898,
            -0.2426661807031432,
            -0.08784699047980833,
            -0.18619766591786222,
            -0.14470411036967387,
            0.27204349891897345,
            0.24019183605243213,
            0.07399897998460035,
            0.026315066310319782,
            -0.09754721559457229,
            -0.03705224509761354,
            -0.16657224259144787,
            0.020101382472783823,
            0.12054705003839672,
            -0.2243590928316824,
            -0.028157908920494253,
            0.15526657232093488,
            -0.17467423228288087,
            -0.2930614884453725,
            -0.012422443455668048,
            0.3334588945041872,
            -0.02157573855618329
        ],
        "7": [
            0.07467302832757038,
            -0.08876098975302976,
            0.0007660388151129034,
            0.2583258615644299,
            -0.23392282852506632,
            0.23923894942415155,
            0.08093923425701507,
            -0.10956027375342478,
            -0.03792199395890321,
            0.09757433733405989,
            -0.1070216421080638,
            0.07043768031954288,
            0.12656051173431798,
            -0.13894599263494384,
            -0.04398415296992215,
            0.08836595404292513,
            -0.06953933573705123,
            0.1824339535581289,
            0.183917730262137,
            0.2311591738641171,
            -0.037825267994647895,
            0.22652321086901442,
            0.23138537733247536,
            -0.1205307804931139,
            -0.09780681835278025,
            -0.022481194217800576,
            -0.03238598564104509,
            -0.021961374107241447,
            -0.08742091607404787,
            -0.0034161100360631793,
            -0.2067892897236436,
            -0.12178089404200121,
            -0.2510980109784861,
            0.1404902612865743,
            -0.2171733438331969,
            0.02388732175610447,
            0.07556284306951874,
            0.05938217783117073,
            0.06062084814142867,
            -0.04915868778156712,
            -0.23697231772541322,
            -0.28002268214204545,
            -0.044985591215911724,
            -0.0650459110954303,
            -0.021701109800274152,
            -0.06372748527751514,
            -0.19480534492070145,
            -0.18613679960384494,
            0.08928289342045717,
            0.15200549388056403,
            0.18637907760724676,
            0.018894164135894242,
            0.2594099937510202,
            -0.17746141108111202,
            -0.09641009277223045,
            -0.0856760638156541,
            -0.11004615184782972,
            0.03713704471117946,
            0.03991145763816329,
            -0.1858341029015014,
            0.10561755470788459,
            0.023610309023218246,
            -0.08707787492837973,
            0.21086937259210964,
            0.13216590851978494,
            0.26974896036803103,
            -0.15529658462357832,
            -0.04740079396629961,
            -0.01371134137960082,
            0.022335659773259322,
            -0.12843719004784931,
            0.10468727767755712,
            0.053712709151961704,
            -0.1447112855295441,
            -0.002238998640057719,
            0.04851140016166993,
            0.11908787865459321,
            0.22546061867187134,
            0.05983487095336978,
            -0.14090206349837175,
            -0.3268347495064363,
            0.1058769738785208,
            0.09886714845292999,
            -0.21429829254295488,
            0.025962846956256783,
            0.009123451644011783,
            -0.16484762535410527,
            0.03422666528490667,
            0.2453166325002074,
            -0.06102500492132801,
            -0.16683175289716615,
            0.024375294256214677,
            0.09176715406408854,
            -0.08384744614762234,
            0.26798264901531316,
            -0.32482412687317125,
            0.19555704576259297,
            -0.0795703825873637,
            -0.23979456340445235,
            0.103237105298451,
            -0.062421372676278,
            -0.11149449633017167,
            -0.0032322448965097597,
            0.13186858533659515,
            0.030838620183427375,
            0.0602091560447098,
            -0.09370015320119404,
            -0.2857421925607182
        ]
    },
    "width": 12
}