{
    "bias": [
        0.0,
        0.0,
        0.0,
        0.0,
        0.0,
        0.0,
        0.0,
        0.0
    ],
    "depth": 12,
    "f_count": 8,
    "f_size": 3,
    "height": 12,
    "name": "conv_2",
    "padding": 0,
    "stride": 1,
    "type": "conv",
    "weights": {
        "0": [
            0.12118711697103735,
            0.048697318863771086,
            0.020524649615839587,
            -0.07780552787873227,
            -0.04019930849198061,
            0.04264613129176785,
            -0.020140136917566925,
            0.11822497548097728,
            -0.15398093808859917,
            -0.10919631922709876,
            0.1678659252603001,
            0.03282379190005436,
            -0.07229550333715018,
            -0.21277029986492668,
            0.1071713528826695,
            0.2505599863019163,
            0.03661718959349163,
            -0.0982102818542208,
            -0.056047344420479636,
            0.1897577065835329,
            0.12972904410381675,
            0.045718845641584904,
            0.013121826168526201,
            0.11116872044781384,
            -0.11330222011775022,
            -0.04112909181566192,
            -0.05482254530347954,
            0.03014929281637373,
            -0.0641271139863822,
            0.12223593739826237,
            -0.04140138134637484,
            0.03244858929478123,
            0.1641720939742337,
            -0.11215128979475106,
            0.16063761539665591,
            -0.27762666396440305,
            0.23661793980729154,
            -0.013331561034805433,
            -0.08849104036137578,
            0.07907003988973971,
            0.10518411350155911,
            -0.09403470655411796,
            -0.04335285616492232,
            -0.2545128915828358,
            0.048478866411308566,
            -0.028839503436195634,
            -0.13705297270301878,
            -0.1385618071625309,
            0.004445456145157656,
            -0.01197382690967467,
            -0.08878766345415563,
            -0.02986417099972397,
            0.22448125540493094,
            0.17358567354917934,
            0.008415361250919752,
            -0.11777687751407055,
            0.20773245971608684,
            0.2045022306432069,
            0.1801752560606247,
            -0.07112846961465083,
            -0.20141228967008185,
            0.17045920624705757,
            -0.2885079419176294,
            -0.1977531476918427,
            0.02368324795424995,
            -0.1828046943868585,
            -0.16492421515603434,
            -0.17011592581025056,
            0.33818098587992673,
            -0.0009251641202010183,
            -0.09393838866423743,
            -0.2472904866620621,
            0.11997950700300987,
            -0.1359220035813563,
            0.2625491166118641,
            -0.18394494200941316,
            -0.008222191323739737,
            0.07554108667302475,
            0.0031176875328598522,
            0.23409013471944257,
            -0.07410596467798551,
            -0.1716514536637658,
            -0.03085659716579156,
            0.011714597165244556,
            -0.0661142422758384,
            -0.15915255122638003,
            0.0708005190199779,
            -0.19292887725184882,
            0.09911816842708104,
            -0.1970831772307884,
            -0.11628189435005147,
            -0.022579281769467448,
            0.01205664810184552,
            -0.2026792461506879,
            0.14815893836476265,
            -0.0751024971094295,
            -0.04503532871960758,
            -0.10581537755799095,
            -0.2300240620445589,
            0.13550671425132765,
            0.17286032292512896,
            0.05060776394538513,
            0.12745804601243851,
            -0.0611750959295897,
            0.04231136642098752,
            0.0034190683124141505,
            0.17399339392092064,
            0.007120960510763159
        ],
        "1": [
            -0.3141256704111534,
            0.3976771404603043,
            0.06775554852260324,
            0.06410836527891267,
            0.03133384373609173,
            -0.09716860484637678,
            -0.10617275809299259,
            -0.10196509770856221,
            0.05571716015049509,
            0.016800136359244437,
            0.008427665880071683,
            -0.009913615788116146,
            -0.15447543847831433,
            0.11734776449062471,
            -0.022171662595782907,
            0.22193703908407295,
            0.17531373928501195,
            0.2457359385801601,
            0.13898989355753474,
            0.07920485321380036,
            -0.15060554074987256,
            0.08727308166284359,
            -0.23227415718605982,
            -0.036246523181744025,
            0.07462403475608931,
            -0.11890413085151837,
            -0.042949554727954635,
            0.04320236290174769,
            -0.07845255131880138,
            -0.1648291957586465,
            0.05136585114215807,
            0.01683779798480726,
            0.06051094350709155,
            -0.05826450957877839,
            0.08258569527919415,
            0.04013428916716647,
            0.070756886182509,
            0.01317979927991453,
            -0.01688707667274857,
            -0.05973257921053309,
            -0.04285219639450216,
            -0.25338709817920163,
            0.252733982756212,
            0.0811042481966615,
            0.1809031880601061,
            0.06278946907645867,
            0.2917450427813837,
            -0.12663803955304706,
            -0.012564896909542943,
            -0.11120529649206384,
            0.2078594907082071,
            0.07071116693377187,
            -0.0994305676700906,
            0.10864744277568547,
            -0.06061108399909697,
            0.12535350350583424,
            -0.1774245385701957,
            0.02994931487022262,
            -0.08012885996260095,
            0.06019164306822004,
            -0.1731406652262603,
            -0.08084805919194006,
            -0.004023249301373512,
            -0.14462348249965765,
            -0.25556914741840514,
            -0.041105848552605094,
            0.07401498228355247,
            -0.05844010801450488,
            -0.07113904986390261,
            0.20401131479089885,
            -0.09815925310803116,
            0.02158593307623542,
            0.016209448508064675,
            -0.07166612704212262,
            0.0004224540230335023,
            0.03738112044887148,
            0.04996634873144049,
            0.01086624726889495,
            0.01764107736564965,
            0.10885232217092841,
            -0.14878894883978153,
            -0.0014273520518753525,
            0.06390423737268426,
            0.0160418706981058,
            -0.26346101296147584,
            0.3032746540373895,
            0.01403863297933013,
            0.03136055004309941,
            0.13962391055441828,
            -0.16257618275303615,
            0.21362281510571768,
            -0.16431043954890107,
            -0.17356123236249554,
            0.0346855683121629,
            -0.013838113441796715,
            0.09099621677403674,
            0.01668786507093809,
            -0.00857818524688482,
            0.020108247068984633,
            -0.14975205020495744,
            -0.06038190521071058,
            -0.03331899377503599,
            0.12554927898892002,
            0.04036643820347755,
            0.2558246947172723,
            0.2883858573289091,
            0.05331658122718872,
            -0.247746759408077
        ],
        "2": [
            0.09747975721985429,
            0.08857492924849204,
            -0.03406872743533127,
            -0.0727603668593612,
            0.18155734543991586,
            -0.023345368138648563,
            -0.0915310646669186,
            0.1443373636618699,
            0.0651284205241711,
            -0.17211377015507712,
            0.046782022819496415,
            0.007513204741263256,
            -0.09283332229114113,
            -0.17305592639456002,
            0.11571618174452807,
            0.013018972017913839,
            -0.03892192289344966,
            0.1935625746020064,
            -0.06424216197717834,
            -0.035404658282673585,
            -0.2344567053426523,
            0.13758789694963527,
            -0.11140632578169381,
            0.08128123501274702,
            -0.11035744214592921,
            0.018609026393308352,
            0.07562516069748731,
            -0.16532055592547765,
            0.2729535303972239,
            -0.0938157331433553,
            -0.02835180122882919,
            0.07609973152083839,
            -0.18803296627038033,
            0.2064400268028235,
            0.20120946682651852,
            0.12285326369856456,
            0.07075429159421909,
            0.12557730303659678,
            0.01075427935292447,
            0.014745043498230753,
            -0.09148722242523888,
            0.09187913763759277,
            0.16762428603850102,
            -0.08455055341877436,
            -0.3825189374314024,
            -0.05561426765112654,
            -0.19212156108174308,
            -0.1081974144234287,
            0.006581654736340017,
            0.017016021072886342,
            -0.055813603357548626,
            -0.0596624027599261,
            0.07653325687874223,
            -0.15575638723879143,
            0.1212722238034791,
            -0.21350598189415013,
            -0.10917831973830652,
            0.01420014185516443,
            0.154444133871834,
            -0.030404793108620463,
            -0.24309067944786258,
            -0.23463543746630477,
            0.018170586223050893,
            0.08347890867925552,
            -0.1449264565790607,
            0.17607662328990042,
            -0.143124259700946,
            -0.087779376493257,
            0.08171743924584572,
            0.06785270691498592,
            0.03640270928821316,
            -0.22025967609477917,
            -0.0708524679308947,
            0.12056339663149943,
            -0.005286164395112211,
            0.14783648331976343,
            0.05412831513818718,
            0.13008538585902119,
            0.09735270060696016,
            0.1000314190093141,
            0.07944028166253604,
            0.1409465998572133,
            0.1701524058902638,
            -0.20791999273791234,
            -0.2616257681328466,
            0.006976625806771019,
            0.008577308041372859,
            0.07390531782699249,
            0.14493517743195533,
            -0.1363874909102929,
            0.14244747828876167,
            -0.08914863985841119,
            -0.0010495385464573722,
            -0.046948598036269724,
            0.18698276875439462,
            0.3222576247916657,
            -0.17595050286307976,
            -0.06321362616741195,
            -0.2626264882160105,
            0.08046602955906668,
            0.016337105426369455,
            -0.03755298064194238,
            -0.10726507642272436,
            -0.14027886736522072,
            0.10465263866996143,
            0.05328749574619484,
            -0.22038043742874924,
            0.17623695490706426
        ],
        "3": [
            -0.017466218320956732,
            -0.0746380931112231,
            -0.11643313729573249,
            0.14455403844595505,
            -0.2557050195801149,
            -0.06384117811025758,
            -0.13323743290991594,
            -0.20515649911050657,
            0.0942079822607933,
            0.009131908860668204,
            -0.052925115927644525,
            -0.06129998268288352,
            -0.02129720834325631,
            -0.10973553228794154,
            -0.12132172680695895,
            -0.024723017385862044,
            0.1399236123315084,
            -0.0922518610923487,
            0.10381888021629067,
            0.043643277252887684,
            -0.026648223109241687,
            -0.02988725241063255,
            0.14626852331063273,
            -0.030625561483447222,
            0.02537469508633631,
            -0.05693048682689656,
            -0.0712122777324567,
            0.03469393572971568,
            -0.05350446603909336,
            0.1326895978847784,
            0.2331475400751482,
            0.21063666654314508,
            -0.055176893918238414,
            -0.0785220424197204,
            0.04677731100518826,
            0.06209398944371997,
            0.05842509605723257,
            -0.03826126584676338,
            -0.16795762133365932,
            0.005287663064947094,
            0.18919288292554357,
            0.07065897565081035,
            0.1262377790363633,
            0.277454963110486,
            0.042476026808106054,
            0.2183435676310797,
            0.026930740817282903,
            0.00671813256862072,
            -0.03713656869519105,
            0.033720706029995245,
            0.05854642307773106,
            -0.0319790545906878,
            -0.17461028284718663,
            -0.19418975805402647,
            0.023023018885692983,
            -0.2207024561794443,
            -0.014700620947143396,
            -0.24664347987252114,
            0.12459475367759543,
            0.13014701799361195,
            0.2681589368752196,
            0.07888079745995454,
            -0.16644427415472648,
            0.14651165021487483,
            0.20247910125386515,
            0.13789625177988302,
            0.10695817882362092,
            0.17056145101230588,
            -0.11193255136735936,
            -0.07671482428456423,
            0.2501622360727952,
            -0.059178809770397856,
            -0.06760259678954114,
            -0.22173965943878515,
            -0.1430970785553931,
            -0.11032617600750753,
            -0.12542254629253335,
            -0.12644059559070017,
            0.09307716597262293,
            0.11138063638311206,
            0.03625373979620604,
            0.02881484333498834,
            -0.25408697083144866,
            0.3128875964689661,
            0.04778281437689727,
            0.08280642838059157,
            -0.085431988168469,
            0.17670998658512807,
            0.25319735811330474,
            0.060821580970264015,
            -0.08809424953054075,
            0.1277411370048442,
            0.2732009535828695,
            0.07782235076665708,
            0.06145132923563815,
            -0.04646871096600091,
            -0.22930214935843002,
            -0.018733977463171753,
            0.1307092397525024,
            -0.07096603788422304,
            -0.023298193828263244,
            0.21901408794273158,
            0.04168500697726605,
            0.12392271261632357,
            0.10963923320073773,
            -0.04343992122438448,
            0.059484822301900254,
            0.03766985361361173
        ],
        "4": [
            0.13905387588939683,
            0.06564931121105036,
            -0.1348851471785778,
            0.0959989110848498,
            -0.088709157595606,
            -0.048447043192084115,
            -0.09723006999685571,
            -0.0923981747459886,
            0.11624540663784126,
            -0.001752600509261135,
            0.05017434226223279,
            -0.10164476969963919,
            -0.06845797374346678,
            0.1823049787514988,
            -0.14916651049481133,
            -0.14638796823967964,
            -0.13591899371750019,
            0.02784587309404057,
            -0.10952992026532406,
            -0.08082046607099556,
            -0.19540058865164986,
            0.07102185541214645,
            -0.146243130203182,
            -0.06767846918599238,
            0.0976761128813483,
            -0.011279671668981337,
            0.08798616088866004,
            -0.009360187473539323,
            -0.15347990147583193,
            -0.14868242453775585,
            0.012579826772467828,
            -0.17393968092364473,
            -0.2243125744031256,
            0.07069481951907523,
            0.26657450158624607,
            -0.11612209224056683,
            0.1783824620707257,
            -0.15087664037570633,
            -0.08945715301496343,
            -0.20916247614782407,
            -0.13872864407827512,
            -0.0007365975324285239,
            -0.01347755472337757,
            -0.11492456591503875,
            -0.033312856580353815,
            0.07655890938543994,
            -0.06723273076279111,
            0.009547866200462623,
            -0.07350795956234714,
            -0.19805414488993733,
            0.06120565899996204,
            0.01803536525769008,
            0.14135602205695813,
            0.04878055797928257,
            -0.11001573379182632,
            -0.022929532634227808,
            -0.11005654226399797,
            -0.008229850818061964,
            0.1476232386493817,
            0.08922141269304332,
            0.16648676744598473,
            0.02718281053403757,
            0.09936172787182783,
            -0.16434729738401305,
            -0.09876483924231992,
            -0.1061903881628491,
            0.019282767059896486,
            0.024604091122122574,
            0.022167700788900926,
            -0.03858963476848154,
            -0.045773452973719396,
            -0.024968339082018055,
            -0.20261040222255983,
            0.09545120163817217,
            0.2572995606901906,
            0.11594025925370484,
            0.29608282944217656,
            -0.08221566029224107,
            0.06563679314875648,
            0.21221221634329232,
            0.20412767458502287,
            0.14058806742490593,
            0.1034970341397609,
            0.15728505966751177,
            0.1453319458574224,
            0.022491726563221168,
            -0.13125937495451484,
            0.02719406648076052,
            0.13822488826369358,
            -0.15530417224117335,
            0.2406254962681457,
            0.03109719585146412,
            -0.005077167134247624,
            -0.14182995107283625,
            0.4272928188125776,
            0.08525428705901435,
            -0.021494349058060663,
            -0.016645576308840223,
            0.3219248095546451,
            -0.01691513066312958,
            -0.2786287035763082,
            -0.05118967054652826,
            -0.022384262780997415,
            0.02248010995853255,
            0.029897893332061463,
            0.00782933336534854,
            -0.09115634473896174,
            0.061792698678411265
        ],
        "5": [
            0.024945735996624252,
            0.03819278457575318,
            0.12284006567411923,
            -0.27798009405193025,
            -0.022833080646986473,
            0.16309035214707318,
            0.08615778717958329,
            0.2734670913992037,
            0.04186393591518066,
            -0.20723923562872631,
            0.25080352543341267,
            0.022283329642823813,
            0.2430799895202471,
            -0.24500403998662096,
            -0.09276893520340083,
            0.1817304108718247,
            0.06354428658798382,
            -0.06085814987087553,
            -0.09773977098104257,
            0.01740301242531548,
            0.026315167782371987,
            0.033332867130145605,
            0.05015570621607516,
            0.053910332936090134,
            0.023505755164322926,
            -0.0868265369943033,
            0.3213545235991355,
            0.4435896054658863,
            -0.15696655100711288,
            -0.1326030169666884,
            0.1538939967378444,
            -0.20431090900461132,
            0.13911425928570223,
            0.09037627892161058,
            0.1744006774942395,
            0.011740966653996926,
            -0.08817809786172745,
            0.20872242843616062,
            0.056866403627527706,
            0.1004108392770146,
            0.10806412922432779,
            0.219913890266732,
            0.2778739172504886,
            0.11526850211985415,
            -0.23059835509851423,
            0.011165872481234235,
            -0.02680516742978132,
            0.1941696511506395,
            -0.04405690623828472,
            0.00485670701896759,
            -0.030193447477621572,
            -0.02472651114385019,
            -0.07011005986174465,
            0.06864800000442417,
            0.02497935867188273,
            -0.07629470167868908,
            -0.16535676267963634,
            -0.014783630767092992,
            -0.043915226933818836,
            0.08031996253523482,
            0.010833965923084972,
            -0.053301939130440054,
            -0.16585029989141312,
            -0.11902521090853314,
            0.12990866429060335,
            -0.22783362079808464,
            0.12454686549144973,
            -0.22023769946693791,
            0.020217462289574373,
            -0.15416557257477223,
            -0.023353469218635847,
            -0.1053416637931007,
            -0.010068903870156045,
            0.003063337592216912,
            -0.1542285628756799,
            0.08938925758209014,
            0.07529259197263173,
            -0.08647653847573335,
            0.2086791005015203,
            0.20913400493273449,
            -0.10761369913458706,
            -0.02342739508096968,
            0.1836452047466867,
            -0.24354567049936532,
            -0.03992630687471806,
            -0.09031779153361187,
            -0.014348843338430109,
            0.06914313528531799,
            -0.17448293036646886,
            0.14417674019463608,
            0.10646669360274355,
            0.012338724513306032,
            0.14922012307693758,
            -0.2003510428214305,
            -0.049827498270019394,
            0.25712622150457837,
            -0.08179736422194159,
            -0.057277685624886186,
            -0.011120682953834705,
            -0.08012018408129332,
            -0.21276767929540008,
            -0.026858062355246046,
            -0.028200872094490164,
            -0.12337128212910543,
            0.06919300428009338,
            0.034433603644121,
            -0.20621962542494832,
            0.08073306548056264
        ],
        "6": [
            -0.1029035175319383,
            -0.033922041264227605,
            0.24060209223121345,
            0.2360288798823948,
            0.03599006427709623,
            -0.050941175606924884,
            -0.16252300383216003,
            -0.06646286296774068,
            0.2609399572608972,
            0.020225491755755196,
            -0.08517218261365632,
            -0.06179736508376261,
            -0.24139413184111463,
            -0.031860911841893436,
            0.04963718676239687,
            0.23794544890886046,
            -0.2893491734243016,
            -0.02557806819821452,
            -0.020093976222539917,
            0.058414861841022715,
            -0.03600674559369685,
            0.2070326052019226,
            -0.13048579355025428,
            -0.020297204718041643,
            0.05125707106839397,
            0.09043376897014947,
            -0.09401559681976578,
            -0.20140680963204663,
            0.16123326723487733,
            -0.054676476101610395,
            0.14950573879702783,
            -0.19633682554186038,
            0.20215255415963862,
            -0.0944099345617587,
            0.12807263853698725,
            0.26084574438518104,
            0.22609231851218456,
            -0.2109916403076279,
            0.26641732769812726,
            0.2518973520159813,
            -0.01758306826964144,
            -0.011557253810146082,
            0.00927769163625545,
            -0.053748363591880136,
            0.154217941169546,
            0.19101658934808,
            -0.05809268030876747,
            0.18512321256708764,
            0.0643113238377869,
            0.40033415500892255,
            -0.1354425580682828,
            0.147140334373394,
            0.08656396111659216,
            -0.09419536686178394,
            -0.03930704149054499,
            0.10644032316540361,
            0.21168631535414914,
            0.0029793341697547816,
            0.2173574719321434,
            0.08149876669055284,
            0.07926291974480826,
            0.0032121517667303614,
            0.09636490088071718,
            -0.1059555596540482,
            0.06772843129498152,
            0.08391131113178635,
            0.10989507622597401,
            0.07152035913238139,
            -0.06102343589582992,
            0.1379365489099445,
            -0.03125476942703438,
            -0.008645571087515564,
            -0.02591368371943871,
            -0.009675066063600543,
            -0.2035135594515828,
            -0.22611455540803405,
            0.0929083065165156,
            0.16927400464888712,
            0.2104941425066125,
            -0.07189893344800494,
            0.1832206657892439,
            -0.07877377299825773,
            -0.20640216805264197,
            0.2079016506644135,
            -0.012789223192550912,
            -0.08162285992810382,
            0.07828099351949483,
            -0.24248025482629287,
            -0.08757351379320943,
            -0.1859151450555767,
            -0.14464077996828784,
            0.2721075402701127,
            0.24023350207322153,
            0.07402321413586747,
            0.02633387291942178,
            -0.09749285389604055,
            -0.03706961288835066,
            -0.1665694183320451,
            0.020151302825463676,
            0.1205475051722546,
            -0.2243591981984488,
            -0.02815776176827154,
            0.15526662628097596,
            -0.174674391035262,
            -0.29306145915557563,
            -0.012421942308017015,
            0.33345865110348794,
            -0.02157600044746957
        ],
        "7": [
            0.0746722060328581,
            -0.08875872395961716,
            0.0007680328318559711,
            0.258326592410872,
            -0.23392163194129656,
            0.23924151256770126,
            0.08093943313059945,
            -0.10955971414799255,
            -0.03792178879186905,
            0.09757353681355573,
            -0.10702120404706389,
            0.07043742664709558,
            0.1265611018605145,
            -0.13894599339073915,
            -0.04398422731726626,
            0.08836584274137414,
            -0.0695392204131145,
            0.18243426307479352,
            0.18391314836758055,
            0.23116283157294482,
            -0.037819428186904314,
            0.22649943802908315,
            0.23136928303594517,
            -0.12054329442692802,
            -0.09781962150322508,
            -0.022490737720256646,
            -0.03239283071573155,
            -0.021997718462231145,
            -0.08745226143498439,
            -0.00343629323811799,
            -0.20682992487644444,
            -0.1217959270962307,
            -0.2511186728175425,
            0.14047479224531922,
            -0.21717656931907517,
            0.023891707737362253,
            0.07551527421414536,
            0.05936786886698634,
            0.06061742073217297,
            -0.04919121486977753,
            -0.2369756070087335,
            -0.2800233646140945,
            -0.04499707076413447,
            -0.06503414077616217,
            -0.021698193398032667,
            -0.06374235360834732,
            -0.1948147646105171,
            -0.18614290344007756,
            0.0892713481852562,
            0.1519954968677996,
            0.1863730276536998,
            0.01888143343564051,
            0.25940376426333667,
            -0.17746411484389138,
            -0.0964104334398622,
            -0.08567677202113132,
            -0.11004685973963327,
            0.03713683211370421,
            0.0399110589756757,
            -0.18583462414323723,
            0.10561810198720377,
            0.023610452021885785,
            -0.08707732738558431,
            0.21084631998577985,
            0.1321403535938052,
            0.26972119646992504,
            -0.15532238160118703,
            -0.04741655651768275,
            -0.013730019471508184,
            0.022329069550443968,
            -0.1284379243534186,
            0.10468188770021672,
            0.05371680783150881,
            -0.14469921320467324,
            -0.0022227691269940263,
            0.04852011081990921,
            0.11910970403865777,
            0.22548649585015124,
            0.05983991235307232,
            -0.14089239926143338,
            -0.326826030584972,
            0.1058443132287237,
            0.0988489408716181,
            -0.21431373632927916,
            0.02591145827812606,
            0.009078138194491775,
            -0.16486200390481456,
            0.034178858266529694,
            0.24532289257508005,
            -0.061019799440176735,
            -0.1668445076580822,
            0.024362756046873046,
            0.09175909637177865,
            -0.08386012111540878,
            0.2679635115099041,
            -0.3248400720263958,
            0.19554273834350677,
            -0.07958202730006211,
            -0.23979762134945476,
            0.10323708820568939,
            -0.062421372645819935,
            -0.11149449633017167,
            -0.0032322638204330804,
            0.13186877587539747,
            0.030838638382320586,
            0.06020905869737538,
            -0.09370007361608056,
            -0.28574200847647174
        ]
    },
    "width": 12
}