{
    "bias": [
        -1.080980517491681,
        -1.080980517491681,
        -1.080980517491681,
        -1.080980517491681,
        -1.080980517491681,
        -1.080980517491681,
        -1.080980517491681,
        -1.080980517491681,
        -1.080980517491681,
        -1.080980517491681,
        -1.080980517491681,
        -1.080980517491681,
        -1.080980517491681,
        -1.080980517491681,
        -1.080980517491681,
        -1.080980517491681,
        -1.080980517491681,
        -1.080980517491681,
        -1.080980517491681,
        -1.080980517491681,
        -1.080980517491681,
        -1.080980517491681,
        -1.080980517491681,
        -1.080980517491681,
        -1.080980517491681,
        -1.080980517491681,
        -1.080980517491681,
        -1.080980517491681,
        -1.080980517491681,
        -1.080980517491681,
        -1.080980517491681,
        -1.080980517491681,
        -1.080980517491681,
        -1.080980517491681,
        -1.080980517491681,
        -1.080980517491681,
        -1.080980517491681,
        -1.080980517491681,
        -1.080980517491681,
        -1.080980517491681,
        -1.080980517491681,
        -1.080980517491681,
        -1.080980517491681,
        -1.080980517491681,
        -1.080980517491681,
        -1.080980517491681,
        -1.080980517491681,
        -1.080980517491681,
        -1.080980517491681,
        -1.080980517491681,
        -1.080980517491681,
        -1.080980517491681,
        -1.080980517491681,
        -1.080980517491681,
        -1.080980517491681,
        -1.080980517491681,
        -1.080980517491681,
        -1.080980517491681,
        -1.080980517491681,
        -1.080980517491681,
        -1.080980517491681,
        -1.080980517491681,
        -1.080980517491681,
        -1.080980517491681
    ],
    "input": 800,
    "name": "fc",
    "output": 64,
    "type": "fc",
    "weights": {
        "0": [
            0.0060835438225939195,
            -0.0034805555632850256,
            -0.008113682972625748,
            0.004580455346990172,
            -0.010022921884382259,
            -0.0053168602464026766,
            0.002765055191810112,
            0.00169303523099104,
            -0.01126765299884452,
            0.00096221612812178,
            -0.0014699430181239473,
            0.012643707997818242,
            -0.0023017535027321937,
            0.0027437743905908934,
            0.0075804009693615755,
            0.0001297522637102472,
            0.005305986939843552,
            -0.005544607392606806,
            -0.002463519690557256,
            0.006663421460158032,
            -0.0007533077647897494,
            -0.006622447617410206,
            -0.001578002395819293,
            0.0008848107611392482,
            -0.0011112258990511436,
            -0.014528204113599289,
            0.006001010386000766,
            -0.004429886801620346,
            0.010301643821453236,
            0.003632106151461338,
            -0.0047115699675477525,
            0.0036656592887310277,
            0.0026997727182887146,
            -0.0033663249837311325,
            -0.004418407496867565,
            -0.003937851152086796,
            -0.0021431020867327295,
            0.004370610711429303,
            0.0034497085582321494,
            -0.001464767889995536,
            -0.0004975526678142844,
            -0.003077692278798119,
            -0.002107634205696373,
            0.003562722957388228,
            -0.009750678962732842,
            0.001696585748648921,
            -0.006039449797885371,
            -0.00495462422419338,
            0.0008017289464123171,
            0.0026452754259521935,
            -0.0025143818621067454,
            -0.0023937786826086823,
            -0.008798007198416212,
            -0.0011689155605332931,
            0.0025594685434026823,
            -0.007786053248868642,
            -0.01197567580118514,
            -0.016720428086522198,
            -0.007584767151752832,
            -0.006584146667653012,
            -0.011965617307020419,
            0.00517034982878116,
            0.002210056244781175,
            0.00472431071379196
        ],
        "1": [
            -0.002496001609413006,
            -0.0015444957174869114,
            -0.0033161771447912133,
            0.002293892222747489,
            0.007758427154190551,
            -0.0008258876602593694,
            -0.002640145716430494,
            0.0011567186544255825,
            -0.002358831720780835,
            0.005820814670035622,
            -0.011575242851479846,
            -0.005974113420161626,
            0.0012545935544782164,
            -0.0022306449285899735,
            0.013092330965310118,
            0.0006178045295657038,
            -0.010546278991377623,
            0.0030454641702217762,
            -0.0017310630022233913,
            0.008845925896199184,
            0.0012095645040924665,
            -0.0009275475273590954,
            -0.006739194919686099,
            -0.0030589533318698073,
            0.009805474604401804,
            0.0016126733600116561,
            0.0036286447120645036,
            -0.0010073180136197242,
            -0.004973314411942362,
            0.0012337989094738091,
            0.009968152160255704,
            -0.007956206336196042,
            -0.007586825529299757,
            0.005095958853910079,
            0.00564773840785596,
            0.0060994829979692,
            -0.00029499018641367233,
            0.003220997166751525,
            -0.00832417304041789,
            0.004115698035567622,
            0.00774362396808344,
            -0.008732923428250432,
            -0.0041842360555886405,
            -0.0013168930516675502,
            -0.004227746900809165,
            0.003491499494639166,
            -0.005072368699387072,
            0.0020867632725603325,
            0.004598598276485732,
            0.0027506231425064075,
            -0.015838069253660072,
            -0.005209694057468136,
            -0.0035466980970784035,
            0.012711407007855455,
            0.007226932540840017,
            0.0029695854257305713,
            -0.010095827401378939,
            -0.0013596649972916022,
            0.007382016530006818,
            -0.005609120201978785,
            0.007186898223900249,
            0.004595567035537166,
            -0.00370733048772858,
            0.008320314032317588
        ],
        "10": [
            0.0008477217709631868,
            -0.0035544838576298922,
            0.002608487759287762,
            -0.004067311036655417,
            -0.0021864550863830573,
            0.010490251703377123,
            0.0037364853583783174,
            -0.011977684264915644,
            -0.00934290410725045,
            0.007182744245978275,
            -0.007446466322405668,
            -0.009192478526351206,
            -0.007016957036421022,
            -0.0008054398364719381,
            0.0034125633877759953,
            0.001589377321062623,
            0.004922245212080682,
            0.00749904375068489,
            -0.0033707457633670498,
            0.013713760218289683,
            0.004711330789038926,
            -0.0006666695974524515,
            -0.003548836385066605,
            0.0025486472877597633,
            0.001348771220352771,
            0.0012270647695176806,
            0.011605940506944766,
            0.005446346048473831,
            -0.008185250544293747,
            0.00030874064122002695,
            0.005349582905329065,
            0.00422237895681292,
            0.01298161574571865,
            0.010046699942114606,
            0.0045421341790141045,
            0.0024979569342297686,
            0.008829998160774514,
            0.0020528496414781478,
            0.0008495958420174952,
            0.010374237815503002,
            -0.01236977786240486,
            0.001484238691456218,
            -0.013315748959181185,
            -0.0001062696444883132,
            0.002517979560960007,
            -0.008879021280058344,
            0.012549998662537058,
            -0.005685001959651418,
            0.00895463251849713,
            0.006447374641976389,
            0.0038872738687011766,
            0.000527309686644506,
            0.0007374383022097188,
            -0.0014400177574676876,
            0.0007364948809423109,
            0.007633532387834251,
            0.00014401308327301502,
            -0.0029254465985436486,
            0.0033464477230908604,
            0.00812967127230627,
            -0.006913216836976693,
            0.00043879143067537146,
            0.004004329792190756,
            -0.0019216230781772062
        ],
        "100": [
            -0.005415166444200371,
            -0.0022989764966998547,
            -0.007753875442069295,
            -0.001612172685708771,
            -0.010918377880573977,
            -0.005101340011211,
            -0.0036785714481032657,
            -0.006863565265969906,
            0.0031104132004625613,
            0.006805263602521614,
            -0.0013557392692226519,
            0.009847676534841046,
            -0.01724530206392876,
            -0.0023093798958079186,
            -0.010001904960892304,
            0.005232507379768937,
            -0.006512436443347383,
            -0.002577259710482238,
            -0.006984043627143059,
            0.0023655579991883812,
            0.0008366319678127541,
            -0.004886518982652748,
            0.0008582914678685554,
            -0.008918965512963978,
            0.0018573830086144208,
            -0.005480230054371724,
            0.0020477368486253285,
            -0.00664533643986802,
            0.006490833097459705,
            0.012292684259965356,
            0.0036750315819483893,
            -0.009474626415229873,
            -0.007761034030388867,
            -0.006773898089443065,
            0.009241016955677753,
            0.00578417975791386,
            -0.005674893361876817,
            0.006940182562625248,
            -0.0053986880069268935,
            0.007811867910492827,
            0.0016424145115900728,
            -0.0038898897028029054,
            0.0012491947768940546,
            0.0073369522396722,
            0.0029277093221351945,
            0.00344771014545579,
            -0.007610803853715058,
            0.005093756857333747,
            0.009413432568170123,
            0.0034882662086304136,
            0.0005327994957623343,
            -0.0034915773096689745,
            -0.008029917531571595,
            -0.0011442508291766317,
            -0.0015930039159594948,
            -0.007901029991208898,
            0.003923852523890229,
            -0.0028579132391731007,
            -0.0042962652795313265,
            -0.006779776116394436,
            0.0013294454080953607,
            0.0019042520207906363,
            0.005275763562116183,
            -0.001798624232623506
        ],
        "101": [
            0.0001155293828253736,
            0.002980282784834358,
            4.4290016281658745e-05,
            -0.0033094752255373987,
            0.004072653860990585,
            0.007225880122834034,
            3.804490788139078e-05,
            -0.010331003105068313,
            -0.0005495994396365808,
            -0.003455392501621388,
            0.003317494779788968,
            -0.011208021790481646,
            -0.004278481194188154,
            -0.003437455956128509,
            0.00010160635274769315,
            -0.004007997170962467,
            -0.0027752985749959947,
            -0.0033692291466783635,
            0.000160862851485094,
            0.00990924283075526,
            -0.00428953379619094,
            -0.004024580237179802,
            0.0025532689474080184,
            -0.004047388199299437,
            -0.0036608659691636145,
            0.005214153521854942,
            -0.005923995444639324,
            0.002631450916828897,
            0.009223418315823255,
            -0.008588688320904583,
            -0.0018205575904231628,
            -0.0011959897268059535,
            0.0011454805433184743,
            0.0022958096114190788,
            -0.0026838976137636764,
            0.002258954091640423,
            0.0012919334919427596,
            0.005293979065590415,
            -0.002499499107015732,
            -0.0021456501610908076,
            0.004124111653789331,
            0.005076882516541488,
            0.0016348355620672307,
            -0.0008114238116248308,
            0.0041278331585619865,
            -0.006509855751930014,
            -0.0057324319264575796,
            -0.003962207586767922,
            -0.0011744625629831907,
            -0.004965815853572194,
            0.012712475700944548,
            0.005629734942616454,
            0.00404385654433394,
            -0.007184832770664358,
            -0.003400893346283814,
            -0.0007616856548375137,
            0.0032542588220723367,
            -0.017746017871506547,
            -0.0076917108821061815,
            0.001944127732811845,
            0.008864626382042454,
            0.006279836463199486,
            0.00035411227391820947,
            0.011181171627064623
        ],
        "102": [
            8.26914931330353e-05,
            -0.0028173193693435392,
            0.0027410008361660352,
            0.006212755509177301,
            0.009016026969885101,
            -0.00270643391012858,
            0.0015387989293431483,
            -0.00040015123007443803,
            -0.0016189272985487715,
            -0.003070717613989975,
            -0.0018423626770688168,
            0.006633707653212303,
            -0.0013996193620186227,
            0.0012354199009610282,
            0.0056243829129016135,
            0.00026499449909162795,
            0.002900018565091689,
            -0.0032282153749189665,
            -0.005022973327168304,
            0.002663471202167048,
            -0.008682739904290861,
            0.002675768247329915,
            0.0014903009825447105,
            -0.006177761795604679,
            0.010116954270794811,
            -0.006119882420352888,
            -0.010740937962965547,
            0.010581070827514204,
            -0.0017171980636229906,
            -0.0012974396067527189,
            0.00928256702841488,
            0.013250145425356668,
            0.008946032943485078,
            -0.0027234478464940124,
            0.005254217684774075,
            -0.0060819697292583685,
            0.0014188953194286629,
            0.004828234260579904,
            0.008964187560176591,
            -0.0020501608542182292,
            0.0002807981417527489,
            0.0023634354546635916,
            0.0037765621610466463,
            -0.006570011750490916,
            -0.003983585740858989,
            0.0062873360124916355,
            -0.001440159450796577,
            0.007762807876570111,
            0.002679322710656358,
            0.006702898066626827,
            0.010048843595922275,
            0.005604984575445689,
            -0.0029655253219144167,
            -0.0060777466165485294,
            -0.003979132596788867,
            -0.005780546473888269,
            -0.0026060788887967744,
            0.004636944589189971,
            -0.0029297741260952952,
            0.007223921082354777,
            0.002583415961873904,
            -0.0005401709383633627,
            0.0053370431353930384,
            -0.0010252718758037983
        ],
        "103": [
            0.0001428169116096562,
            -0.0051610785762087694,
            -0.004753499241914995,
            -0.012502363736208656,
            -0.0053155087919407006,
            0.0032223959713438438,
            0.011766927040457538,
            0.0034226212201535137,
            0.00454197803931535,
            -0.002334903788623706,
            0.0046373495094090295,
            0.001028573522489456,
            -0.008528276078826176,
            0.004318310651553289,
            0.006856765961844281,
            -0.0020628289857795297,
            -0.007813891177858596,
            -0.0038129126263256002,
            -0.002704271415786845,
            0.004062771843014687,
            0.002943181607774033,
            -0.004224645610716536,
            0.0009270221339482643,
            0.009514813239259201,
            0.006086003343402,
            -0.0022057474843530166,
            0.007736722244824833,
            0.004813208140812535,
            -0.009837826299339651,
            -0.003820317696494123,
            -0.0022922779624729383,
            0.004050343200434043,
            0.0011500692620282096,
            -0.003608813629800921,
            -0.006612658193885209,
            -0.0022247602788093438,
            -0.006938863548583084,
            0.00033133391439475003,
            0.0025054164506737634,
            -0.01089190736167493,
            -0.005191064556726276,
            -0.0026126679239626247,
            0.0022027001244028835,
            -0.0014725075470573086,
            -0.007718472081729308,
            0.008006429431724993,
            -0.002899996193696368,
            -0.0013069641013265182,
            0.0017501731431829352,
            0.011308672318818824,
            -0.011644202917356093,
            0.002648349798225665,
            -0.0012247063764160612,
            0.0029100041890039005,
            0.00014086638244366592,
            0.0018007842006261517,
            -0.0008349254730938124,
            8.923870557683992e-05,
            0.0029931495998014026,
            -0.0036147949255060582,
            -0.0040349393737667836,
            0.003774128593773047,
            -0.0015884393338169967,
            0.00877368590867297
        ],
        "104": [
            -0.003761914059035128,
            -0.01086109354037732,
            -0.0029473623808275035,
            0.006629105080258053,
            0.0023116619322212932,
            0.005060742378851823,
            0.003160737242971237,
            -0.0015045659479929255,
            -0.0020028943931506343,
            -5.420866212411612e-05,
            0.010577932225337178,
            -0.006207164082511828,
            -0.009033151592059589,
            0.004408383936734614,
            0.0030185749111026287,
            0.006200486570009603,
            0.0023317374308361584,
            -0.005079285422058223,
            -0.005836139145942109,
            0.0035507121908845457,
            0.0019672241764152813,
            -0.0007219128501903017,
            0.00031040135592142284,
            -0.0024676420297286804,
            0.004488528840789835,
            0.0017697467892331309,
            0.015176855634363851,
            0.0006034375646392947,
            0.003891986555495518,
            0.0074875986747062594,
            0.0026116866643214344,
            0.004462954124237463,
            -0.003166188037039639,
            0.005575277155074805,
            -0.0014337592474613328,
            -0.0125106056468972,
            -0.011399896869912298,
            -0.005379382747411224,
            -0.011016238409349222,
            0.0008775119208743149,
            -0.0010445930743595998,
            -0.002931169604454688,
            0.004637188764257719,
            0.0038460647035364727,
            -0.0071744637823299385,
            0.018501394257032882,
            -0.0012317154720100356,
            0.003929791921646821,
            -0.015032273138071582,
            0.0009479683447482407,
            -0.009707531432275408,
            0.009714161539465017,
            0.0028987635747728512,
            -0.0059055078713313195,
            -0.013469067136252254,
            -0.0060138533882063494,
            -0.006955162604108011,
            -0.013703198915836089,
            -0.0017180698053170804,
            -0.008241670987731242,
            -0.006634891797725681,
            -0.000641937272296218,
            -3.117021504156228e-06,
            0.009399376613388055
        ],
        "105": [
            0.004358211131066852,
            -0.0026265329571915938,
            -0.005207426571774564,
            -0.010091848568334862,
            0.00034975018340443684,
            -0.01653465087425545,
            -0.0032888520134515794,
            0.00843522740195051,
            -0.00010281549194398648,
            0.003330913580393762,
            0.005023265409218748,
            0.013884036350292768,
            0.0012839620140636207,
            -0.0009267640027224213,
            0.0017795801598524546,
            0.0066816486783656545,
            0.0016545230399726283,
            0.0012238481772419575,
            0.0022318931354422234,
            -0.007221152949263506,
            0.0005046458067218279,
            -0.010366036363738512,
            -0.007900476816264608,
            -0.001639530383855306,
            0.0028502164193335553,
            -0.0035609035726970016,
            -0.004705295821280539,
            -0.0010921070080268543,
            0.005223801026209066,
            -0.0010594725553674767,
            -0.007338366116310351,
            -0.007551835991897984,
            -0.005170658976277245,
            -0.006319096103985644,
            0.003323436203945382,
            0.004398220649676079,
            0.006020081275793409,
            0.0006060764712691721,
            -0.015433525601308654,
            -0.006565534866249091,
            -0.010907196356042237,
            -0.012028039549705686,
            -0.005845123613306903,
            -0.010353762107631786,
            -0.004585244995107014,
            0.00882907131309718,
            -0.002310045885595468,
            0.004303702117994664,
            0.0023895844426516694,
            -0.0057975670586080585,
            0.006992846844807686,
            -0.0006452730849286424,
            0.005393514677035246,
            0.0111660151591536,
            0.002260445973606548,
            -0.001726361893834865,
            0.0063074972415988785,
            0.00831106373225406,
            -0.0025913716147803172,
            0.002435781982484028,
            0.00482991483777769,
            0.0037199814635491446,
            -0.0032355817870494625,
            -0.011290999523790148
        ],
        "106": [
            0.007630690279764844,
            -0.0017425498280854445,
            0.0025858245955510746,
            -4.543995994616538e-05,
            -0.012355336002380328,
            -0.0014352984884300555,
            0.006231912158179727,
            -0.0017516281948650554,
            0.004883110252181625,
            0.00925910320814654,
            0.01160462937892727,
            -0.0001648768444158264,
            0.010905543801883912,
            -0.0004061928794417567,
            -0.004511623359171355,
            -0.006702112124116453,
            -0.003499890627480006,
            0.0031165017183389355,
            -0.0004374493263830605,
            0.004244683931079388,
            -0.007781169993928584,
            0.012107739362685423,
            -0.009660802366065264,
            -0.0022876333971650615,
            -0.005002003890155078,
            0.0001041316725920199,
            0.0062047624845557375,
            -0.007953124102505616,
            0.01171094111083303,
            0.004233232886007305,
            0.006815023791281195,
            0.003861075266923386,
            0.005491003261972743,
            -0.0036683812852239157,
            -0.00352402627781989,
            -0.01211899368409517,
            0.00315632133642176,
            0.00479502801055344,
            0.0010599109071020023,
            -0.0063163025286904735,
            -0.0006766410211330442,
            -0.0052475557524525925,
            0.008644143310045111,
            0.006310605011740537,
            0.000815054753365001,
            -0.013001332434337817,
            0.009646381975663029,
            0.006871644935977338,
            -0.0036672502623049195,
            -0.010857404519351303,
            0.004549302117653532,
            0.0033811670422766683,
            -0.01184380106303523,
            0.00018886583390140268,
            -0.003848750812601241,
            -0.003070844001961074,
            -0.005579861646614955,
            -0.011893942783975002,
            -0.005924747321167633,
            0.0041754452559022055,
            0.00295497515908294,
            0.005529240633268616,
            -0.0014344460833223543,
            -8.494327307852717e-05
        ],
        "107": [
            0.00027356292156576324,
            -0.012436306268330323,
            0.003931442006388432,
            0.003692085155656856,
            2.402941408648783e-05,
            -0.020141705326840145,
            0.003723149215450619,
            -0.0013975821450026155,
            0.0005595717984922041,
            -0.0020797382922647227,
            -0.009152345927369286,
            -0.008694651092172849,
            0.006216326207225448,
            -0.0020414742642303313,
            -0.003686652602408223,
            -0.00045353026913588996,
            0.0014802970051687354,
            0.004667584875394719,
            0.0078835445067488,
            0.002655850868222797,
            -0.009248202251688072,
            0.0035387568786646247,
            0.0024903105970601287,
            0.004064353153923958,
            -0.0030361282199497463,
            0.002722703910678895,
            -0.0025170530176872453,
            -0.003955978465407049,
            0.010893488846098517,
            -0.006473686727008528,
            -0.00298442241789786,
            0.006226278014696786,
            -0.007956521409517078,
            0.002873257937728354,
            -0.000809646876447365,
            -0.0006784788238732649,
            -0.010695159342165568,
            -0.013675625303265005,
            0.0034525715241468945,
            -0.0014439825248083271,
            0.0001808419785556904,
            0.008442759888912065,
            0.0015912080538238596,
            -0.0038317940277972774,
            0.012690474174911674,
            -0.004116043352572554,
            -0.0036174114963776097,
            -0.0011090398407087646,
            -0.003768699764015127,
            -0.006719397745336461,
            0.000441217002449983,
            0.0009006951289414554,
            0.013283892814946463,
            -0.011250288904358804,
            -0.002142829517753379,
            0.00022298103495610512,
            -0.00924046518748661,
            -0.011571097683541963,
            -0.003860635275833093,
            -0.006097647838581553,
            0.010913994804147866,
            -0.006841001958139918,
            -0.009803781527932343,
            -0.001336143151877559
        ],
        "108": [
            0.007401154324776779,
            -0.004182457462119119,
            -0.0018276941749034955,
            0.0011857952512078559,
            -0.005516999549596992,
            0.003123645104438119,
            -0.004830536542608758,
            0.005147980397933479,
            -0.0030866141507907936,
            0.003668561762919833,
            -0.006996017739243538,
            0.013379979060158588,
            -0.010983531740353531,
            -0.004655718587842258,
            -0.003018656886367902,
            -0.0003953914772365247,
            0.005786118387726077,
            0.0016549668889390052,
            -0.0030852937777581147,
            0.007080975052362049,
            0.011874227304958039,
            -0.0020786682668713615,
            -0.00908937028453258,
            -0.00013934762938152016,
            0.007236622613457972,
            0.005647100436785241,
            -0.002563425963519328,
            -0.003634923293948768,
            0.014099961879134261,
            -0.0065306855827518325,
            -0.01151683343692812,
            0.004678523270140305,
            -0.001544250082010177,
            -0.0018895666836408098,
            0.013204854311080913,
            -0.0009716557908760492,
            -0.0038368542061117256,
            -0.017590321664151642,
            -0.008170977156198246,
            -0.002983969078906669,
            -0.0017284357277786377,
            -4.206180993175599e-05,
            -0.010716779113848825,
            -0.003727757568034507,
            0.009775094276731726,
            -0.00568440571509073,
            0.002370521574826676,
            -0.0055869553587747835,
            0.0033794835476251184,
            -0.006778172989317037,
            -0.005611482374371156,
            -0.001573561475575027,
            0.004340155807638242,
            -0.004138171793280344,
            -0.0074850482849036235,
            0.009946083604319303,
            0.00017221763708987031,
            0.000696024836452336,
            -0.005007881203619295,
            0.0010833893402289818,
            -0.005677876787870917,
            0.0038999609504354552,
            -0.008847326518027828,
            0.003397759516769089
        ],
        "109": [
            0.011161373965759024,
            -0.001070460627462144,
            -0.002890601683631155,
            0.004390901563929243,
            0.003869930410711781,
            0.0003431185395472073,
            -0.00015857765106583517,
            -0.01309363474892656,
            -0.003957762217319036,
            -0.0010334831181722918,
            -0.010165225249996784,
            0.005892235049792038,
            0.006187933967446024,
            -0.0014226414837146266,
            0.004490143282355817,
            7.500367189703488e-05,
            0.0017371083489965912,
            -0.002834957549268017,
            -0.0009951851350705786,
            -0.0008017357203877973,
            -0.011615445781200533,
            0.001157878573924423,
            0.006768889054024202,
            0.006099278651169763,
            0.015379048904618128,
            -0.0009083651600415958,
            0.002257329993811238,
            0.006400002124904034,
            -0.007613306591678467,
            -0.0051903072687984825,
            0.0027531157121184033,
            0.00024142401047834626,
            0.002626518571080065,
            0.0016194451994408937,
            -0.010124383493488784,
            -0.008566528573128222,
            -0.004340815461081013,
            -0.0077652569098109496,
            0.007621363938527011,
            0.010083847686641924,
            -0.004898280754659721,
            0.002166251001108407,
            -0.001417168987221507,
            -0.0021820625830928438,
            0.0063872107857496545,
            -0.004371909494829484,
            0.0035883731787222195,
            0.00593806882281663,
            0.00829996983833227,
            0.009416573870327231,
            -0.0023908284422108996,
            -0.0065191026286558285,
            0.004666049684941333,
            0.0011663066017306592,
            -0.008833477433690477,
            -0.0023580294040769943,
            -0.010614909717865094,
            0.010658526789629459,
            -0.002974265188761044,
            -0.002875404497562366,
            -0.007111701006941272,
            -0.0009231535459127891,
            0.0037788452424708362,
            -0.0035056343772795736
        ],
        "11": [
            0.006753820374241982,
            -0.0003648100408599217,
            -0.010001930824895373,
            -0.0066889642950958604,
            0.007011496222492149,
            0.0031440760612488905,
            0.004146295584668335,
            -0.0039081466403981515,
            0.0017263233702128186,
            -0.0009584932934038608,
            -0.0006195028255417154,
            0.009648747605438787,
            -0.00010979769627277046,
            -0.0033531037665441746,
            -0.003865709754311773,
            -0.005047265958136722,
            -0.010186719445219625,
            -0.0011455583890943588,
            -0.0004252296720822352,
            0.0009043100942499026,
            -0.0001412392315464379,
            0.009768095448147615,
            -0.006014893488227906,
            0.009618654000758129,
            -0.0005290962830279774,
            0.002176787518382348,
            -0.000919396754140883,
            -0.002206331739689892,
            -0.015670720337257835,
            -0.009192391790249622,
            0.00528638737366414,
            0.001331584286510976,
            -0.008011368251710243,
            0.002089076556169142,
            0.010722100428961715,
            -0.007160975311168007,
            0.004101474624768368,
            0.007629232762171825,
            0.0008011650479965705,
            0.016288191174429194,
            -0.002216710996013635,
            0.006526590962623928,
            -0.00045549638858728817,
            -0.004557090310727527,
            -0.011072416980964792,
            -0.0028123660468048002,
            -0.0008959070769083721,
            -0.0011939927869374562,
            0.006360697184945443,
            0.00542584238406031,
            0.013456354847579906,
            -0.007701391702614781,
            0.0026059981098341964,
            -0.005772929665762689,
            0.004691921609808123,
            0.00651384308289276,
            -0.003489036175124815,
            0.008499784587705323,
            0.0008797254251267588,
            -0.005734633583438886,
            -0.0016379070138894097,
            -5.279984462546052e-05,
            -0.0011394888805063125,
            0.0020558973516843783
        ],
        "110": [
            -0.0074087835775746985,
            0.00013419113512899307,
            -0.008728922370237582,
            -0.0021643892287555814,
            -0.004891551490831984,
            0.0014019082560240848,
            -0.0044475118434181065,
            -0.0017617015524494398,
            0.006455338940977726,
            -0.008257190660108025,
            -0.004651379023955159,
            0.0038863614250206884,
            -0.0003668280845218327,
            0.001865167138991029,
            0.008305566194879243,
            0.004501995582031846,
            0.0015205885398431283,
            -0.0019512233712759245,
            -0.007514137867505099,
            -0.0008485119337128088,
            0.004525815134324311,
            -0.006832185732238542,
            -0.006859680433984106,
            -0.00644240081629164,
            -0.0016426703785253388,
            0.00468023786036336,
            0.008010401494258346,
            -0.0009158166623046716,
            -0.0047701311092194516,
            0.009074160930003091,
            -0.0005133293877537279,
            -0.012505652135031067,
            -0.0054737381687738566,
            -0.00495032993313428,
            0.01111131588365922,
            0.007265894708334762,
            0.005968769129832996,
            0.0016839902497399338,
            -0.0033538161894400825,
            -0.011404895280635138,
            -0.017740439119170524,
            0.001786351131346641,
            -0.0011731052070336132,
            -0.001516087769690514,
            0.0028441130701983485,
            -0.006742409897168551,
            -0.0016530761797631452,
            -0.01051675417126151,
            0.0023305417401054056,
            0.006798787786562938,
            0.009754442172770083,
            0.005565637451025907,
            0.004764430568267323,
            0.0015208581330144382,
            -0.002134487170682574,
            0.0005651544575646703,
            -0.010793093468054245,
            -0.0028714663084508795,
            -0.004663380661000384,
            0.010325596339494387,
            0.005389710132760374,
            -0.004397011398653604,
            -0.005177032056839076,
            -0.005332398759902154
        ],
        "111": [
            -0.002631868266100227,
            0.00826194471218771,
            -0.003437595263060468,
            0.0016774798269399438,
            -0.0019138791401403191,
            0.015600623275491204,
            -0.003179486156686877,
            -0.014096535177256321,
            0.0057348299322167616,
            0.001634148395599686,
            0.00072785621494629,
            0.0047560509463030086,
            0.005714198042429287,
            0.0015913427358366194,
            0.004685885745624556,
            -0.004217654689644535,
            -0.009147713918577011,
            0.003953642294224262,
            0.001194498760756131,
            0.0022741929537312875,
            0.0013168263625228474,
            -0.0017942029518572165,
            -0.006174934178974309,
            0.002216297352315884,
            0.003063649589732654,
            -0.004943452468025533,
            -0.002352786263563626,
            0.007576596559045416,
            0.009291717459489618,
            0.0019616986273908125,
            0.007138056085350775,
            -0.00493305149541895,
            -0.00132331357068473,
            -0.000983026439829865,
            0.0016717668388285909,
            -0.0010556907312273941,
            -0.014188956717261328,
            0.0011556956436558246,
            -0.00983985656357061,
            -0.005198305608637624,
            -0.0083833929913394,
            0.0007136654648341645,
            -0.0029967194328874994,
            -0.010096138495130552,
            -0.004763036354510121,
            -0.0031056235951718563,
            0.002143099733853433,
            -0.007495388053749848,
            -0.002423213660089468,
            0.00287554663698623,
            -0.001149243114079737,
            0.0033900211780281226,
            0.009863648505280093,
            -0.0042010187493250984,
            0.005734994932414136,
            -0.002505048779722738,
            0.005241402011976577,
            -0.0019855887852968965,
            -0.0033427446956794168,
            -0.006704829095608553,
            0.004360750359908351,
            0.004515048356079517,
            0.0027462749101815932,
            -0.0030529364231011353
        ],
        "112": [
            0.0008141737456376763,
            0.002172155141217408,
            -0.004370663028818908,
            0.00495142273570125,
            0.008189354168898188,
            -0.017741478252647283,
            0.01357069128442289,
            -0.00040499885383734637,
            -0.0002381372837188503,
            0.007004035312844459,
            0.002596480261394439,
            -0.0005853204518955474,
            0.000983490424158373,
            0.00034862260043282665,
            -0.003938613168266227,
            -0.009644605455825843,
            -0.0019032158230430157,
            -0.001790318489206658,
            -0.0007631365909630249,
            0.0064384346125919145,
            0.0024084840537923675,
            -0.00394273297913747,
            -0.0036272229955265378,
            0.0004623114770970114,
            -0.004110854441289045,
            6.579158925874218e-05,
            0.0022990647042750363,
            0.0024714849974593702,
            -0.0039002808366304315,
            -0.010438331767321285,
            0.003159333103944301,
            -0.005811436355663686,
            0.010049871148439499,
            -0.007201340652762318,
            0.0027876978227817503,
            -0.0014260659690298956,
            0.0012817512113077346,
            0.008088907396702531,
            0.005360641118242502,
            0.0034151777883608425,
            0.008542935315470741,
            0.014892355156029035,
            0.0014984174837854754,
            0.011767743275889888,
            -0.0017851444359919448,
            -0.007900361403205327,
            0.01533702880685018,
            0.0026397554580193687,
            0.0053063762683046335,
            0.0005089852684276225,
            -0.002008818329563647,
            0.01417963620468583,
            -0.002564916664016081,
            0.007529237437299089,
            0.008167909504385963,
            0.004147705200963249,
            -0.002570853225805757,
            0.005679609287888863,
            0.011664996747658654,
            -0.006323020327827539,
            0.0002723292854330316,
            0.0020117222253893184,
            0.007883551353549689,
            0.0003872132108317089
        ],
        "113": [
            -4.9372801164529454e-05,
            -0.009729628100174357,
            -0.003342897316668572,
            0.010534074949130574,
            0.004098383196511549,
            -0.0016536232018907172,
            0.004435035988174648,
            0.003102184795515545,
            -0.008144724945064208,
            -0.005787644911828363,
            0.0004595892979764345,
            -0.013035953591349545,
            0.011319358039487136,
            -0.0017791316031534738,
            -0.0036079247937940927,
            0.016331043593629364,
            0.0071347591471923166,
            -0.0028466954090961955,
            0.007393274922609345,
            -0.011802281425489941,
            -0.007222552797987286,
            0.0005351050960810147,
            -0.0143605604852394,
            2.693398015958195e-05,
            0.004689447237390897,
            -0.0035301436006201048,
            0.00917985321513085,
            0.0021860377037532697,
            0.004500737193693708,
            -0.0029103216716578795,
            -0.005362276266919052,
            -0.003337384725103552,
            -0.002903421455051342,
            0.0057482379857058015,
            0.007191086489439131,
            0.0018189435386894608,
            0.0009539366630463252,
            -0.0021372996526673365,
            0.009104447845535945,
            -0.012096191793136356,
            0.0021023480982728378,
            -0.006019787667133292,
            -0.018678906934282938,
            0.00015365789332441533,
            -0.009680294567033591,
            -0.010498308765429322,
            0.0048722055631501265,
            0.0016366106446558217,
            -0.00635390802017521,
            0.0009371456056805285,
            -0.001977997507820695,
            -0.01347506693552764,
            0.004109935155582749,
            0.0028444783589717947,
            0.0063876468356772,
            0.005847496219658972,
            -0.00018980336664340425,
            -0.020354260104494717,
            0.0035397928955820225,
            -0.005189123325307645,
            0.0036547156317531704,
            0.0011978136009850213,
            -0.004926144812963831,
            0.0007246276863604813
        ],
        "114": [
            0.007148705878567864,
            -0.003099112913632523,
            0.0061104807672404515,
            -0.0015129626217494831,
            0.002316916700769789,
            0.006501118057442655,
            0.00608330945497571,
            -0.0030442369772884985,
            0.0031795803989147276,
            -0.005203412543671385,
            -0.008467246830081494,
            0.006009524642132922,
            0.001263757288877758,
            0.0037867564843591917,
            0.003993231809326974,
            -0.009857592672793458,
            0.004018044040678528,
            0.011202746571014067,
            0.008450192769737646,
            -0.0007578703267630345,
            0.016950848944093894,
            -0.006399195496441364,
            -0.002436316735407066,
            0.004541565442234825,
            0.00668374756388396,
            -0.0013499474016365645,
            -0.001777627489892308,
            -0.002919960763309455,
            -0.0015864355783537039,
            0.011457534960539998,
            0.0010182293973978053,
            0.005833606994535256,
            -0.003857836478729903,
            -0.012886834914351542,
            0.009999332098217281,
            0.002452781350648236,
            0.013115071405460529,
            0.002203139584513479,
            0.009746413581353534,
            -0.0060694203736582734,
            -0.008401976674323096,
            0.0015091744644579615,
            -0.002054057454130319,
            -3.3796786065277105e-05,
            -0.00042641841616022615,
            -0.013824771790070212,
            0.004901326095971191,
            0.0029635662554545433,
            0.002925980169791857,
            0.007423538084046276,
            -0.01839342458997939,
            -0.002031095480438498,
            -0.004629342616500888,
            -0.014024723549842926,
            0.007587975077622503,
            0.0032290418449669243,
            0.0073713239857004145,
            0.009218834385041322,
            0.0047992517246009635,
            0.0020859376835946847,
            0.002403006182725755,
            0.010805356396590752,
            0.0006081005166203073,
            -0.001936082132183044
        ],
        "115": [
            -0.005874036513759635,
            -0.010833717423593736,
            0.0027871052886515248,
            -0.0046304785055943645,
            -0.009195920281190921,
            0.0037465177665151196,
            -0.0014979416651705406,
            0.0017529280095956998,
            -0.00444120014673555,
            0.005781007258873181,
            0.0004386304839996445,
            0.001773470373385892,
            0.012793865603588162,
            0.007451430347174419,
            0.0009980364656914282,
            0.0044949537705708895,
            0.01551995987828935,
            -0.003655328138836298,
            -0.010297267706610054,
            0.010940452786717278,
            0.001639061346990117,
            -0.0016784845848972943,
            -0.003365351453594033,
            0.005117456410982044,
            0.014630675956952572,
            0.004427395797870808,
            -0.002820355698535643,
            0.009666795747417483,
            0.012618734042760907,
            0.002659248754165138,
            -0.0005566538670398026,
            -0.0048673909063670796,
            0.00044857681758144494,
            0.004496936416921158,
            0.003011077376440474,
            0.007671359267017525,
            0.0038272411366626893,
            -0.005413237101006487,
            -0.002083907053192737,
            -0.011176570375773574,
            0.003384519235072149,
            0.00788891023612563,
            -0.0024614741928669394,
            0.005276179549323137,
            0.003909300627135786,
            0.004768284598342815,
            0.008115006365075754,
            -0.0011145803470444878,
            0.011427637400917998,
            0.0010905013386345926,
            0.007274416069085972,
            -0.006170632396066223,
            -0.0006900879596589083,
            0.005336235122253534,
            -0.0017588349374587752,
            -0.006947369109533517,
            -0.0014796801209646657,
            0.009967337136641006,
            -0.0016120123767321935,
            -0.0013452400438502094,
            0.0008663151188476153,
            -0.002665318626857379,
            -0.0015990974867093565,
            -0.005645017785165383
        ],
        "116": [
            -0.010418547608953364,
            0.004868614354620851,
            0.010611558597281672,
            0.009242907807326676,
            0.0009434561740768532,
            -0.002001570879621242,
            -0.006186393850278373,
            0.0032696619170440285,
            -0.0034957809401376144,
            0.008623122762018511,
            -0.004648902736875528,
            0.007267305272996766,
            0.009576507602302392,
            -0.008559080595656469,
            0.0026323742337938734,
            0.001030809510287055,
            -0.006332189922089805,
            0.0015444116128625184,
            -0.008849991981338264,
            0.013676647891160945,
            0.0004961273348328236,
            0.0015961454857055162,
            -0.0034383124737254944,
            0.00014325201152466798,
            0.00952596544098301,
            0.009894000777639559,
            0.003727185449108695,
            -0.00014152968637011284,
            -0.00021008426068157388,
            -0.00847288472659088,
            0.003902590034828019,
            -0.0015331090081303889,
            0.005649002457547338,
            -0.004666549654452133,
            -0.010370128946470323,
            0.003950137931375687,
            0.01079347061459634,
            -0.0021932730960499912,
            -0.0057833003121960875,
            0.0037659609911486988,
            0.004140593243269838,
            -0.00015989173499544548,
            0.004691162709964742,
            -0.0022933923879043185,
            -0.009841681764697931,
            -0.012313875442550018,
            0.01264609382547543,
            0.010331144530185143,
            0.006882590263729546,
            0.017163543108340035,
            -0.0029324912359964665,
            -0.0033915668993465503,
            0.004096102244960479,
            0.0020163927054026873,
            0.0075171730898830015,
            0.0024900188596758905,
            -0.005522527043507981,
            0.010956293627752436,
            0.0003056501475143882,
            0.006278669170780438,
            0.0023243724919079227,
            0.0035135779644959514,
            0.0013958145448150808,
            0.0062959393512179804
        ],
        "117": [
            -6.0850910508523444e-05,
            -0.0015303082941627417,
            -0.00044104401924445485,
            -0.0012920915849309999,
            0.003881218999392049,
            0.0009124590503188422,
            -0.0009991400473862383,
            0.0036383865338986683,
            -0.004595110946405114,
            -0.0030457879918884905,
            0.010849567019064423,
            -0.002440525181080899,
            0.007251512894867695,
            0.002455393478882104,
            0.000847355259126034,
            0.0010925764289908726,
            0.0025903826859762723,
            0.009882901225556262,
            0.001552505209086695,
            0.008011438206129156,
            0.007341404678406508,
            0.0009779175826400458,
            -0.0021301195428183304,
            0.0014632749951915109,
            -0.01219872797196187,
            0.0014323823400320527,
            0.0076075315935145785,
            0.008945673126931324,
            0.00783265288097177,
            0.005581097868308203,
            0.008866758663467362,
            -0.002884911981043845,
            0.0032193446078702783,
            -0.004900735866518949,
            -0.0014762411779240413,
            0.0009267549836390137,
            0.006287938180955919,
            0.007255776059842335,
            -0.007033536925146867,
            0.0034406432178682635,
            7.32899574305313e-05,
            -0.006000977474935754,
            0.0038022188707260308,
            0.00014868855269344565,
            0.011861881682286038,
            -0.008020012002273699,
            -0.0036052760042778556,
            -0.010576984200373495,
            0.000724293566556529,
            0.0016730230940282453,
            0.004485270796596073,
            0.007468103209755161,
            -0.009646406603826332,
            0.0020639834372085113,
            -0.002414552610477211,
            0.004344658072049593,
            -0.01150381603458004,
            0.002051481147437993,
            -0.005139406328210955,
            -0.004237840898944273,
            0.0037152837590727255,
            0.00043586764010611107,
            0.002774107290888344,
            -0.00016084551423328755
        ],
        "118": [
            -0.009504470097538926,
            -0.0054318651260044735,
            -0.0023434096685384462,
            0.009716180744586403,
            -0.0019294612803148672,
            -0.002697110708143103,
            -0.0007205537956282191,
            0.0038685392508267125,
            -0.0008243255206559588,
            -0.0010280339852036492,
            0.011193239931962907,
            -0.0050998099103769755,
            -0.0016990760166689996,
            0.0018061281380878562,
            -0.007548498064005288,
            0.001136533822275827,
            0.008241433533847565,
            0.005530448955980839,
            -0.006328906464576058,
            0.007774719944317436,
            0.008288602174559765,
            -0.0017768830515905718,
            -0.005878359412619374,
            -0.006669595093480139,
            0.003061725508584003,
            0.014760024733696253,
            -0.0007749591841019324,
            -0.009467463457816898,
            -0.0062742322977193486,
            0.0009983120051293367,
            0.009534221665274218,
            0.013982462872029746,
            -0.010424013365525047,
            0.00617766092432356,
            0.004562915088314125,
            0.003998512275375628,
            0.007462005290015513,
            -0.006457900724096898,
            0.002012596334091739,
            7.000471096370742e-05,
            0.002845829994530803,
            0.006598736822782802,
            0.007696157651592851,
            0.008274274997158866,
            -0.012293045220678273,
            -0.005950026004692171,
            0.0009446536153958154,
            -0.00723113944571207,
            -0.006433547598225844,
            0.0006645835325313734,
            -0.006058565934684746,
            0.0036151571688132177,
            -0.004573708843575617,
            -0.004446610616416851,
            0.005402610298293877,
            0.004536192162130882,
            -0.0032135764850092317,
            -0.00527286480434821,
            0.001232540469400024,
            0.009496786329452226,
            0.009376969721189211,
            0.0023930866300313053,
            0.004008251006752906,
            0.0025696060120341006
        ],
        "119": [
            -7.428365352549664e-05,
            0.008045629497853958,
            -0.0015590253263531991,
            -0.005227751041591613,
            -0.00895029905291192,
            0.007550083175194129,
            0.004594765392260025,
            0.014296821269771201,
            -0.0008505896716970644,
            -0.004825770825119525,
            -0.0003031596664094785,
            0.0028083217739899025,
            -0.0031171526622738046,
            0.0013376489600686904,
            -0.00040864771694863473,
            0.00964259981765148,
            -0.001603316823474963,
            0.004793243586364694,
            0.009476855881101308,
            -0.00949864119479888,
            -0.012616173788926745,
            0.0027942040667974697,
            0.0029995810625452132,
            0.006239821821152948,
            -0.0012981207189554495,
            -0.009522287349970944,
            -0.001464878354608977,
            0.008468571035474616,
            0.0026555110272509126,
            0.007629859162888702,
            0.00036705488267514984,
            0.004014412850286154,
            0.0006675999714459715,
            -0.003470251745609369,
            -0.000873649116165801,
            0.003506917358058197,
            -0.009155983991933922,
            -0.0004971073182220131,
            0.0010700601139007682,
            0.0003068994673735736,
            -0.0036329514439333377,
            -0.0004659296577949926,
            0.007458148732270887,
            0.0017004970744096597,
            -0.013824333725533404,
            -0.007055092988717513,
            -0.003784515078680372,
            0.004029778527179243,
            0.0047393545018969046,
            0.005181747948024731,
            -0.011797602704391464,
            -0.007859993645576034,
            -0.004552483395482866,
            0.002299476176262008,
            0.004041616267098332,
            -0.0033510784507158075,
            -0.003566756166880491,
            0.004435947692446585,
            0.001856637900473355,
            0.003505322605253189,
            0.003790564769125014,
            0.0033748954507169036,
            -0.012306784829400374,
            0.0011967944051349759
        ],
        "12": [
            -0.010434336898566045,
            -0.002559289424302757,
            0.001634759301804091,
            0.003594830624093049,
            -0.006263376338145259,
            0.004311214019371095,
            -0.007149903235544375,
            0.007513120234584697,
            0.005971456518753437,
            0.0010368201724929404,
            0.00139209431263547,
            -0.009796270621056515,
            0.003557600788346699,
            0.004354353408855176,
            -0.0014199335497693316,
            -0.004742243151108799,
            0.006388931930585544,
            -0.0032190093311953404,
            0.009260919003640261,
            -0.0004965499165463584,
            0.004998391289635383,
            0.002101990578099415,
            0.003371313211957556,
            0.0053670175549849364,
            0.004858188382754783,
            -0.0022848379972146143,
            -0.0017095177744017671,
            0.002904701078996109,
            0.0011794225292928642,
            -0.00559674331355314,
            0.006917806875152994,
            0.006082352829235893,
            0.013742179686982093,
            0.004382008367733042,
            0.008145412570055665,
            0.006554152570943545,
            0.00689084636967898,
            0.0029890671281903192,
            0.010315578355995838,
            0.004889409384579184,
            -4.9507262837344885e-05,
            0.006273523253723635,
            -0.01113444583359373,
            0.002723442041412112,
            -0.003573550644011171,
            0.004201784784932121,
            -0.01734419724748906,
            0.003955997083931782,
            0.004153267724707865,
            0.004466943820001647,
            -0.003811696941707597,
            0.001387371004822022,
            0.0005062922171583814,
            0.006318770978646658,
            0.003754664728080375,
            -0.00035106621538292106,
            -0.0019414104327203836,
            -0.015078070756077824,
            -0.003298175890395667,
            -0.015733934347449394,
            -0.006360487531879707,
            -0.00010076468903050431,
            0.0035027957954825925,
            -0.005008120520551294
        ],
        "120": [
            -0.004052324911977558,
            -0.004041230509634906,
            0.006129474053935365,
            -0.006491696244624627,
            0.018442884109946458,
            0.006714462150839266,
            0.005493373296344166,
            -0.0036972097081808893,
            0.00022383745929653698,
            0.0004984744518895322,
            0.016059738228190863,
            0.0013599619503730231,
            -0.007633145163983303,
            -0.0010684768079166757,
            0.006492811487931934,
            -0.00020294212342186754,
            -0.0024399779853522996,
            -0.0028062551880746983,
            -0.009387329814754108,
            0.004446155568070326,
            0.0013569842016495613,
            0.00433689893134923,
            -0.0005293376424897618,
            0.00446822310577447,
            -0.002794530950766001,
            0.012797470844022616,
            -0.0016888953860914977,
            0.0004309773709477291,
            -0.0011474770223703613,
            0.004443315516750244,
            -0.0018245667568441346,
            0.014044731980494348,
            -0.0018582990643446476,
            -0.013540991406877916,
            -0.0005465054767711381,
            0.006580290161075896,
            0.001616769751677922,
            0.0011285565770771152,
            -0.0036943097561136207,
            0.007372313676444191,
            0.01033069378221484,
            -0.011283032471118497,
            0.0021431600562077323,
            -0.0057399198402128685,
            -0.011921330478168356,
            -0.004085573569644031,
            0.00012825489399767367,
            -0.0050267964665597735,
            0.00017614337838255673,
            0.010537190027578108,
            -1.1501642609225217e-05,
            0.010233088739157275,
            0.0092327419964344,
            0.008771048045374409,
            -0.004419688887627403,
            -0.00918015430620118,
            0.0012615473662527076,
            -0.0027031429785733226,
            0.0014514147980667746,
            0.00418772390521219,
            -0.001319054100629271,
            0.0016022921746278254,
            -0.0036982276704216562,
            -0.0017284118281245757
        ],
        "121": [
            0.0038139037962154642,
            0.017850835314375157,
            -0.012485001532805632,
            0.0005929037133705425,
            -0.0027239436734713017,
            0.0024487144574116644,
            -0.0007538578376623788,
            0.0026502368825871768,
            0.0019331070579365517,
            -0.013827002403269194,
            -0.004519097346184111,
            0.003845877667594837,
            -0.004333608089705742,
            -0.004030395389771661,
            -0.0015220895498976195,
            0.00023339734090891255,
            -0.0017183382217816011,
            -0.005130334515789899,
            0.002411334020557798,
            -0.0022119063268569304,
            -0.0052918113030843905,
            -0.00042163104704369533,
            0.002031840981405748,
            0.0015583860958736382,
            0.0068566416809635105,
            -0.0008135223901774375,
            0.011057850594001715,
            -0.00014469774420310545,
            0.0009015124937416728,
            0.007875011931181241,
            0.005384879473831489,
            -0.006259045721771799,
            0.003355592608287104,
            0.002392820862931774,
            -0.0011759445680581998,
            0.002516315768048958,
            0.0009757199125265507,
            -0.012530984174730583,
            -0.014396826816599626,
            -0.003371696611752436,
            -0.010665749586018007,
            0.002603596539964149,
            -0.00829638422092457,
            0.0036019359647687355,
            0.008902285258869587,
            0.010208981875136964,
            -0.006442175544176006,
            0.006778720347498972,
            -0.0028282336489895334,
            0.0024998861736195838,
            -0.0015149318465692199,
            0.0017545123778511481,
            0.004372605104308363,
            -0.007232677674700946,
            0.011156522168641167,
            -0.013790719484387148,
            -0.002414397941691769,
            0.0029870164518612918,
            -0.010756430618228879,
            0.0019100445403456897,
            -0.004881855341897999,
            -0.008589910805506919,
            0.0017288824060963767,
            0.0007361124525810858
        ],
        "122": [
            -0.005699859537950224,
            -0.0028151678262137853,
            0.011161199715664802,
            0.000970356325176963,
            0.0011771003634141845,
            -0.0055466332831806305,
            -0.0016348417877452696,
            -0.0025105531100071336,
            0.006076154734227806,
            0.0009713471519797962,
            -0.008112271832211946,
            0.00859974082604279,
            0.005914856794783644,
            -5.553672297159175e-05,
            0.0028081636089457482,
            0.004248870638582487,
            0.00040984537720006734,
            0.0037279141188425765,
            -0.009356349400670637,
            0.002989644257745824,
            0.0027174122280940963,
            -0.010901451436136467,
            -0.01102509926446957,
            0.0071307630978617855,
            -0.008970262365456385,
            -0.007793847907391023,
            -0.008921212391708575,
            -0.002585449537527562,
            -0.0033884463444265314,
            -0.004244087446894637,
            -0.0027203571186563097,
            -0.005578733774336458,
            -0.0021515251260084928,
            0.004584020298922229,
            0.0026393967812471486,
            0.008718180582909065,
            0.008164748580778146,
            -0.003500461354147555,
            -0.006574829239405435,
            0.0029926607211769964,
            -0.00955079897666093,
            0.0007567229826443191,
            0.003428209941385241,
            -0.00041703776188515483,
            -0.009774581814523951,
            -0.004130311462617803,
            -0.00576726269120624,
            -0.008733911305122357,
            -0.002423355466016593,
            -0.00837196585698847,
            -0.0005068835128507981,
            -0.003355215677769242,
            -0.008667702008652514,
            0.01147373054705794,
            -0.005693658987266715,
            0.0008143968546504097,
            0.00709469801352364,
            -0.004166379835933333,
            -0.004315700141366071,
            0.0037647586629959034,
            0.009113042566273615,
            -0.011331736343206465,
            -0.0023202583850544414,
            -0.007466736819400139
        ],
        "123": [
            -0.003164092443313834,
            -0.000198905767353655,
            -0.0004507627395912671,
            0.011858045632137625,
            0.007787502815421742,
            -0.009702205656822666,
            0.00034633421479979883,
            0.00044387047414651043,
            -0.0028720224277020106,
            0.002404605806538852,
            0.009178296095436083,
            -0.009262109415327924,
            0.005210797869568351,
            -0.002427491098936516,
            -0.0021837327482918507,
            0.004800739116898447,
            0.0033470029028623677,
            -0.006577089383702141,
            -0.00041970820873110393,
            0.0028380062419593637,
            -0.004963292185605916,
            -0.009345181920555988,
            -0.0009063208791256137,
            0.00155290152825899,
            0.014061640032469179,
            -0.003169614221856642,
            -0.002723174755004954,
            -0.006762160244651278,
            0.0014184606817841188,
            0.002627234683385545,
            -0.0040125262407131575,
            -0.0011360249406078497,
            0.007811758680271105,
            -0.0036382932766708415,
            -0.002707178960547207,
            0.008162493963446456,
            -0.001796254534293486,
            -0.006437265682827734,
            -0.002430828586080339,
            0.0009543659614862825,
            -0.007884926729542503,
            0.004743539716734608,
            0.012438079701679542,
            0.0043522168689977625,
            0.005790008663396535,
            0.00178264663166707,
            -0.005964558943066297,
            0.002299746106481473,
            0.0013951307791511217,
            0.004338347768560909,
            0.003185877044484839,
            -0.008036658047377084,
            -0.00950309318699637,
            0.013508289017320872,
            0.001597250320858209,
            0.001447086282388016,
            0.004055095351776047,
            0.008233266241941027,
            -0.0017523427506990572,
            0.005082738710700052,
            0.005316238194325388,
            -0.00042835598232153325,
            -0.006854174228811408,
            0.0028591898904508444
        ],
        "124": [
            0.003921300845554311,
            -0.007009722080258777,
            -0.009190314522381582,
            -0.0037274716804266395,
            -0.0032607524958427297,
            0.002661358213841303,
            -0.002400272933137315,
            0.006281839399015696,
            -0.00035290344135131867,
            -0.00024059348331453647,
            0.005576220604562034,
            0.0046338688200943156,
            -0.004183860604477096,
            -0.007694755259675685,
            -0.002952495333067307,
            0.005199029348685113,
            0.00209959470387279,
            -0.008858634921719176,
            -0.0018556156194928783,
            0.0010882497753380977,
            -0.00589670044767976,
            0.005836987623884235,
            0.0029644643175971036,
            0.0006491838771994958,
            0.0035201907867274114,
            0.0064614530957269704,
            0.0058343873764494115,
            0.003890719856519797,
            -0.0004980121866611691,
            -0.013188981093796846,
            0.009070257348683101,
            -0.0014715962356876913,
            -0.0031723835031612865,
            0.002965954461427865,
            -0.0028102583178636602,
            -0.011453636297393665,
            0.005034855190618233,
            -0.0006544333781968352,
            0.000303315443501388,
            -0.0029051835681515098,
            -0.008544498250099888,
            -0.0023742969992831455,
            -0.005247833142590613,
            0.004571070170143055,
            -0.003710237408438469,
            0.0023753469631823693,
            0.0089762350921097,
            0.003439687419685269,
            0.005795766525323715,
            0.0067325179679558105,
            -0.0046222914769218975,
            -0.009839746882705268,
            -0.0018992116438489109,
            -0.00024950107819140155,
            0.005942252496571213,
            0.003760528235280067,
            -0.0022607366138104865,
            -0.006942950318806597,
            -0.006828707182819959,
            -0.006446578469931194,
            -0.01055911514749692,
            -0.0010133994315697017,
            0.007902351042841246,
            0.0033664774355123264
        ],
        "125": [
            0.0076943692279607045,
            0.005242120384333641,
            0.0007812649971087542,
            0.0010289453343097746,
            -0.0037232259510082996,
            -0.0017725346144140566,
            -0.008575145788534919,
            -0.002469819887225534,
            -0.004779909197996819,
            0.002520407671734594,
            0.0012642158516016394,
            -0.0029021214194820187,
            0.004624924220488748,
            -0.0013269931703699719,
            -0.005119431733651743,
            -0.005975664004442569,
            -0.0002827397812191299,
            -0.002235499128616365,
            0.008168868723950241,
            0.0007717691836726136,
            -0.0014815401389820675,
            0.007610282775013795,
            -0.0012210828096938626,
            0.006963801625121702,
            0.006276818556159234,
            0.0007121123125997713,
            -0.01040863291539853,
            -0.00621969399060997,
            -0.0026349208610954773,
            0.002451414573767316,
            -0.012471308945174824,
            0.005730643428545415,
            0.0006282772740208185,
            0.0005813242434790754,
            0.00033611295578408616,
            -0.004201361855268524,
            0.006011891563275988,
            -0.004055079747144759,
            0.0030302156452987287,
            0.009032240510879006,
            -0.00010034969108332277,
            -0.010089614436894673,
            0.007306787797462297,
            0.001393710634437277,
            0.00486283380152112,
            -8.291520999648369e-05,
            -0.0007158259335206959,
            0.0013113468103464108,
            -8.264103709382118e-05,
            -0.009548148733306021,
            0.011911600376029141,
            0.00443347130622526,
            -0.010879561762755615,
            -0.006115995698917752,
            -0.009358842231302197,
            0.008979358962930227,
            0.013703951547886698,
            0.007611885729182207,
            -0.000842669363930001,
            -0.0014334005545479298,
            0.006672591508213043,
            0.0064984917406646974,
            0.0015377349667215431,
            0.0033648502872300466
        ],
        "126": [
            0.004822218055141919,
            -0.0025555643721750483,
            -0.004324745627446679,
            -0.006453421224566575,
            0.005754510792578347,
            0.007241460407694528,
            -0.0022147282097833465,
            -0.0035653703278955367,
            0.0019399729633457685,
            0.004629044922415267,
            0.0014587304781868238,
            0.004920238170468263,
            0.010721029770689772,
            0.0031630150077167876,
            -0.0011383040680235028,
            -0.0017319990404862443,
            0.011149907267900442,
            -0.0032481335243845924,
            -0.009307668045923775,
            0.014685555867914405,
            0.0024291760917181564,
            0.012653931889659433,
            -0.006122595214966117,
            0.01117566697328938,
            -0.005051573622224126,
            -0.006950092459057558,
            -0.0029729242591406456,
            0.002395723140484493,
            0.005788562088850583,
            0.002335516589607421,
            0.004078536326099693,
            0.012638395197051195,
            0.006022436720565344,
            0.0003288959521168502,
            -0.010897414089319964,
            0.0097244848522388,
            0.003910063473929434,
            -0.016438998586404737,
            0.0019573607271741755,
            0.005255666357916061,
            -0.003969179284591844,
            0.0030718791539676308,
            0.005610601849937616,
            -0.0008227301266126172,
            0.0011196939425078207,
            -0.0015414958280541256,
            -0.006170428042533937,
            0.00409852754062991,
            -0.007023103801647395,
            -0.008951060806852885,
            0.0018057765344433778,
            -0.009310650134276597,
            0.005428913514648489,
            0.005931593262892939,
            0.0036775345479890093,
            0.004558964804424508,
            0.003961595596468835,
            0.005518143232757755,
            0.0008888064999851438,
            0.006399694481905445,
            -0.0013266201881516144,
            -0.003479334419614396,
            0.0039008959449024824,
            0.000843199580728978
        ],
        "127": [
            -0.006360791588687988,
            0.0012784685580348937,
            0.007404918969755932,
            0.0030996411412181415,
            0.004216848931678791,
            -0.00315560683638601,
            0.002315976782784653,
            -0.0035021388598182545,
            0.002342222696658635,
            -0.003382057444829724,
            0.00570578612832603,
            -0.0004597116386071028,
            0.0011018611893906809,
            0.007614881772050497,
            0.0019088436853366975,
            -0.0037188360319740156,
            -0.0025085198934657383,
            0.007991164904906655,
            0.001430480555987144,
            -0.012343324925685023,
            0.002378050665392589,
            -0.005207974126353009,
            -0.0038436739607061237,
            0.003760218221060417,
            0.005747559891590029,
            -0.0003154693496477296,
            -0.0020524981323073854,
            -0.0005040711514516681,
            0.00557579544932238,
            -0.00019120904516314416,
            -0.013097411653239452,
            0.003956445577167412,
            0.0001196262323032426,
            -0.007282316000319599,
            0.0032089502016356755,
            0.0074234673428324295,
            -0.0008972214040022315,
            -0.0068221860239322555,
            -0.002962817711036719,
            0.002552459358665332,
            -0.011107886459661783,
            0.012407078071059688,
            0.001905854304429588,
            0.0016055838437179731,
            -0.004207779915301843,
            0.006822308817128456,
            -0.001548607053845585,
            -0.0006295801760593124,
            -0.009430472990726997,
            -0.0013196873100857856,
            -0.0002477887425289849,
            0.0030021013922285756,
            -0.009493823580033386,
            -0.006123484704310019,
            0.006530321194779376,
            -0.008754503602643817,
            0.014553970598816163,
            -0.006302040254804817,
            0.0021228069421694194,
            -0.0009728826850486362,
            0.004537337913305003,
            0.008900919557510234,
            0.0021073225202433935,
            0.003331150519615376
        ],
        "128": [
            0.005680275702134066,
            0.003153878427241639,
            -0.0026510275422430936,
            -0.017626978955866717,
            0.004253388413571599,
            0.008485764265089688,
            -6.706720443008724e-05,
            -0.002249387173780456,
            -0.008614433183748117,
            0.0008288020383256231,
            0.004572151241855198,
            0.011273420703640881,
            -0.0007112498800813617,
            0.004970350211153178,
            -0.006963276981357379,
            -0.004112651936340558,
            -0.0055314462834479255,
            0.00378608722425579,
            0.0008592012194722067,
            -0.004375085307907668,
            0.009283125127363453,
            0.005498027192281668,
            -0.001448484403756084,
            0.004300455989484976,
            -0.01340170366746561,
            -0.00036461177568695535,
            -0.0011894790093877614,
            -0.006037897418193906,
            -0.003521322808805332,
            0.0012052415935931368,
            0.012391614141929443,
            0.0027581306949234375,
            0.0099251571588543,
            -0.0005240901717937066,
            -0.005547142834390524,
            0.002279306318236667,
            0.0042012852984425345,
            0.010403830791668416,
            -0.005432751827650309,
            0.004871271925536878,
            0.0006565931325394935,
            -0.01075025561206771,
            -0.000881708874905688,
            -0.0007568411094655875,
            0.0019450458064523032,
            7.437667600091834e-05,
            0.003443412910545009,
            0.006212911325163542,
            -0.0030040791211089902,
            0.004440389125488809,
            0.010498802392918007,
            -0.008721172197643243,
            0.0017587664457210097,
            -0.00848854850585585,
            -0.0017428262538309706,
            -0.011606998641691426,
            -0.0005500098156481676,
            0.007470808676597779,
            -0.005602689112064987,
            0.012941685367609135,
            -0.009143368646458278,
            0.005873632228945891,
            -0.008752645326653935,
            -0.006558337085989542
        ],
        "129": [
            -0.007535028098615615,
            -0.0010631917201141998,
            0.004742453638963143,
            0.00890093802012574,
            0.003936328400491906,
            -0.0052635217272977396,
            0.006783034672206241,
            -0.0076674511311126065,
            0.006280992094778569,
            0.00032363383983043093,
            0.0017855788406453063,
            0.0006425153513913109,
            -0.004148196682902927,
            0.0027060253630148373,
            0.0016753940489459315,
            -0.005180131252134971,
            0.004978678648206435,
            0.000902496533000743,
            0.004166730413458933,
            -0.007734511486149816,
            -0.01048470036652051,
            -0.002360191255841196,
            -0.006075784226527786,
            -0.008915993671108007,
            -0.0044573307583178935,
            -0.0022916593403615976,
            -0.002699028976068444,
            0.001210087760156096,
            0.008027789248049153,
            0.0168178122522483,
            0.00014264915548958685,
            0.00021633516111776999,
            -0.0123350476626077,
            0.008064433099758583,
            -0.009976567453582826,
            -0.006855107920345106,
            -0.007269064958657645,
            0.01275930917927485,
            0.005843459703813912,
            0.004664864919821745,
            0.0031427919251764257,
            0.0016136554754667455,
            0.002603251766706529,
            -0.0013897630757655946,
            0.006029799611279526,
            3.842897469581751e-05,
            0.005585827124433584,
            -0.003112426706684224,
            0.005319532275465074,
            0.0054143775224123145,
            -0.007353335916272653,
            0.0054139822508285,
            -0.011061217095292328,
            0.00648305479246912,
            0.009599470391356075,
            -0.004246221347741239,
            -0.01081887802681033,
            -0.006423791145595649,
            0.00046210544786851043,
            0.003058436260780085,
            0.00683641226304314,
            -0.0026563390514411276,
            -0.0034032360547017735,
            -0.011919858120596016
        ],
        "13": [
            -0.0051333827480485724,
            -0.012426852808613135,
            -0.00868621902632598,
            0.0024348794925861434,
            -0.004324798007004438,
            -0.0015554229200542369,
            -0.005415594182267487,
            0.00011228439212794737,
            0.00758780043218199,
            -0.007829108077211903,
            0.012147199740535956,
            -0.00032877602506631596,
            -0.005693247114574841,
            0.011496276279822661,
            -0.007780325773818081,
            -0.011699256304525608,
            -0.0018738620230659604,
            0.003234922202870297,
            0.012930887192288602,
            0.0010863234358945131,
            0.0025211797004554507,
            -0.005740549767810898,
            0.0020458897148575264,
            -0.014074611660933864,
            0.0021010669161281715,
            -9.062805103580983e-05,
            0.0003312150460325634,
            -0.0034463789949271636,
            -0.004445195105206955,
            -0.0074366022424323126,
            0.00866022495684428,
            0.005193846692609811,
            -0.0035162421073337614,
            -0.007564489518632646,
            0.003823418485733535,
            -0.0021675846383453212,
            -0.0017794239390220888,
            -0.006274516359853342,
            0.0013295308251591437,
            -0.005812207736594303,
            0.007426696383847542,
            -0.001735506643421049,
            0.005651228531531638,
            -0.0016522861538285493,
            0.009764092453426462,
            0.001701298219211795,
            0.0027242035164375647,
            -0.0036647714604724187,
            0.0009110916945227024,
            -0.008782404509860018,
            0.014920101556251909,
            0.005394981760303279,
            0.010542056706017641,
            0.004543824744316692,
            -0.019133944334668418,
            -0.005098819773068995,
            -0.004916264817044744,
            0.0006964949131576817,
            0.001960844911762904,
            -0.002917135058575194,
            -0.009576852837841534,
            0.002849938585932962,
            -0.015531636683013987,
            0.01139001397594536
        ],
        "130": [
            0.006881637408051467,
            0.007117781471139315,
            0.0016299926936496208,
            0.004949677957577906,
            -0.0017304879834811153,
            -0.0017893501200095697,
            0.007025770162076366,
            0.007445527162800126,
            0.002552292757515778,
            0.0011733186116248133,
            0.002623620304702611,
            0.007382000311347026,
            0.007093407970059036,
            0.004600735287584471,
            0.0009744081378457299,
            -0.003512591922957091,
            -0.0005017107046302833,
            0.003652348033027867,
            0.0067709573228944405,
            -0.005715556392650242,
            -0.0019846404228010704,
            -0.01021385861949522,
            -0.0020590082765961325,
            0.0056529556420124765,
            -0.00035867957351126575,
            0.01310827710551419,
            -0.00887217899294441,
            0.008326068040545486,
            -0.0027735101768567283,
            -0.00012624415886961567,
            -0.0006950254380970174,
            -0.008422631929878686,
            0.0077279843828955575,
            -0.004037538526409549,
            0.00478622179795102,
            -0.0005386140557464761,
            -0.009955161246310717,
            -0.009249695459818333,
            0.00496799561640892,
            0.00356198602692135,
            0.0018357362817358845,
            -0.002979040870916152,
            -0.01062206020090098,
            -0.0003062206167976355,
            0.002603209685694455,
            0.00041411000217218147,
            -0.0049748573701460614,
            0.0050919345737569675,
            0.00223172509478382,
            0.005557523575051175,
            0.000559337314319159,
            0.0006508039615047763,
            0.004216943318543238,
            0.006036616675928788,
            0.0077178481147231505,
            -0.00043541009018427217,
            -0.0017685606460788855,
            0.006814294928502505,
            0.0065096720035863614,
            -0.0007409273005785093,
            -0.0077396855224870975,
            -0.01264995070653554,
            0.0113781249993533,
            0.002609758699713816
        ],
        "131": [
            8.90342672778864e-06,
            0.004101728751225654,
            0.005974000750487874,
            0.0039468459524576085,
            8.199273626527781e-05,
            -0.00498686123842273,
            0.005640228628471406,
            0.00869243975070826,
            -0.0018275998114634826,
            -0.0035172313338537927,
            -0.0010419054048472023,
            -0.0027901318876968877,
            -0.006629694961468381,
            0.011320683473136169,
            0.00036555655193878966,
            0.008591638655276389,
            -0.005252493715102485,
            -0.012048170533038133,
            -0.0003478614528295304,
            0.005624450108001434,
            0.01601706757401998,
            0.00020524745109847195,
            -0.0011297453372632641,
            0.016125802063983136,
            -0.009512108411256172,
            -0.0010014944234785236,
            -0.00012823784242181534,
            0.005531151424626198,
            0.009162998536266438,
            0.0009447535888057408,
            -0.0071062701831620945,
            0.008792911945900069,
            -0.0007129494006361896,
            -0.006069825187424911,
            0.005133035762344453,
            -0.0016154655210794393,
            -0.00849094595038735,
            0.013020617743906152,
            -0.004848517554113824,
            0.0003235406683397457,
            0.006825054311914383,
            0.005500158292705359,
            -0.0015830270170553971,
            -0.008025833890401445,
            0.003193837940155502,
            0.002303525095909572,
            -0.0005277966830482667,
            -0.0050041959734717515,
            -0.011968796319509267,
            -0.0014857629223662635,
            -0.005985439924457276,
            0.0017206131490369774,
            0.006549298143287021,
            -0.007766260672223754,
            0.0011052841085509005,
            0.0030705294450520835,
            -0.000761088848140593,
            0.0027995273048952215,
            -0.014872499308837293,
            -0.0046445937982864775,
            -0.0010565667534549628,
            -0.003962796687645833,
            0.014339947122678946,
            -0.002728432608755785
        ],
        "132": [
            -0.00581117739387686,
            -0.0018717896795688858,
            0.0032037427499931326,
            0.004974444559602485,
            0.007775702905748742,
            -0.005995062550154369,
            0.0038415318801600326,
            0.005539201012776579,
            0.0013275624597184625,
            0.01697269869424993,
            -0.008419005129150971,
            0.0017043323858174273,
            0.010551238012530004,
            -0.003705676376356961,
            0.002322769507425911,
            -0.003292107825488019,
            0.0005342853632467097,
            -0.00785116146513685,
            -0.001943156846427734,
            -0.001942711806390432,
            -0.011913625022020322,
            0.005150672039001491,
            0.01410435645769198,
            0.0043553680498146135,
            -0.0037078303449388475,
            -0.012107219956589357,
            -0.0012886021421928899,
            -0.011141645653925728,
            -0.00036439935418314967,
            -0.0033610242627029295,
            0.0005664912699484061,
            -0.005526064367270195,
            0.001492049385839615,
            0.011537449860738916,
            -0.002360237614236306,
            0.006143065214657943,
            -0.013118551421385178,
            0.0045785469294377205,
            0.013398138929241287,
            0.00010688945969278218,
            0.011113496278807799,
            -0.0045982141247439745,
            0.0022945628685794844,
            0.0017055783968545602,
            0.0119998131736001,
            0.0015035718576164195,
            -0.004036066587677729,
            -0.004142318108314895,
            0.0023536748488359248,
            0.0008060406224840756,
            0.002496056584123628,
            -0.00785722009612788,
            -0.011482743392795489,
            -0.008751082165581793,
            0.007886243957523829,
            0.004329236813378171,
            -0.014919615092565458,
            -0.0030739569421711173,
            -0.005753437825423469,
            0.0005268652727334575,
            0.007668193524745968,
            0.0051944827822848075,
            0.0034160353717427785,
            -0.0061502126618643025
        ],
        "133": [
            0.006582221794520851,
            0.010218874340103747,
            -0.001323096606781288,
            0.008757138384249965,
            -0.003169951363377879,
            0.01103178023371991,
            -0.004925956990170054,
            0.003799709612793888,
            -0.0040771794210516556,
            -0.005648164944463256,
            -0.006900950490312846,
            0.0011943120679668675,
            0.0016307329928390445,
            -0.0007265037697541502,
            -0.007757868499181934,
            -0.005562362689009358,
            0.0022457170836969803,
            0.009097198237801031,
            -0.002544943759302036,
            0.004686569226269545,
            0.0056136231819885795,
            -0.0029236449659130886,
            0.008976381992113853,
            -0.0005629456858728445,
            -0.0027954286853823372,
            0.0004550135897493527,
            0.003476656824738795,
            -0.004170066217428485,
            -0.009384869924086544,
            0.009044520358546438,
            0.0029852512002886637,
            -0.006773483409699865,
            0.0023621261908847776,
            0.0022329740535690216,
            -0.0043286091275862035,
            -0.009114565491401423,
            0.017757868675813953,
            0.005686645703341035,
            0.00044545755853360745,
            -0.01171143405594407,
            0.0003147409868517237,
            -0.0027645357865730994,
            0.004770301189051178,
            -0.0013128777452433714,
            -0.0029915747848404954,
            -0.009465999563005758,
            -0.0029105231274957058,
            -0.0028593793675221447,
            0.0005520267032024385,
            0.0007853606142533604,
            -0.021255116776615252,
            -0.012967257049393964,
            -0.005231875469121831,
            0.0015276401695904337,
            0.005964752351465648,
            0.004257681342689786,
            0.0024677627783863485,
            -0.007028096473744857,
            -0.00620047281339678,
            -0.012312028084398486,
            -0.016964157818804983,
            0.007016758926183738,
            -0.0030772322633042643,
            0.00916093585884041
        ],
        "134": [
            -0.0005759207941319211,
            0.008594313494872528,
            -0.0006832496666151642,
            -0.002870312544840724,
            0.003620283226178841,
            -0.003138557340840652,
            0.0014021555876158331,
            -0.00948392894669923,
            -0.005887212361792613,
            0.0023313550143601067,
            -0.0034321785107602133,
            0.0012888977915436071,
            -0.001105666062827523,
            2.082543243712041e-05,
            -0.001104796963938926,
            0.0008158543317403196,
            0.0005750041010055155,
            0.0005999474692932861,
            -0.006396442988280683,
            0.0009435899468335547,
            0.005329577832622348,
            -0.0024630427076377842,
            -0.0058106090773850285,
            -0.0037314427314770627,
            -0.004166546028243402,
            -0.0037371512952293143,
            0.0005994310365916774,
            -0.004179409839963561,
            0.0006313312143212712,
            0.008034268574701136,
            -0.010811464117683424,
            0.013679540622185156,
            -0.0006590841870248508,
            0.0032431357653030482,
            0.0037044366706879646,
            0.005040523100399443,
            0.003414270834234502,
            -0.005928320221846851,
            -0.001900177950882149,
            0.014596424026064923,
            0.0027956987794341137,
            -0.00787958228148545,
            0.0019643983033405597,
            -0.009070341517005477,
            0.0018042903065260724,
            0.0012300945841634443,
            -0.008037059124631828,
            -0.003263028100721358,
            0.0031721206782482324,
            0.012121571784626478,
            0.0030407839537828557,
            0.0026716826202604965,
            -0.011725196371902386,
            0.0025951785240857688,
            0.0027772300671881694,
            0.007845250027356178,
            -0.001265158026659296,
            -0.000588622812036979,
            -0.001015822871255732,
            -0.0023354884658823593,
            0.004698233573690061,
            -0.003406557807250631,
            -0.0068947270103085125,
            -0.009591258887434385
        ],
        "135": [
            0.001552055651881261,
            0.006188655977969351,
            0.01265937625587492,
            0.0011013396592443898,
            -0.008280106226429197,
            0.0027810709630685594,
            -0.0014241802286127229,
            -0.003466753844425945,
            -0.01550978782809455,
            0.004213394560538872,
            0.010379655609509335,
            -0.00013306444305728068,
            0.0051702669997264195,
            -0.0027355396104216585,
            -0.007597240940377069,
            -0.019530874801900633,
            0.003825318034588167,
            -0.004858556531848274,
            -0.001898241411173021,
            -0.004981959983437814,
            0.005689283189609557,
            -0.02024203318694998,
            0.0019762721491926667,
            -0.008555879408404698,
            -0.002328325806713214,
            0.004872464097974181,
            -4.315288374732743e-07,
            0.007395633398706154,
            -0.0028531511445225493,
            0.0001923947047261068,
            -0.007303170952499882,
            0.005957880568934762,
            0.0038708566692234833,
            -0.011697342410276175,
            -0.0016607634594811142,
            -0.0034773374209721613,
            0.005172510666221315,
            0.00823187294086627,
            -0.010069918523713287,
            0.0029804965639860614,
            -0.0003715655711584522,
            -0.0016559820351631704,
            -0.002450662135716483,
            0.009308736744010549,
            3.5978291479826156e-05,
            0.007990790048806228,
            -0.003968927938566792,
            0.014720707681095652,
            0.0004773312201588908,
            0.0029375594894327575,
            0.0018086505013955548,
            -0.003962932838310196,
            -0.0022970268696499724,
            -0.004807863021478863,
            -0.0009156239105531774,
            -0.008727775772687584,
            0.00575409695225865,
            0.01179148298351793,
            0.007467837690230111,
            -0.002737129156740159,
            -0.01744126480650522,
            -0.007101379993483168,
            0.006252004357360759,
            -0.0076182573617531325
        ],
        "136": [
            0.0047122350169212495,
            -0.005540590851577303,
            0.004823975634262318,
            0.0037347174476934186,
            0.006145551898651143,
            0.012421323602701331,
            -0.007078248682898684,
            0.005539921458959312,
            0.005800209239604821,
            0.0001277350952825112,
            -0.002202878539152307,
            -0.007602804858746292,
            -0.005831252791753298,
            0.006313935742871157,
            -0.007711300156699121,
            -0.010404137221390396,
            -0.0010286572478641002,
            -0.0020708135479430797,
            0.003533901714855821,
            -0.0121336417135514,
            -0.0030388588348522674,
            0.013699878673737797,
            -0.0006718880735032129,
            0.0038400397184213102,
            -0.00863463922534876,
            -0.005458727838779136,
            -0.008006171534864779,
            0.004161361354126529,
            0.0062867092611009,
            -0.00711021360620624,
            -0.015231459033281878,
            -0.006842440415195691,
            0.005714708339723407,
            -0.0032236808309810336,
            0.009333277354592837,
            0.005468528438099001,
            -0.00549630392496986,
            -0.003914917593488158,
            0.005728704256820273,
            -0.005788459288441212,
            -0.0008234683854851714,
            0.0016908718855031333,
            0.00013236079298395653,
            0.003346251040868539,
            -0.016558546276020738,
            0.013737313779243797,
            -0.007866878910168684,
            0.005422838593769028,
            -0.006406019841849334,
            -0.0014904613179684825,
            -0.000605680891755464,
            0.013986428425472233,
            0.011979558617395743,
            0.0019016110490540942,
            -0.009794748988096744,
            -0.002776909170223027,
            -0.006597949109169718,
            -0.003030263895278276,
            0.00307557636612728,
            -0.006965147470094771,
            -0.00044035668445618567,
            -0.001489639710721528,
            -0.009887223948770377,
            0.0029123404128433335
        ],
        "137": [
            0.006445908631038305,
            -0.0026942468268374357,
            -0.004853051029545281,
            0.008652338169747706,
            -8.276988993076044e-05,
            0.0004862982056741595,
            0.0081588211625602,
            -0.01422760806781874,
            0.01589276248140733,
            -0.011628796019896755,
            -0.001935786845206924,
            -0.00010666611644133082,
            -0.0039058858256897262,
            0.0015724601579762969,
            0.006766141975402565,
            -0.01672918396163936,
            0.0017454701586972232,
            -0.0002643302831882191,
            -0.0013608388650772265,
            0.0025353346507468607,
            -0.015119995489093234,
            0.007320518116818175,
            0.00018236487381725495,
            0.008630902197536258,
            0.004195318025219391,
            0.004942755344932006,
            0.00034235152405181634,
            -0.006243638213089439,
            0.010852478702385709,
            0.005482350052896112,
            0.003432895844124321,
