{
    "bias": [
        -0.003502193695356263,
        -0.008019262610877523,
        0.0011606600770518469,
        -0.012759692030659454,
        -0.0030653023968440223,
        -0.008961543060807046,
        -0.009953379157782861,
        0.0021431254253407948,
        -0.0016736176194767573,
        -0.005379016851136212,
        -0.003103479265485419,
        -0.010270018958838929,
        -0.010969234134612059,
        0.010233044228116127,
        0.0013988467787479928,
        -0.001319556630135714,
        0.006308690763031699,
        0.003216589467868346,
        0.005029077224127957,
        0.002429355522959035,
        -0.008146507843690627,
        -0.001010723133531681,
        0.0010455165511159996,
        0.0010390348488580707,
        -0.007894615031748391,
        0.006478258116185687,
        0.00024389977270073668,
        -0.0025385185095981575,
        -0.0029974747646502866,
        -0.0006539880146283297,
        -0.0015051319353322208,
        -0.00532581548451691,
        0.004977565427077836,
        -0.001197769044371349,
        0.00345699055304668,
        0.006564050739827085,
        0.012480182992202937,
        -0.00517680966028548,
        0.0003040408012013327,
        -0.003466025020122695,
        -0.004088486754974401,
        0.002757229460001212,
        -0.0025015011565755452,
        -0.0017645765626430694,
        -7.206008862129026e-05,
        -0.004012018910087277,
        -0.007105786424037389,
        -0.0112257771492401,
        0.007735207198769263,
        -0.00017899820896161294,
        0.014229494718413609,
        -0.007044745174230906,
        0.009409341757808096,
        0.007619217342622154,
        -0.0129724173569093,
        -0.001131441328484273,
        0.014483949726058083,
        0.010579999464452074,
        -0.0026059225769307494,
        0.0001306086541634074,
        0.0010588488301041634,
        0.0011693291086768479,
        -0.004495604361704669,
        0.011205317327622033
    ],
    "input": 800,
    "name": "fc",
    "output": 64,
    "type": "fc",
    "weights": {
        "0": [
            -0.003502193695356263,
            0.0012237336535294218,
            -0.002271884515503274,
            -0.0025116819343643185,
            0.007274234481691368,
            -0.011375402881797222,
            -0.0031689022577602397,
            0.005667282977118819,
            -0.007749650370092404,
            0.006135414840394724,
            0.012179870018530423,
            -0.005869678034126608,
            -0.00810714395964773,
            -0.000378365864758923,
            -0.004863761873080142,
            0.006477965344763046,
            -0.0010870975804478074,
            0.005132423500107619,
            -0.003463513862007634,
            -0.01955671455646585,
            -0.00894567094466242,
            -0.004450362381521323,
            0.011505608055183589,
            -0.004757492677902375,
            -0.0004033023157677186,
            -0.0080573231300509,
            0.0006792544856522397,
            -0.0032861140533117887,
            0.0044866211379840665,
            -2.5823143703019383e-05,
            -0.008009525150048805,
            0.005567782932593495,
            -0.0089763936214115,
            0.00012448810548547066,
            -0.0009061889957566518,
            0.001699288395349029,
            0.01242973565813337,
            0.006731522642894954,
            -0.005317240790071549,
            0.004239888117009374,
            0.00409007740490713,
            0.007111981973429546,
            -0.00881461369600842,
            0.004893338630340021,
            -0.01087569144273678,
            -0.0014455606719366027,
            -0.008047424194062026,
            -0.008041319300263578,
            -0.000865133702174842,
            -0.004713965735541133,
            3.598688337163951e-05,
            0.005117701177089152,
            0.0073125881052429455,
            -0.003507779202605029,
            0.001808914983436892,
            0.006928372561970856,
            -0.006094248222347924,
            0.0023355661332071895,
            0.0018320951225218917,
            0.00044366643120151005,
            0.0016188509356991059,
            0.0018908523197839475,
            -0.004805881296346509,
            -0.002175085175995045
        ],
        "1": [
            -0.008019262610877523,
            0.0007832018288759962,
            -0.009503049518058125,
            -0.0008671004142144515,
            -0.000869961061063739,
            0.003717383039462386,
            0.008920293733162039,
            0.00011022045285440546,
            -0.010307765685938627,
            0.008623685194201374,
            0.005435322699197664,
            -0.0009993595488847775,
            -0.0018644231061403515,
            -0.002808143832454608,
            -0.0036096571612897325,
            0.002356277658776284,
            0.0020887513431510525,
            -0.004088350194737094,
            -0.004773688201468589,
            -0.002378554641774182,
            0.0015948418891244252,
            -0.0003684664982878515,
            0.0036116363646033177,
            0.010369132877735228,
            -0.009395067200321447,
            -0.008969316984341362,
            -0.0032701051429184546,
            -0.011934316808696836,
            -0.0037349783426295666,
            -0.007859953710764775,
            0.002177559969499579,
            -0.004634753572604164,
            -0.006118847902620296,
            0.003271539799736538,
            -0.007932346829624095,
            -0.006022743586889409,
            0.002335019388919627,
            0.011220802069468502,
            -0.008247466304299386,
            -0.013968913919313257,
            0.005180420231752578,
            0.000777090216796125,
            0.007968821413218702,
            -7.738849679314152e-05,
            0.000834504308034572,
            -0.00012087853008930355,
            0.0008912765952685736,
            0.004779492937215005,
            0.0014337727794532743,
            -0.00666776551549248,
            -0.0018495299329296762,
            0.0021746883565344115,
            0.0010678851964141232,
            0.007488082433955823,
            0.0013869301570078299,
            0.012686993663072963,
            0.0014651171800066233,
            0.0011756394067801803,
            0.005902945729401428,
            0.008890291254286106,
            0.007465594650362173,
            -0.004165779986111571,
            0.0021950388899202042,
            -0.003531275825338423
        ],
        "10": [
            -0.003103479265485419,
            -0.00333614158562783,
            0.003387892375066945,
            -0.003629834840204477,
            0.004238367013317282,
            -0.005345281816650247,
            -0.002859429451026248,
            8.296606781270924e-05,
            -0.006155222554586167,
            -0.007785209780597254,
            -0.0011207400749102519,
            -0.008328364021046015,
            0.0009355453427898606,
            0.0013980353134598956,
            0.004756214185254366,
            -0.004191453517110859,
            -0.00615683671586317,
            -0.005508027875881521,
            0.0012593349345669108,
            0.005539176805374416,
            -0.002259110625391379,
            -0.009096281258167626,
            0.0020566045777482794,
            0.009693269410833264,
            0.00423167432588712,
            0.008764531819546761,
            0.005101083647167702,
            -0.001944458103938139,
            0.001581571866848337,
            -0.0036668962245075217,
            0.003225915239115776,
            0.0019181953910313262,
            -0.002503388039724199,
            -0.003557751084268066,
            -0.004861604575081755,
            -0.0004821394407056336,
            -0.00020469326991192982,
            -0.011687576621330194,
            -0.005190351937306343,
            -0.005714612140087783,
            -0.006950842398980417,
            0.008474388645441085,
            8.958756944301295e-05,
            -0.0010159147505679853,
            0.007348086317723931,
            -0.0013330553631344703,
            0.006890315363237029,
            -0.0002982748693690781,
            0.010032367331015347,
            -0.0028742689376291385,
            -0.010916804703835239,
            0.01305853185322749,
            0.0005308852465237619,
            0.0012229404263777886,
            0.004660784531971766,
            0.018048563596125066,
            0.0012451032510415096,
            0.008497852700564013,
            0.01077404420347175,
            -0.011414830938074908,
            0.00066175609930816,
            0.009285282164258868,
            -0.0006256476410025029,
            -0.0061839884882162605
        ],
        "100": [
            -0.006075971489523116,
            0.0010678004991285506,
            0.0103257571132516,
            -0.002250429639947407,
            0.005135365851774964,
            0.006851731565836416,
            -0.003776311253846353,
            0.006655230961737361,
            -0.0039080332134028796,
            -0.005630553967252273,
            -0.0009470571622721828,
            0.009633258035936915,
            -0.0022624507466688253,
            -0.005626204274518455,
            0.003847786424017099,
            1.815269422511986e-05,
            0.0011884258963487057,
            -0.003304513034278678,
            -0.00041740812020600457,
            0.004638961315488059,
            -0.008570548655335524,
            -0.005838118898704857,
            0.009570261463922827,
            0.005423987896906552,
            -0.005955585383596478,
            0.00019289427588576084,
            0.00029903150708068214,
            0.002866834754299908,
            -0.003182308122032448,
            0.01362931546297972,
            0.004164547695488019,
            0.013641391976348928,
            -0.005589730323786735,
            0.0050648603079862025,
            -0.004392936418792784,
            0.0023657913142983225,
            0.005566047145565112,
            -0.011311337492909797,
            0.007323397745405496,
            -0.0068747083166354195,
            0.0009925950676129467,
            0.003087172304663723,
            -0.009814322771607977,
            0.005458122148551833,
            0.008396124882039014,
            0.0021647939140153998,
            0.006252430748822849,
            0.0044042216246221455,
            -0.003928108387805932,
            -0.010049793734039485,
            0.009170454689368916,
            -0.006277121997135725,
            0.006442975033644627,
            -0.0017277252971954794,
            -0.006677240570652891,
            0.0008992595543400276,
            -0.0025271070810651865,
            0.006664820744613386,
            0.0012078474940906477,
            0.007296813173427898,
            0.009976874628326795,
            -0.00758085250936185,
            -0.008197787821848261,
            -0.0034984165148074977
        ],
        "101": [
            -0.004940606873337327,
            -0.000827168884036667,
            -0.005225763517015928,
            0.002880167894808751,
            -0.004552639093792195,
            -0.009298641742919885,
            0.009692835094693042,
            0.0010614126896091472,
            -0.0044567428345320325,
            0.0021170111755355538,
            0.008149055832730344,
            -0.002123953207421552,
            0.007647930396883719,
            -0.011374671509346321,
            -0.001195116215875713,
            0.004728301464852465,
            -0.010636539929124014,
            -0.005913981253483445,
            0.0012499071588902393,
            0.0033457957442900852,
            -0.0011312535823156682,
            0.010288791104046673,
            -0.0005475758209999149,
            0.004443707620815013,
            -0.01402575586006625,
            0.013756363252971499,
            -0.008442168778405663,
            -0.010763340089357872,
            0.003282342023284296,
            0.0019843736994199826,
            0.0028613085258084973,
            0.009994111591436088,
            -0.005384433172601283,
            0.01593515553989376,
            -0.00017153975991209978,
            -0.006902440493045298,
            -0.007330446113547419,
            -0.0009797758261973712,
            -0.004469023356101844,
            -0.008042148538638853,
            -0.006195327420625556,
            -0.0011477683005389912,
            -0.0044743945498268494,
            -0.000691506441711037,
            -0.005815232961718172,
            -0.0043889460231974955,
            0.0013357552332921643,
            -0.0034782691779852632,
            -0.0026367233480885186,
            -0.001631307364815129,
            0.003526500252774523,
            -0.001807393068176955,
            -0.004002347104048305,
            -0.011448492087073707,
            0.0034120157032356546,
            0.004492785542561929,
            0.003376565779583346,
            -0.0027771958960943993,
            0.0005168277031501141,
            -0.011696524470623968,
            -0.008248771877063122,
            -0.0003875814106767616,
            -0.007794622162892441,
            0.007571974605840118
        ],
        "102": [
            0.012142462350602193,
            0.0019161014312579331,
            0.011494609024126749,
            0.00554886230449916,
            0.002337589685406213,
            0.0013109861940893259,
            0.005680686133658927,
            0.005972472149995661,
            -0.006758529217598471,
            0.009606547834110652,
            0.006127322202330482,
            -0.0032520918904386173,
            -0.0026834123793672503,
            -0.0006180828649359449,
            -0.001134659110318271,
            0.006272288740426907,
            0.005472997092432558,
            0.007915586288712232,
            0.0022334649650103686,
            0.013748957567495832,
            0.004773281283459797,
            -0.0038129499067435335,
            -0.0016570479706224121,
            0.0010324576001338414,
            -0.002507237054403923,
            0.002605224020434438,
            -0.004267185700525119,
            0.00869621240135057,
            0.006098935158673078,
            0.007522947038308488,
            -0.005074329565031215,
            0.0113609280891,
            -0.0016522591727860124,
            0.02015864085962345,
            -0.00262248746497578,
            -0.004093748117057456,
            0.007398055341391294,
            0.006568127017966405,
            0.0009999431758209144,
            -0.0011003499521752022,
            0.01663924425862232,
            -0.00519825659911735,
            0.008714079571027716,
            0.00144026411788255,
            0.0012609175252993338,
            -0.005537687099633872,
            0.005077851512978733,
            0.006924153754823812,
            0.012221665184842493,
            -0.006480997295653996,
            0.006480480709791563,
            0.0017476468513827363,
            0.004521542022374096,
            0.004391133664268992,
            0.003858009221890625,
            0.0023035978971627127,
            0.010525245049271248,
            0.006842789955326698,
            0.008268528047313475,
            0.007409419222999003,
            -0.0005975240856882073,
            -0.010707429835381857,
            -0.00783972315051017,
            0.002753680547364227
        ],
        "103": [
            -0.005003096768035974,
            0.010934457964076402,
            -0.0024322509139812387,
            0.008028168244833338,
            -0.004653506506634998,
            -0.005963660124174984,
            -0.004184645418136192,
            0.0003560136290187635,
            -0.010988064162253746,
            0.0017692451699820152,
            0.005768980929159107,
            0.008643734645358765,
            0.0029378036859677454,
            0.0007811117096585429,
            0.01344220198231372,
            0.00860210888632904,
            0.009199096266708928,
            0.00396994994118918,
            -0.001707245689759011,
            -0.011803784187564595,
            0.001223927913700489,
            0.015241060845673601,
            -0.011024740100201793,
            -0.008445185186233236,
            0.007222519129008009,
            0.00046388521416900814,
            0.0070697501940897,
            -0.0015406766576965495,
            -0.0005571411003060772,
            0.0007442686048069517,
            -0.004077212468577092,
            -0.012717100641259147,
            0.006850633531585626,
            0.0032244529223809347,
            -0.003214423206530555,
            -0.0058178382697893945,
            0.0016722270928250394,
            0.007496383326088891,
            0.002034074050377686,
            -0.0025456129747162197,
            -0.006885098943160863,
            0.002633647326825181,
            0.003404656468336047,
            -0.0015725683898124541,
            -0.0040512000555759445,
            -0.010158540307536035,
            -0.0012452563510789224,
            -0.004789155664109046,
            0.014552029896590721,
            0.0012732204065555024,
            0.00730504118076895,
            0.007864676239282836,
            0.00676030998622686,
            0.0015876156794192083,
            0.006768859040186648,
            0.0036633171814619866,
            0.001846674128287582,
            0.00420000147847257,
            -0.0034373469615100356,
            0.00016884714369875593,
            0.002111749451458358,
            0.009471018068520512,
            -0.0009879311385220025,
            -0.00897720887984239
        ],
        "104": [
            0.0005464549793296351,
            0.0032817464912865096,
            0.009755777350997823,
            -0.007739375466255839,
            -0.008381214253998738,
            0.00926167414155856,
            -0.004717087082368001,
            -0.00291493669700418,
            0.007289731334268125,
            0.0013423560466722482,
            -0.0009292973049872249,
            -0.002664631472481683,
            -0.008831193111283407,
            0.0034008811340054523,
            0.002458556008171825,
            0.0029297896093009824,
            -0.013490853922974425,
            0.008142843431969768,
            0.0031707538725752253,
            -0.002999212480330159,
            8.471379101968445e-05,
            -0.007680071859317722,
            -0.005590905943308996,
            -0.010741270347229019,
            0.0010877149712181997,
            -0.0009457284135280996,
            0.004497415092281208,
            0.0034451504370467665,
            0.005183792919975258,
            -0.0037102746299764165,
            -0.0029606179887980704,
            0.0008625290672714949,
            0.007504142640501001,
            -0.002144698829364077,
            -0.0015028505578209132,
            -0.007500125301091869,
            -0.002416879184301049,
            -0.0008266993508298939,
            0.0007467417531675753,
            0.005345327512012257,
            -0.006977979724671561,
            0.0033277815305220644,
            -0.002302335950579568,
            0.0006084873428752181,
            0.0019429814136031711,
            -0.002867559961679395,
            0.006023902964980358,
            -0.0007403415702155813,
            0.0044946303403473635,
            -0.012496024348462701,
            -8.330956865034561e-05,
            -0.004063238689782147,
            0.003344779334559648,
            0.0015191606688663153,
            -0.007210428434059896,
            0.0006713607981392546,
            -0.001233710760126677,
            -0.000516649761115465,
            0.001596776543228197,
            0.0018758981727794524,
            0.0011147306417408067,
            -0.006817910435009242,
            -0.0002137875286382623,
            -0.003113954952703233
        ],
        "105": [
            -0.007269261745326357,
            0.0022364619677535547,
            -0.003494289285850565,
            0.001338083240275038,
            0.00014617756548482365,
            -0.0006570755754753146,
            -0.0032376124397789315,
            0.009140708745609837,
            0.006318938285626759,
            0.001849178675815027,
            -0.011417960479582408,
            0.009206594133525675,
            0.006390941210087173,
            0.00666783180693167,
            -0.007053053312526401,
            0.006991252457984907,
            0.0002633227409052507,
            0.0007960716138188756,
            0.0006499783832215821,
            0.0009921865876479307,
            0.003135783861855319,
            0.005354480321125568,
            -0.0020991098132467248,
            0.007461279987900152,
            -0.008138884071250749,
            0.009360175146189515,
            -0.0031791548532875713,
            0.0003562569327475441,
            -0.01153816019965563,
            -0.006642185639999382,
            0.001636686469664312,
            0.008908622452044166,
            0.010730519762939525,
            0.0009871207500032533,
            0.005590213334156189,
            0.002996501500437345,
            -0.004571987587308756,
            0.0030501338865113418,
            0.0008626801364619101,
            -0.001999132172376296,
            -0.003252182699423457,
            0.010659175576498993,
            -0.00024328393054666518,
            0.0073161941112746785,
            0.004085997649988896,
            -0.006561455124241038,
            -0.002617682831399676,
            0.0023079745749069206,
            -0.007621012432430252,
            -0.0055621776208974565,
            -0.0002859532783280719,
            0.004964932905829726,
            -0.0031758102918580736,
            -0.008761585549793912,
            -0.0006532868232945734,
            -0.0067948022474919505,
            -0.005207652665172561,
            -0.004407809058648555,
            -0.00154633504891605,
            -0.004677096253729062,
            -0.0037437482530901646,
            -0.002612553632464899,
            0.003093158494572464,
            -0.0038418274635603545
        ],
        "106": [
            0.0116205212341882,
            -0.013342713669376356,
            0.003137384289028198,
            0.005487619066656533,
            0.0015495892887545997,
            0.002383221710849414,
            2.391329759079309e-05,
            0.006095787671216053,
            0.0018326755336395121,
            -0.01658375829173239,
            -0.00802114602250619,
            0.0007704372257147194,
            0.0038218954429673694,
            0.0007722911763689087,
            0.0027278342805370955,
            -0.003636935035585314,
            -0.004909668573066346,
            0.008728545922490187,
            0.014020042015070103,
            0.010713080410654063,
            -0.004130621677220514,
            -0.00102306475542891,
            -0.0036692745055295663,
            -0.0002993316165134745,
            0.0037101830250321852,
            -0.009277432409743895,
            -0.002885403522504326,
            0.007315520783859393,
            0.002211600215247682,
            0.01120141475236628,
            0.0031291419066366514,
            -0.0040177794281170505,
            0.009993831151426475,
            -2.9034875896014285e-05,
            -0.003410568312534576,
            0.0009092774782161208,
            -0.005395959917316019,
            0.0028150910087615857,
            -0.009482861700131726,
            0.008277039937217378,
            -0.009332537828463413,
            0.004677760475186458,
            0.0031299058489256183,
            0.0026086620922733447,
            0.00926178418096695,
            0.0002942107677433958,
            -0.006722534215745965,
            -0.009980146996986159,
            0.0048542199437086675,
            -0.015330688189356992,
            0.006260103001743427,
            0.001873596481725007,
            0.0011611042775224116,
            0.001462182958359115,
            -0.00576667425847729,
            0.009943613655363248,
            0.0023363991305918796,
            -3.678451556707671e-05,
            0.006560275549942119,
            0.005053696344419569,
            -0.007018238069632841,
            0.0026466228325353293,
            -0.0007028066878913779,
            -0.0045479985447748755
        ],
        "107": [
            -0.003704685662273093,
            -0.011673223418615165,
            0.005164366581847673,
            0.0010509748823393382,
            -0.005696187152348291,
            0.0004957351812178731,
            0.0002823021878607814,
            -0.01036314143712938,
            0.005508552077873092,
            -0.00410371483123496,
            -0.006805182227099098,
            0.005782217689586139,
            0.006526707846628156,
            0.00623922588811619,
            -0.013037348068416285,
            0.004594564190233417,
            0.00975000801496332,
            -0.0030410743377195567,
            0.003414697185047461,
            -0.009097909550228826,
            0.0016807844618571403,
            -0.0016921343282107844,
            0.0031544826580964832,
            0.002412163281474306,
            -0.0030482137541990553,
            -0.0006876577598469273,
            -5.578478059747863e-05,
            -0.001839635305579837,
            0.0012874524027487212,
            -0.0031149441090261077,
            -0.0007440834955207635,
            -0.00763502837455681,
            -0.0007594971657121261,
            -0.00797557788783238,
            -0.0004856603676701881,
            -0.002934745897703111,
            0.0004562369938653915,
            -0.0004772888151596538,
            -0.004145934703379186,
            0.0006938224261230406,
            0.020004709403088433,
            0.0032532167267240266,
            0.005467336119113591,
            -0.005457793716872969,
            1.954510699433823e-05,
            0.00227414381438739,
            0.005105334870437396,
            0.0027566199361072925,
            0.002816408955740231,
            -0.0014030862275081362,
            -0.0030910170578215333,
            0.006394095557105212,
            0.001415439271233089,
            -0.006951169148259104,
            0.012461800831227263,
            -0.01262472326821933,
            -0.005228904337095241,
            0.008182631143105896,
            -0.0182404984250734,
            -0.020115178149101104,
            0.005597964385470576,
            0.008320061593901192,
            0.007369803643655668,
            -0.0002728308278526898
        ],
        "108": [
            -0.007150845526071555,
            -0.0034341986000994227,
            0.004185690152668816,
            -0.0026159849755370782,
            -0.0044598397737634,
            -0.002195095739920104,
            0.0017348915843169834,
            0.005015943149915529,
            0.0002657179879717644,
            0.004776579709219089,
            0.006598493915882119,
            0.0014728542422207383,
            0.004401759835647265,
            -0.0012223452125392704,
            0.003472769311074317,
            0.007786136475039844,
            0.014909573552615766,
            0.013391122204993323,
            -0.0015831019964381344,
            0.012647815539453761,
            0.00121367261755821,
            0.006443207056347669,
            -0.008135279457694466,
            0.006389161395979154,
            -0.005969840989702231,
            -0.005747732355129583,
            0.002067114846608011,
            0.0053372148845668025,
            0.0029611222712308473,
            0.0045838421785318,
            -0.005105847384432199,
            0.002956184893681852,
            0.00958210277314103,
            -0.008103070567050603,
            0.004790947702907163,
            0.0065042279780500286,
            0.0007705621086213947,
            -0.00027154552768908605,
            -0.0014268306590071822,
            0.00411505669417509,
            -0.0017512519919626228,
            -0.006996017815866781,
            -0.004006789066370075,
            -0.004729279086550302,
            -0.0007393909307179284,
            0.003816690961185464,
            0.0012618368257647959,
            -0.007850416072170581,
            -0.011528128250346582,
            -0.007992309090443695,
            0.004212694959404894,
            0.0125560419107235,
            -0.001563356223436686,
            -0.006421357803069436,
            0.003754749986234861,
            0.005870015139166025,
            0.009630848790248144,
            0.008581424427316416,
            0.006275050934801858,
            0.015168613062582374,
            -0.006597948233600319,
            -0.0005858374609720066,
            -0.0012822086899358853,
            -0.003981094779286108
        ],
        "109": [
            0.0016914443897025656,
            0.0019980335128945196,
            0.007394454244101508,
            0.005112656080947262,
            0.001349086125025513,
            -0.01107095825955895,
            -0.0035416546701753874,
            0.005934668787552742,
            0.0035412811847159924,
            0.015729597975136837,
            0.0018953758368681958,
            -0.006188178063870526,
            0.007267008578399296,
            -0.01340472093265644,
            0.0067697027052310834,
            -0.011695092868736113,
            0.0005797516787030866,
            -0.005632337564076352,
            0.0010137756295873857,
            -0.0033900788842802405,
            -0.0072896725486146716,
            0.004047821807082452,
            -0.008984056036159862,
            -0.013173953090495284,
            -0.003356965574610687,
            0.002526207454075944,
            -0.004431681693340971,
            0.001481592348114749,
            0.001587652614708272,
            0.003222450254105501,
            0.00777178084786662,
            -0.00229594512235108,
            -0.0006285144603168579,
            -0.0039739736052757475,
            -0.010028971657038095,
            -0.009002634589275414,
            0.0003563164087071723,
            -0.0033138706298068686,
            -0.009735909001811411,
            0.0014452312565518116,
            0.0058220388383695455,
            -0.010540082002891362,
            0.003065776054537331,
            0.010172909011883868,
            -0.00012835857942993073,
            0.00279109271168843,
            -0.0026583064013316103,
            -0.001130591646897896,
            -0.00029249261078870427,
            0.0014270765450432902,
            0.007234074347254768,
            -0.002154026264362273,
            -0.00560680996125647,
            0.008002290086669616,
            0.00023855703720372475,
            -0.007890119833514526,
            0.0017472287193995837,
            -0.007558212074801902,
            -0.0035333343124805926,
            0.0034184096119654153,
            -0.004650691431945816,
            -0.005830612732860581,
            -0.00791260194937968,
            -0.007998039242015646
        ],
        "11": [
            -0.010270018958838929,
            0.007636885738107143,
            -0.010243431803574149,
            -0.00484524705307599,
            0.0009819837046112021,
            0.0029529824811799763,
            -0.007246117722758943,
            -0.002092992978171793,
            0.015818737670283512,
            -0.0011166738496919536,
            -0.0031102496468554197,
            0.0006325444289745624,
            0.004487165887183917,
            0.0009422676998781601,
            0.003448986967770277,
            0.007223971274700887,
            -0.010215880061207674,
            -0.002745509811660817,
            -0.00422770043250881,
            -0.007324746826481385,
            0.0008589834816269356,
            0.0044006758237339185,
            -0.007809015025353961,
            -0.0053317987748914076,
            -0.003719000643173618,
            -0.0010240321606033763,
            -0.004797671429417139,
            0.011183911940474396,
            0.0011221804175713885,
            -0.0028364362388726247,
            0.0014003652066875267,
            -0.0001683111416199022,
            0.012784124507022467,
            0.002958450848098785,
            0.008940933952431207,
            0.011230252247474147,
            0.002067423084219949,
            -0.006841781893332077,
            0.009925111716351478,
            0.003067421507987246,
            -0.00681787375889468,
            0.008601337032073494,
            -0.0015900976044189036,
            -0.0011210860515690807,
            -0.012550774951723093,
            0.00829368033786998,
            0.00955222672448024,
            0.008634634895283157,
            -0.010962175691884804,
            -0.0015247478170623341,
            0.009644688341861767,
            0.0002020102800886973,
            -0.008224498151311488,
            -0.006199574340334513,
            -0.001941723359522491,
            0.0017547363178118548,
            -0.0021160542447505276,
            -0.007036101985648265,
            -0.001833974311706098,
            -0.0006919994089363143,
            0.0037094728341630725,
            -0.004717797660908728,
            -0.0054747749399159384,
            -0.016716969863627456
        ],
        "110": [
            -0.0030385249348440953,
            0.01225841974796383,
            -0.0007674518203503603,
            -0.0032760412183704605,
            0.00628108479108131,
            -0.00490310014722422,
            -0.003824067182943029,
            -0.006082477872718401,
            -0.0012958591493459728,
            -0.009572195943832448,
            0.0005716477643911836,
            -0.001302305363346048,
            -0.0011575535705451339,
            0.0016038615960119731,
            0.007945871075618938,
            -6.344251634577795e-05,
            -0.001649339413176496,
            0.013263842724805417,
            0.00795220802452421,
            0.006356234677172593,
            -0.0033639392777664,
            -0.015118625565712111,
            0.0008846280981052979,
            0.009967068965879837,
            -0.007309020672248119,
            0.0036198722073234727,
            -0.008440273616300408,
            0.007555411732516704,
            0.005793645667160133,
            -7.786187304188872e-05,
            -0.005113133328249001,
            -0.005016574473128179,
            -0.006722595745249184,
            -0.004449207744096486,
            0.006206259603217647,
            0.01220366256367899,
            -0.006529502559246218,
            -0.002654107055665327,
            -0.00030199345893468563,
            0.001169527636323435,
            0.0024271279159934567,
            0.02045333480635965,
            -0.00188565529691632,
            0.008734759109678948,
            -0.001907753746014082,
            -0.0024928850960447865,
            0.002670398202450861,
            0.0002981250253037934,
            -0.0017152415136865236,
            -0.0038671590142554026,
            -0.005309572420648296,
            -0.0009318680728541694,
            0.005073305794129748,
            0.006074696857004487,
            0.012372218042775131,
            0.0015786586921680058,
            0.008413872349965549,
            -0.002518701063296524,
            -0.0031138754738885815,
            -0.001894238408058857,
            0.011824061671296453,
            -0.0032969306845147504,
            -0.0012492421613374434,
            -0.0011950246263585536
        ],
        "111": [
            -0.009223528857834087,
            -0.00961102001033408,
            0.015098277375880093,
            -0.007532506332727872,
            0.007727593945405949,
            0.004418906593121293,
            -0.0008926478733094497,
            0.01890716468442813,
            -3.591186837688378e-05,
            0.008921695223795835,
            -0.004740723972871004,
            -0.009978954116953114,
            -0.0022664488267234223,
            -0.0003856900875431031,
            0.008654518852704329,
            -0.002842257304851219,
            0.008010850454383645,
            0.009550804093120382,
            0.007677785710061522,
            0.009790372241724212,
            0.0007899857283456149,
            -0.00013961031358931603,
            -0.01192925207294283,
            0.004637039028139376,
            0.0012674795880079463,
            -0.0011574639899101789,
            0.006168399320071291,
            -0.007100121941307934,
            -0.0035811161771199004,
            -0.007473185021571966,
            0.0009778297626696368,
            0.0044480654564153285,
            -0.0006462762064499469,
            0.0001623712198117505,
            -0.010729135752050083,
            0.008382956075011005,
            -0.006116813907012313,
            -0.0002586753101893658,
            -0.011018877616902168,
            0.003657508293502903,
            0.014730312179696834,
            -0.006326120206953858,
            -0.01109234603252086,
            0.0025048334551351177,
            -0.009965102610765723,
            -0.004293914922089856,
            0.0013245530721770636,
            -0.007817461696531254,
            -0.005230736975154031,
            -0.009727916671491737,
            0.007016948460980431,
            0.002689185757162,
            -0.0052147789700158955,
            -0.0008520362702652859,
            -0.009049809273396525,
            0.00457520863975606,
            -0.008965717821425152,
            -0.003013006872206193,
            0.01023649350504553,
            0.005456967585036398,
            0.004493070237767287,
            0.002892629256914576,
            -0.009181353406808646,
            0.01020880028662929
        ],
        "112": [
            -0.004821941221715649,
            0.002697116752458535,
            0.0034283456307453125,
            -0.003921081327050055,
            -0.01048113435682474,
            0.004053097895113028,
            0.006790472698116243,
            0.0024781463726396068,
            -0.005765698421274475,
            0.0006317974311246325,
            0.011631531504431232,
            -0.008399267370910873,
            -0.0009529520521399136,
            0.0074892031373325245,
            0.0028451897628695142,
            -0.0026713340966120665,
            0.0017236372206001441,
            -0.000984848029045737,
            0.013793666127833096,
            0.012737343903240156,
            -0.005459635405871875,
            -0.008006613402308179,
            -0.0007500363725526835,
            0.00976798285975543,
            0.004679363237211431,
            -0.004015599722807155,
            0.0036975877835769885,
            0.012448497220383874,
            0.0053588893326202485,
            0.0009299513847904414,
            -0.004722848628419155,
            -0.010673260935289463,
            -0.011588924993714698,
            -0.010467054725768863,
            0.0021236469245547855,
            -0.007513415789578742,
            0.004531416218151999,
            -0.004866058150116703,
            -0.012045118320239866,
            -0.011073275379198498,
            0.0011251327826253374,
            0.012041541018146291,
            0.004641916239898894,
            0.0100966055905249,
            -0.0034153104934247533,
            -0.003569282391167095,
            -0.003554507236714022,
            -0.0008785434497986422,
            0.00913189541593521,
            -0.00942464632171963,
            -0.0015085297317006326,
            -0.006735328609252834,
            -0.006842740817132206,
            -0.000728941948558806,
            -0.00780821116403594,
            -0.0028801970159385046,
            0.004075340297648353,
            0.004008541969206822,
            0.002488044347047247,
            0.0006628521400627547,
            9.624991474263282e-05,
            -0.006735793465275904,
            0.0011771730210448303,
            0.009168238164931652
        ],
        "113": [
            -0.0008266115932894042,
            0.006279563981937793,
            0.006471780125267879,
            0.011678184735947346,
            -0.006643593907273039,
            0.007428899926622982,
            0.0016647281880763564,
            -0.0011700261390317126,
            0.00762683780351592,
            0.004265835536517393,
            -0.004212880662182305,
            0.0020103943433692835,
            -0.01232248830426838,
            0.00470646957894312,
            0.002330997949091537,
            0.008039521321381969,
            0.0010002159575275963,
            -0.0029015547138448337,
            0.006424610893418045,
            0.009208639249326014,
            0.009663412622886752,
            -0.0018490298345430738,
            0.0008273300639190131,
            0.002950338366134077,
            -0.0012984645857946633,
            -0.005324961234225439,
            -0.00797276161163289,
            0.014689805629163988,
            -0.0023188010952840603,
            -0.00020186287411606517,
            0.013978459650485435,
            -0.007586052797338275,
            0.005950865475568319,
            0.002398600541770478,
            -0.0012163684671867969,
            0.004732917908810975,
            -0.0020159050780199613,
            -0.006527702780529405,
            -0.006428262160615978,
            -0.002348338637155485,
            -0.001955039458442506,
            -0.004921314611194682,
            0.008569097164169646,
            0.006614109102495916,
            0.00401782641443734,
            0.007387298505305409,
            0.003605984339819031,
            0.012283109215958314,
            -0.0024100115311944076,
            -0.008731479198587003,
            -0.005545092035628686,
            0.0016297490155877795,
            -0.009958350462291803,
            0.0019379824739002669,
            0.006037264971118024,
            -0.006434925709085601,
            -0.009902177129039355,
            0.005454349698185628,
            -0.00277763958198943,
            0.01508094587661283,
            0.002751265137876275,
            -0.020126465188547056,
            -0.0052764042298923145,
            -0.0036218485316528424
        ],
        "114": [
            0.004291618052969487,
            -0.007420024068046014,
            0.002244993457549939,
            0.005684912299779296,
            -0.0086562756003542,
            -0.01818917264954884,
            -0.007872092436065514,
            -0.003776993818942922,
            -0.0038173079886466253,
            -0.004397918513712215,
            0.0011093942039183456,
            0.0015692387556856893,
            -0.0010220583153307634,
            0.004864625756584004,
            0.00664660415207792,
            -0.0025100149682838664,
            9.041179218506623e-05,
            0.008455892139432096,
            0.008700398826872643,
            -0.0003644261194559924,
            -0.0025188566994401424,
            -0.0005247116246967278,
            -0.003883993945485104,
            -0.00031551562665697863,
            -0.002099426969807026,
            -0.004841219550647222,
            -0.006721612559248563,
            0.0012478081921171134,
            0.008979751330942417,
            -0.0017425209889308714,
            0.0020018253022600404,
            -0.004601336867610132,
            -0.0029590345631609386,
            -0.003158216452257535,
            0.007668065611266726,
            0.0009742973661402798,
            0.008982382880288443,
            0.0014008937965522819,
            -0.003505334383136957,
            -0.009480954297043175,
            -0.006071081809187377,
            -0.0057931237358462935,
            -0.004466985027555439,
            -0.004421531716819492,
            0.0023132828770908937,
            2.8343681491895023e-06,
            0.007132854302311063,
            -0.00034676258227263617,
            0.007014509435296624,
            0.00895248538394986,
            0.00039390176844796585,
            -0.0029884709026979824,
            -0.006778880052564092,
            -0.008788402074112609,
            -0.007017885380936131,
            0.0032733897125123697,
            0.004126705865269336,
            0.012563636169566733,
            -0.0032576481092530807,
            0.010619256217302059,
            -0.004777281526593224,
            0.006456704771057702,
            0.0004662348450545524,
            0.00249325981422378
        ],
        "115": [
            0.003939774559746439,
            -0.0021027114670309674,
            0.0003882135840177656,
            -0.005018837194620782,
            0.004787534235418237,
            2.6607796323937277e-05,
            0.010165644762534176,
            -0.012572723582977525,
            -0.002075852871657714,
            0.008721468067569587,
            0.0008149003142973587,
            0.006267402254401718,
            -0.010866108988611841,
            -0.003639766249400196,
            0.0022727707066030516,
            -0.006360301568220016,
            -0.0030073887494998976,
            -0.008014187366072826,
            -0.005359389342385155,
            0.0040486663840967356,
            -0.008077464534397697,
            -0.005501444340877029,
            0.004863183111143934,
            0.005666636769293605,
            -0.0027815309016482465,
            -0.004182483316579932,
            0.00031332320394109547,
            0.002895006729248419,
            0.001188694527376536,
            0.007633167281701015,
            -0.007373897579685016,
            0.008393457107033339,
            -0.009713583983507326,
            0.0011960493423213172,
            -0.005581173884408888,
            -0.012479939152718098,
            -0.004122834396584755,
            0.0014826971606227025,
            0.005357565897934933,
            0.0030844468638580986,
            -0.0055283225831320275,
            -0.004093188505148622,
            0.005472025492317582,
            0.004032225166319496,
            0.003096795787584421,
            0.005265270884132677,
            0.0040694835658018555,
            -0.001322881410008609,
            -0.005712460506120483,
            0.002269469379978457,
            0.007369980512389096,
            0.00282323573647442,
            0.00027041997124856463,
            0.006267995505296072,
            0.007770077020557931,
            -0.005753166596808335,
            0.011280035013493006,
            -0.008798141592852048,
            -0.004573316863741067,
            -0.018114866712543528,
            0.0011421253929271766,
            -0.011768110332785138,
            -0.0014433139512654493,
            0.0030757881010636747
        ],
        "116": [
            -0.00015004282503608453,
            0.0006417569171870315,
            0.003553289676193211,
            0.0015889473301009907,
            -0.0005611205600447869,
            0.002569929044362063,
            0.0013871907237410106,
            -0.0074379119193773635,
            0.008281444079647576,
            0.0015777770980429776,
            0.001282708436074238,
            -0.0003467775636465949,
            -0.011744441527045773,
            -0.008440613356675763,
            0.007400585463635877,
            -0.005807460261481701,
            0.004970555137355456,
            -0.004742326647481469,
            0.00743926430765984,
            -8.828413032984059e-05,
            -0.00020439582825476172,
            0.010699295128130832,
            -0.0018417479424944422,
            -0.002511993421817407,
            -0.003952248603627536,
            0.00342497939154236,
            0.007575191624347218,
            -0.0062257339941907556,
            -0.0036135494006877588,
            -0.006844511348420084,
            -0.003901651481733751,
            -0.0034591109971362343,
            0.008311606032442399,
            0.010205611376074572,
            0.003836857919856915,
            0.0037253544088069047,
            0.009166834108440039,
            -0.0011080355947340904,
            -0.0004787680349615938,
            -0.008300082251617148,
            -0.004678966779663107,
            -0.000526436222634892,
            0.0017303853228440753,
            -0.0029939312798157036,
            0.007642213444116303,
            0.01338064136618317,
            -0.0010737546208266812,
            0.0025480452498494468,
            0.007725853230311189,
            -0.012882362794131292,
            -0.0016968070416199029,
            0.004292400604939141,
            0.0028435631691700047,
            -0.0014270929338407162,
            0.003956711239566048,
            -0.008200016071009487,
            -0.0005612953512628318,
            0.006362742104142168,
            -0.007438533964345047,
            -0.005761250706304885,
            -0.0024611154976333263,
            -0.003776371870403933,
            0.011331437301739935,
            0.005197208907907642
        ],
        "117": [
            -0.0016592868649159436,
            0.0022380289156087524,
            -0.0038530437665514217,
            0.01663615623475725,
            -0.008322415792955193,
            -0.002253186058648919,
            -0.0076532416834462135,
            0.0014599296932544742,
            0.006990587180190007,
            0.0031787197047174853,
            -0.0007198746252952708,
            0.0061672482870666016,
            0.005965645179412347,
            0.01296737449958154,
            0.008272468665722461,
            -0.003321923836755921,
            -0.0014074297217948981,
            -0.006200886449818158,
            0.004297634890394777,
            0.002309883969381107,
            -0.0052095788024993745,
            0.005978797273016081,
            0.005558028736069917,
            -0.009897414195108778,
            0.010733584796678795,
            -0.006528002686743447,
            -0.007740820697253694,
            -0.0064889300973228455,
            0.004741344277231968,
            0.005317663614149539,
            0.010079460898143149,
            -0.006418355339428328,
            0.011435488749647558,
            -0.0047999629695710255,
            -0.008095675314126102,
            -0.0014047789737330221,
            0.000161941275884624,
            -0.008254427958424534,
            0.0016977294111617464,
            0.0053388306126957745,
            0.0015392521636183945,
            0.0035157044015017985,
            -0.0014615258368958226,
            -0.0026385249191272103,
            -0.004393381118630688,
            -0.01099301516885806,
            -0.008784728058748827,
            0.007092066095189104,
            0.011209328919835768,
            -0.0009733710274666086,
            0.005473024309294445,
            -0.004758093171227874,
            0.007952995703114857,
            -0.003234684014220841,
            -0.008914332317310985,
            -0.0025355666340656454,
            -0.005158199079403598,
            0.002068395275969636,
            0.0008934780866913281,
            0.007012477047542813,
            -0.0029169557205359154,
            0.0016993992233687528,
            -0.0014681608846587976,
            0.0029918962919325215
        ],
        "118": [
            -0.007987681134547545,
            0.001347590595826463,
            -0.0028423399041670825,
            0.004899242651185642,
            -0.0003707968593716073,
            -0.0007834485261770368,
            0.007876699496012711,
            0.002817319470495427,
            0.0042009508432779095,
            -0.0011516834312025864,
            -0.0005484972011745315,
            0.0011583712906530579,
            0.0011699475233646049,
            0.002844011143195771,
            -0.007332361525206734,
            -0.002125701043376659,
            -0.011900146820664278,
            0.014758729668516438,
            -0.002886359810624477,
            -0.00276566767445154,
            -0.0025367217689428283,
            0.0092601714091803,
            0.008468314628174366,
            0.0058599896602936925,
            0.0026605761233771635,
            -0.00400643501830177,
            -0.002334735581670714,
            -0.01049982166747227,
            -0.006325173152882848,
            0.01311727398012626,
            0.00894287975858237,
            -0.0007861941023851759,
            0.003579067753081049,
            -0.00602295195943107,
            -0.0011710819472054539,
            0.004865273914476547,
            -0.00022020333370353158,
            -0.0035871038124976303,
            0.009817913367530306,
            -0.0031647230072454086,
            -0.0024077468387587488,
            -0.005281652028574186,
            -0.003057660965356435,
            -0.006335625618249412,
            0.0012629731268895454,
            -0.006870636713218241,
            0.0059765252709252925,
            0.0002006270496924493,
            -0.008650667653996713,
            0.00042296769401653814,
            -0.008386853812763153,
            -0.0027187050470047786,
            -0.00856327395260209,
            8.142776888235524e-07,
            0.001191039673788115,
            -0.005222928634119042,
            0.007068147305634956,
            -0.004699947165693353,
            0.0017479167615746139,
            0.0045815270583572446,
            0.0017368748060982353,
            -0.001907104802697118,
            -0.00034033268335098696,
            0.002027828479940114
        ],
        "119": [
            0.010619799379964642,
            -0.004108584284603887,
            -2.2361903608219924e-05,
            -0.00542787490863611,
            0.00015793728262716443,
            0.012330669304988023,
            0.0026251422810348625,
            -0.002184926311882321,
            -0.004347667435053726,
            -0.0035616980383091517,
            0.0027752597534201344,
            -0.0033575579975851297,
            0.014263585231945,
            -0.0031849418666917936,
            0.002242769379039757,
            -0.007496903311696935,
            -6.209904387830346e-05,
            -0.014706063154735938,
            -0.008342951667590214,
            0.012039242954644794,
            0.0032201528174396737,
            -0.007557800291119347,
            -0.0033176306992375214,
            -0.0020855675517320563,
            0.0065423058611839835,
            0.00042575062395901485,
            0.004724712222168898,
            0.009502781946144435,
            -0.007563313496974475,
            0.003734616129245424,
            -0.0006507605300568989,
            0.006420219980970195,
            0.0007271319969844002,
            0.003918134128271289,
            0.002513552345508134,
            -0.003568442721531301,
            -0.0036449396588928876,
            0.007392803971191013,
            0.006745351176663203,
            0.005670047204922491,
            -0.0013065935502581689,
            -0.007908013492132526,
            0.005126856890063336,
            0.0026505173181870473,
            -0.0007059225136041896,
            -0.010973151460785554,
            -0.0005809900968651342,
            0.0008852090008685398,
            -0.011876814803254504,
            0.006485977310267965,
            0.003733180348065919,
            -0.019551143491844173,
            0.0049544257569951065,
            0.006573897776423471,
            0.0005440115785061192,
            -0.011639904044818817,
            0.0008417448072121914,
            0.0055479990305550425,
            0.0015027236664979838,
            -0.0006091086088500487,
            -0.008789013540219713,
            0.0014064547759824865,
            -0.004300063848009384,
            0.005671019469539158
        ],
        "12": [
            -0.010969234134612059,
            0.007208807716850065,
            0.007497868743947977,
            0.017297950803461064,
            -0.008361853014481939,
            0.002746264588831817,
            -0.008914622057576115,
            -0.0021390984248667515,
            0.010850675137991952,
            0.007685744699302119,
            0.0014010169950697793,
            -0.006627969240826272,
            0.00018606829623163583,
            0.0016677909451954524,
            -0.0011094533923181854,
            0.0021022396447403636,
            -0.006955110863690487,
            0.0069154927633211715,
            0.010350442628321804,
            0.009071055474405633,
            -0.0022126381223595113,
            -0.00253505176998053,
            0.007665719250233124,
            0.00315579377896834,
            -0.0072593862030820855,
            0.008484452532389924,
            0.0024358747214143963,
            -0.008347088115991495,
            -0.0010891242076070107,
            -0.0035740066568811105,
            0.00602908736420353,
            0.007071058414657887,
            -0.0086193496717155,
            -0.010529338038166304,
            0.01661719470945897,
            -0.009231043432235042,
            0.006610681458317225,
            0.005724714915886525,
            0.004244732292111755,
            0.00470569317652589,
            0.0037333557700678054,
            -0.0004962666290987938,
            -0.004659396585561674,
            0.003257738198588549,
            0.002612107245414276,
            0.0028376971642021416,
            0.004026613431817995,
            -0.00016521079100268149,
            -0.010923931840499052,
            9.913533523442917e-06,
            -0.005777222352078478,
            -0.001968264175810496,
            -0.013407494052104492,
            0.005881763952802273,
            0.0025813760874837735,
            0.0009106767163025201,
            -0.003423141922329641,
            0.00831800828298796,
            -0.004362585267748245,
            -0.0033527083283107074,
            -0.0014643287553241483,
            0.013060334487182702,
            -0.000771720169711323,
            0.004438356914699788
        ],
        "120": [
            0.01387875395810026,
            0.005306450825104756,
            -0.0010446753301486056,
            -0.0013166911932438038,
            -0.0010297709077750556,
            -0.0036849176233368615,
            0.009284410895977214,
            0.0027810349586650297,
            0.005340796330104737,
            -0.0029787091826362767,
            0.0041583005461896735,
            -0.0027724044389762785,
            0.005859602314206951,
            -0.009160438190408385,
            -0.0029947348145220806,
            -0.011355254787362828,
            -0.012777861190676055,
            0.0023496074601072614,
            0.0004823754193647929,
            0.0047119548834854905,
            -0.00045850632599541975,
            0.0025853885230132166,
            -0.005909472162193989,
            0.009046627502917291,
            0.005584513158591108,
            -0.003722613162383863,
            -0.0073380670324451214,
            0.012310431114640641,
            0.005365497536452267,
            -0.002250575988254819,
            -0.003686604313124033,
            -0.011393550020214036,
            0.011148919437099785,
            0.0026379927460991742,
            -0.0014134082872635685,
            -0.002639539627209378,
            -0.0014667598673186399,
            0.007749078012378526,
            -0.004710277958343172,
            0.0051708900441136685,
            -0.0010618276686919484,
            -0.008948533345187436,
            -0.003722039011037815,
            -0.0007468979150605597,
            -0.0013582792431707153,
            0.002121987770425652,
            0.005733193640255957,
            0.01618775646359524,
            -0.010991802128256296,
            0.005046168812257164,
            0.008654598144072751,
            -0.0014455619652239413,
            0.0056944358763189274,
            -0.009606201351267971,
            -0.0012984699369510693,
            -0.0012618778085061837,
            0.007175099302130831,
            0.003493269027123306,
            -0.008424575672857702,
            -0.0018689127112032093,
            0.009056405074952666,
            0.002306889003216895,
            -0.013923220972444928,
            5.19925143802333e-05
        ],
        "121": [
            0.0013517446944255789,
            0.005370408953715701,
            -0.01753218137774892,
            -0.0034718057742424147,
            0.0025682808359146513,
            0.0011107515652949863,
            0.001567488435696647,
            -0.0013151175040736693,
            -0.01197486529257977,
            0.002224732624476019,
            0.007041744449098779,
            0.0036812335033030706,
            -0.004709621655419764,
            0.0038459926274460017,
            0.004123285841427714,
            -0.00041362691035199046,
            -0.010888833573632043,
            -0.0014185286241660123,
            -0.00041270532693932845,
            -0.008301704555153038,
            0.009154946487381273,
            -0.005594888182555495,
            -0.005691595570899998,
            0.002968867987693638,
            0.00020737013720801352,
            -0.006632773856472449,
            0.001019952341188629,
            -0.001567238454485682,
            0.00352912605419742,
            -0.0007754795720729061,
            -0.008035573569853014,
            0.011877087124757962,
            -0.00229699811148678,
            -0.008307253751995492,
            -0.004515562611985856,
            -0.004916191357001103,
            -0.0029435276970442735,
            0.0007182698907316742,
            -0.0029683025534043505,
            -0.002869393800342906,
            -0.004672418621274091,
            0.002115688744449551,
            -0.0024677420940055666,
            0.004495634027861332,
            0.004494777021766801,
            -0.010494249499003502,
            0.0083075535031763,
            -0.00024123568032739762,
            -0.006242408165598399,
            -0.00016208896990428437,
            -0.0015496435155476003,
            -0.003607201623948561,
            -0.004303380133985423,
            0.00850764524386581,
            -0.0008842220895302317,
            0.010461961470831255,
            0.006719448245047519,
            -0.006535603816127288,
            -0.00019012198036257142,
            0.007796724945074503,
            -0.009346369015324794,
            0.013278465071540927,
            0.015745313832836914,
            -0.00046901679472371945
        ],
        "122": [
            -0.011456059578197186,
            -0.007498798286613983,
            -0.00467563395710945,
            0.0026731173108021367,
            -0.0064411122470989166,
            0.009603663354082154,
            0.0008930604938322469,
            -0.0009448654842050038,
            0.003360271279063548,
            -0.010620324061289647,
            -0.006683099301435649,
            0.0009484039948140666,
            1.3498930575398745e-05,
            -0.007051146696312332,
            -3.1198422941704705e-05,
            0.0029886425283804268,
            0.015599333778872949,
            -0.006589377378908343,
            0.004281913598812302,
            0.0017517600523955065,
            -0.004368333475455172,
            0.017218876039770844,
            -0.007102507618238149,
            0.0008876945800333563,
            0.00381116516067208,
            -0.01013128164097686,
            -0.005732500915942466,
            0.011138447165298448,
            0.012258686814360039,
            0.0016424738470583252,
            -0.0037881141510219853,
            -0.0039305397264180085,
            0.0008398207266408682,
            -0.0026166335436101904,
            0.0016711954149829897,
            0.013907653706136986,
            -0.009942419783468595,
            0.001520879787797532,
            0.0038167172419223783,
            -0.007758574186351303,
            0.009449268191074714,
            -0.0019609759793120514,
            0.009311030385662378,
            0.013681656648079039,
            -0.003480526364943984,
            -0.0066715875534840005,
            0.0007114442227435714,
            -0.003780718961784168,
            -0.002407108397796851,
            0.001421053231043601,
            0.012491743821357065,
            -0.004055230414589251,
            0.0028657373187790246,
            0.0032436296793135985,
            0.004565906907354609,
            0.005614823708736049,
            -0.0006364123429809404,
            0.0016393652346838935,
            -0.005030606747867601,
            0.0035933747137268067,
            -0.008941225779499646,
            0.00014179567193000448,
            0.01980299839673106,
            0.0033529366752760373
        ],
        "123": [
            -0.0029236703157703033,
            -0.0037468584380750598,
            -0.0039878644166676065,
            -0.0062370308996244316,
            0.009965818024952779,
            0.004739896552299003,
            0.00820363441315783,
            0.005724260546181254,
            0.002623952712972196,
            -0.011469648790699326,
            -0.00850321701537648,
            -0.003970817543413168,
            0.007123680093899822,
            0.0013970892862010184,
            0.011641978879906666,
            -0.007345014857152925,
            -0.006553154807288398,
            0.008221958760033567,
            0.00594470367724137,
            0.008719006681263306,
            -0.004797413821670419,
            -0.00427721456348458,
            0.010842082612387201,
            0.0033566029734322365,
            -0.002639377642879559,
            -4.95264006891516e-05,
            -0.003709223785151248,
            0.009539484057160087,
            0.003660106437160911,
            -0.003175848933117477,
            -0.004172836510255868,
            0.007328481306612324,
            0.007360429415896274,
            0.005158342715733272,
            0.006346085904352735,
            -0.0019515863559659348,
            0.0036602532355730906,
            -0.0032814979056608215,
            0.00548711859486823,
            -0.003445337508530117,
            -0.008533491885521811,
            -0.005589706902598461,
            -0.004664717816921953,
            0.0030352929877870967,
            -0.0068914275884315,
            -0.00021293093825816646,
            0.004878639200997778,
            0.006040859465633997,
            0.00039899904490430145,
            -0.005994291131574844,
            -0.003517290599929813,
            0.002879532040997881,
            -0.00220979215138428,
            -0.005038958446570695,
            0.00399711731717928,
            0.004632995322893632,
            -0.00046868504959532735,
            -0.007541193056414925,
            -0.003038104624020103,
            -0.0041751605828442145,
            0.006113726907598645,
            -0.0018486791024511506,
            -0.012855000553223847,
            -0.010368367382439726
        ],
        "124": [
            0.0036505807486483226,
            -0.0017959567751559922,
            -0.002998513718388097,
            -0.003680219686126555,
            -0.006236932104212737,
            -0.001929275022261624,
            -0.0032608990242827666,
            -0.003563639041624187,
            -0.0013102248103586895,
            -0.005662450947628521,
            -0.010114597653785555,
            0.004347866311309876,
            -0.009179964475819487,
            -0.005220340647165317,
            -0.006626463433867621,
            0.008666380368620472,
            0.008112007872114253,
            0.005318837289833675,
            0.0034853916069331695,
            0.0012858012689243867,
            0.0037389626212398458,
            -0.00345339025625987,
            -0.0030397554307655798,
            -3.2125419971388176e-06,
            0.01249033014045109,
            0.0036422858227518028,
            -0.01583157940999556,
            0.004742352898112132,
            -0.004561117268340325,
            0.0033653592182272016,
            0.0031617861201902915,
            -0.012119352447362163,
            -0.014072171560411545,
            0.009530621890073372,
            -0.0057049038091471285,
            0.007813782661695148,
            0.009433892691114353,
            0.00879827236813419,
            0.004473554188948712,
            -0.008431288302879186,
            0.00023228170924533597,
            0.008533987030932227,
            -0.010575703807968446,
            -0.006237189469795986,
            -0.010327138932966409,
            0.0009614147233585626,
            -0.0011065989020622924,
            0.0018909230936465125,
            0.0050203304743994676,
            -0.004071729777207198,
            -0.010795389568326597,
            -0.0025975426282430127,
            0.0031195852255796078,
            0.007976307900498787,
            -0.0012571033047327964,
            0.007057372497304113,
            0.00019925363658176355,
            -0.005097116464410147,
            -0.007809667602165249,
            0.0016819310661505338,
            0.0032337196271797555,
            0.007947367646446699,
            0.0017607208940413179,
            -0.0003409926001493329
        ],
        "125": [
            0.009776320778091064,
            0.005347385480976734,
            -0.0002835074684380595,
            0.00015587878548490704,
            0.004669206606628915,
            -0.0011386115848342902,
            -0.0003804991779048837,
            -0.0032416142037251412,
            0.00210425079278735,
            -0.00246785778254945,
            0.012838595050879854,
            -0.009482894337282876,
            -0.006533877495879268,
            -0.0021434051193029665,
            0.0018531114663742493,
            0.0010430796629613851,
            0.005511423164821138,
            0.007294730201255213,
            0.005539624773701579,
            -0.0023974693432560912,
            -0.0065255184437289105,
            -0.004270321230203214,
            0.006353094693501352,
            -0.0018880884612770942,
            -0.013489757853743118,
            -0.0020678280104313,
            0.004941972931113699,
            5.9457011565233644e-05,
            0.000775148681606054,
            -0.00787989416275167,
            -0.004114287202446518,
            -0.010696832994540667,
            0.001607158124333948,
            -0.010231305685311694,
            0.0014357542927196758,
            0.006580883625030951,
            0.004318826314968769,
            -0.005018038272158684,
            0.008171008494018816,
            -0.007267246351890658,
            -0.003199069374542611,
            0.007720448085730704,
            0.007981144107198175,
            0.003381366913266349,
            0.001453052166551434,
            0.009638133845704187,
            0.005899248898896175,
            0.012309627226495236,
            -0.00444744351290138,
            -0.0004376396146532227,
            0.009519304308401673,
            -0.00798479661444262,
            1.0628732397595888e-05,
            -0.005397624816266616,
            0.014679961193334583,
            -0.00021658011785988617,
            -0.001704368577530594,
            0.010734729507973897,
            0.013654049833838573,
            -0.0061393385886845874,
            -0.0053903583232829955,
            0.008023318813901018,
            0.002455476549939232,
            0.00312272322985743
        ],
        "126": [
            0.0021800672866111766,
            -0.00013676249188423193,
            0.009614138365752858,
            0.0035603885060010356,
            -0.001462601061213564,
            0.008282315465930196,
            0.003294486172582687,
            -0.0021808062692437688,
            -0.006304242779419907,
            -0.002860826443026887,
            -0.00428300679078227,
            -0.0042977573185841245,
            -0.000845457750246967,
            0.00831843708408391,
            0.007223016424245255,
            -0.0009761477510468327,
            0.012058008666355946,
            0.00014561604961859113,
            0.003697920301106489,
            0.00644877994261801,
            -0.009841697494921624,
            -0.005297329273826926,
            0.010613130170926728,
            -0.008833203433376957,
            -0.01253176135969946,
            0.0036548961349567783,
            0.01133251126840944,
            -0.0030990554532578803,
            -0.005863753119246691,
            0.0018730882163229285,
            0.004126865658661785,
            0.002857790287565019,
            -0.012284712949403252,
            0.008200479573719176,
            -0.0013026111757332838,
            -0.0027684239221685888,
            0.001731402750063663,
            -0.0012950313802932148,
            -0.005997141316998799,
            -0.008409996016587361,
            0.00018017240080344402,
            0.004737424404748088,
            0.0030693332864874085,
            -0.010342110917745707,
            0.0008820309360820658,
            0.0048224912430388685,
            0.008379537188501141,
            0.005774032131581142,
            -0.011569604547599463,
            0.006480293561574005,
            0.001996964841212192,
            -0.00549478871032495,
            0.00024876803647041936,
            -0.0014722752777897106,
            0.004908005426677539,
            0.0031117987892968703,
            -0.0023133692639062294,
            -0.007385995699352598,
            -0.00011767239729303298,
            0.004922867599434847,
            -0.004851756181876022,
            -0.0017010384061006156,
            -0.0006176480047545918,
            -0.0010139546347912786
        ],
        "127": [
            0.0008833982385922566,
            0.005401700216353296,
            -0.001319708646371931,
            -0.0028424936470160473,
            -0.011487046749424051,
            -0.0011477666341292148,
            0.0010705925621678385,
            -0.0034090017369480656,
            0.00826855009816435,
            0.010826801870819225,
            0.00019917640730946506,
            0.00728844282586729,
            -0.00440861868152491,
            0.003284200706230213,
            -0.008921871471299357,
            0.0036834977577671077,
            0.0029730512306164678,
            0.00439911561935625,
            0.002389967354436204,
            -0.0013079945964082013,
            -0.008546974970497286,
            -0.004176932342880932,
            0.00849044264186194,
            -0.008336218876491077,
            -0.0010203035640495995,
            -0.004316030451966887,
            -0.0031170696561198252,
            -0.006643309176097675,
            0.010240286122088204,
            -0.004575321190705659,
            0.00028548034902186426,
            -0.004770684379947949,
            -0.004504487957611254,
            0.0017136610621922975,
            -0.008940078627839906,
            0.013499167898061944,
            0.004329076727899714,
            -0.009202304361152774,
            0.0022374202118405208,
            -0.006555741931467978,
            0.002504455217960599,
            0.00503832514373036,
            -0.0013216712393239584,
            -0.011463130007757678,
            0.000905581158157146,
            -0.004261833238143143,
            0.00549404123479287,
            -0.013366780543877974,
            0.005950555791661971,
            -0.003679900701039918,
            -0.007730808875285842,
            -0.0010743722411541094,
            -0.00036721253976556206,
            0.003221405954282694,
            0.0036428416360388665,
            -6.158854284124885e-06,
            -0.0005191313184918937,
            -0.002305283480538815,
            0.0077726005990416645,
            0.0014164692999072232,
            0.006187273746964515,
            0.0014648355605142425,
            -0.003151825333740703,
            -0.006051586520143109
        ],
        "128": [
            0.0038408968563582732,
            -0.0050493753949716995,
            -0.004997860620263008,
            -0.0016717257323664008,
            0.008187251374842115,
            -0.006005509955233917,
            0.003494421812016573,
            -0.0017278761918965123,
            -0.0027499137887249617,
            -0.002981164940117431,
            -0.0024895725266739035,
            0.006325766044647303,
            -0.0007694298024361613,
            -0.008812436970202665,
            0.0021647793849789826,
            -0.002148419956211266,
            0.0019115076253479139,
            -0.00794376087619991,
            0.00485555485943401,
            -0.004575115971135908,
            0.0027541748665772846,
            -0.0030782420772109014,
            -0.0036971070267910293,
            0.0049293735474547785,
            0.0008905936550437267,
            -0.004352578785782438,
            -0.0034920663907265625,
            0.003606573474667669,
            0.0007732717125457892,
            -0.009689013354595516,
            -0.00495747375712157,
            0.005512678929814484,
            0.005452077645872084,
            -0.002298324918535828,
            0.002492716510229351,
            -0.007369554007755585,
            -0.009849400229514936,
            -0.004999001646522793,
            -0.0009270524376836421,
            -0.0011661899611861257,
            -0.010004590918063362,
            0.0015947118980326512,
            0.002372975949681943,
            -0.007520583154425886,
            -0.00043427562012703503,
            -0.0019722814464575595,
            -0.006975386436267681,
            0.004912031255183311,
            0.002348163222693238,
            -0.0003471103046709563,
            0.006048232064022394,
            -0.0015714325409042049,
            0.004338586899596771,
            -0.0003981036237630466,
            -0.010826630821973736,
            -0.003698003383846546,
            -0.005011484122378622,
            0.004645088621755062,
            -0.0016552567744063996,
            0.00859645143885628,
            -0.0011835984537191748,
            -0.0031437432177270925,
            0.006181191125747002,
            0.010376446951756204
        ],
        "129": [
            0.0016190005019499241,
            0.003078577425526639,
            0.004188629860783375,
            0.011880627301925002,
            -0.010642183252735637,
            0.00293097543676093,
            -0.003085104810750335,
            -0.0014122258348489083,
            0.008352275570846645,
            -0.0026059842402601048,
            0.009131500110673705,
            -0.008738477580149019,
            0.003462597915852026,
            0.001606153595284641,
            0.003685076500459926,
            0.007103470014611789,
            -0.002368848877076564,
            -0.00729180458306605,
            0.0011207592751449435,
            -0.0023360749094019167,
            -0.0036102664314495714,
            -9.862256722800613e-05,
            -0.000371353034204884,
            -0.009420901651848355,
            0.004148405737530341,
            -0.014027619975478758,
            -0.0033187726361572885,
            0.0008754915656456884,
            -0.008532045836228627,
            -0.015216741060560441,
            0.0031216069221563455,
            -0.010942089338983984,
            -0.0045843633376995005,
            -0.01141085360347146,
            0.00946181591267998,
            -0.010714369103584247,
            0.00278372001617632,
            4.081116282687855e-05,
            -0.0015464286062982688,
            0.00031350402898965143,
            -0.004828980168576951,
            0.00657085576641201,
            0.005757163503201473,
            0.0036854181443727535,
            -0.0047488346693590686,
            -0.006135558803196453,
            -0.006271934441438341,
            0.007767230517886846,
            0.00031092673387170174,
            0.0009416855480050397,
            0.008129757871461762,
            0.0062605229873603065,
            -0.0032291121483285544,
            -0.001935932348484267,
            -0.0029765546641384016,
            -0.004133762720672723,
            -0.00293748240363089,
            0.0022718982499045685,
            0.0029171891366961133,
            -0.007280485026897764,
            -0.0009667324556528964,
            0.0011744697976562451,
            0.0007954721475209093,
            -0.007621325243020723
        ],
        "13": [
            0.010233044228116127,
            0.005944141167475145,
            -0.011873345604231773,
            -0.003838660130286184,
            -0.0009832843577848515,
            -0.0023811764373862423,
            0.0005503103849001919,
            -0.010410004418949544,
            0.0007707232556674206,
            0.0005371694838604135,
            0.01568225194800669,
            -0.00030034598767997707,
            0.004018569210891515,
            -0.009231551236562356,
            -0.004211969352322634,
            0.0030852994605731266,
            0.0006837041725073944,
            -0.01203416460976484,
            -0.003142723944585457,
            0.004589308389747885,
            -0.0025296525521393675,
            0.0026284399730494372,
            0.002707934900444783,
            0.007167907649278602,
            0.015489176251192905,
            0.0023726516468518485,
            -0.0037025566928235217,
            -0.006576596380850511,
            -0.011922022331685085,
            -0.007423698561468094,
            0.003067965237521156,
            -0.007234982960846292,
            0.004406139064500315,
            0.01119142893852561,
            -0.001603091464976817,
            0.011446545207234884,
            -0.00910551654881814,
            -0.004612549706838194,
            0.0031297964615728093,
            -0.0035550700642612656,
            0.0031579991757029018,
            -0.005461486132087787,
            0.015558812327429006,
            0.008498930386065457,
            0.0060182996258740205,
            0.006869466661934831,
            -0.0075586326660232565,
            0.003090069328800351,
            0.0031147589534555125,
            0.014086193789456004,
            0.007147201566587068,
            -0.0011490288156538952,
            0.00419093017839004,
            -0.00788482794380965,
            -0.0013528988044899115,
            -0.007399374338226084,
            0.0007459735883131289,
            0.008528597883044933,
            0.0014077348946503546,
            0.0004707534965292732,
            -0.0010918041897246857,
            -0.005568088267013737,
            0.00019972808234337434,
            0.008263412718172323
        ],
        "130": [
            0.018029380011843163,
            0.00917074884214446,
            0.011067611266942778,
            -0.003426101798692268,
            -0.003461290639864212,
            2.6433068213337034e-05,
            0.0043449027855112,
            0.0010205728999053358,
            0.0015956084389175493,
            0.004465445446191539,
            0.003411687015391358,
            0.005146256385471667,
            -0.00040166504414892334,
            0.0034747044719897003,
            0.01294332623696217,
            -0.0020005875214357586,
            -0.006858505284944964,
            0.0007826334766744801,
            -0.00199856069736053,
            -0.0031120700099755553,
            0.0072369293598947325,
            -0.00776383882750278,
            -0.004911880028663909,
            0.005612063251443925,
            0.001938889088036814,
            -0.0023806961775272267,
            0.011501930393653645,
            -0.0072531614482399965,
            -0.002746713433362013,
            -0.005294078166453672,
            0.00754300555608846,
            -0.0017222831409212215,
            -0.010621164524459041,
            -0.001004868569606019,
            -0.007988248420884672,
            -0.002573602789991239,
            -0.0013271075009803437,
            -0.000985670341547737,
            -0.0024348055429399503,
            0.002492215816954215,
            -0.0022080465689776206,
            0.0016221183125527232,
            0.0053348392048625,
            0.00602350506097277,
            -0.00273446288526015,
            -0.010973252140932834,
            0.0025440307433128176,
            -0.0006369987159092938,
            0.008385247280582363,
            0.0014800663596355574,
            -0.005378677591448934,
            0.005909624278035784,
            0.0007980807105510018,
            9.925230657760051e-05,
            0.005574542631173955,
            -0.0005737930064258458,
            -0.015721500767756882,
            -0.008783212598144043,
            0.0036935819143900854,
            0.004502896610792136,
            0.0006938746531442082,
            -0.0070300687377442056,
            -0.0042198209737467456,
            0.0041648921882418725
        ],
        "131": [
            -0.005069437696659462,
            0.009204855318785218,
            0.0016202287701249764,
            -0.007756782044724753,
            0.015674930405756633,
            0.006407982567575895,
            0.007165371901561123,
            0.007007494552518057,
            -0.004616224171581734,
            -0.00960328003981913,
            0.004171250659674513,
            -0.006941400259695584,
            -0.00015798636852541972,
            -0.011420641674415562,
            0.006483356221539116,
            -0.00790832469829201,
            -0.010590998188713995,
            -0.0028539985804908975,
            -0.004117781309769183,
            -0.011155274320273797,
            0.007589792759909401,
            -0.012441219704868585,
            -0.005416409000269974,
            0.0021298112694006417,
            0.0034372103117942137,
            -0.0029257712845251888,
            0.003168895623844998,
            0.003689178931643661,
            0.0014472347235888034,
            -0.003834868492023374,
            -0.0017928690120510707,
            0.003195747751678329,
            0.005561124880497185,
            0.015500722832572505,
            -0.010760026033252518,
            -0.006341470209339852,
            0.003557849644704009,
            -0.00877002093863557,
            0.004982968643042241,
            0.015928866749246814,
            -0.003694551603731276,
            -0.002445585609033104,
            0.0009527788618659422,
            -0.0028178333346072057,
            -2.993305226292088e-05,
            -0.009899861104607435,
            -0.004138856682836447,
            -0.0047966123757117824,
            0.01377745251138802,
            -0.0019277292348091589,
            -0.00983833035284889,
            0.004368292049020901,
            0.003936343100394862,
            -0.0016473642563621502,
            -0.005710364756728534,
            0.002484761936796863,
            -0.0019505680579978144,
            0.004238449696123641,
            -0.007004884345752845,
            -0.007371936288798599,
            -0.0064760531916482,
            -0.00667938974790938,
            -0.000615600938045188,
            0.0011093969484839525
        ],
        "132": [
            0.0009092089086505948,
            -0.010696769377470647,
            -0.010676537329552253,
            -0.0010987822204367801,
            0.005670292936628426,
            0.009047061669976174,
            0.005548462566706923,
            -0.011539718431777417,
            0.005113084877078736,
            0.005724026016275742,
            0.001298063430592497,
            0.0029148224882432844,
            0.005831257100283406,
            -0.0015902938038154708,
            0.001607896067966007,
            -0.0001745158538907453,
            -0.012062212097063915,
            0.004080433210873982,
            -0.011479478068017138,
            0.002489170031289397,
            9.74800874641901e-05,
            -0.007724686812020956,
            0.0011820177259111368,
            0.0025705161335237646,
            -0.007060779410011583,
            0.007861354764634237,
            -0.005122422099621594,
            -0.001895344630113853,
            0.00784913982208025,
            -0.01661073210099596,
            0.0007740099135365012,
            0.0018523340119691555,
            -0.003001763330777172,
            0.002994328424011007,
            -0.009924169309089403,
            -0.015979841707728162,
            -0.00033507743121719154,
            0.0009616461966400653,
            0.0008267287980860928,
            0.009486508188821586,
            0.0008821317708045672,
            0.004222720982613497,
            0.002941953923292228,
            0.005921277086030188,
            -0.0015670338868776935,
            -0.0003863108574477067,
            0.003445112804222872,
            -0.0011614789403139798,
            -0.0066332369704286635,
            0.007758805671417349,
            0.007566268600923411,
            -0.0054327113255009775,
            -0.006504982104915423,
            0.0005280335899655819,
            -0.011234342536033538,
            -0.002638258814196263,
            -0.0026454130995152386,
            0.01185151854949297,
            -0.0053358453414323465,
            0.005792801906217334,
            0.004874169495595714,
            0.004412518245209708,
            0.003139554445655248,
            -0.0027827923070053904
        ],
        "133": [
            -0.002916208780686695,
            0.017193416089563245,
            0.004835904985725066,
            -0.002301670719204538,
            0.003439945813623313,
            -0.007654493272964054,
            -0.004736417945356793,
            0.005368251980238051,
            0.0037659791962181264,
            -0.011692730483764485,
            0.0010218023917601352,
            0.0003000885535460456,
            0.002978623941778502,
            -0.002571888063529886,
            -0.0010707615255673819,
            0.0020394126243132578,
            0.011079023384982853,
            0.003034432201070062,
            0.0006753339263830298,
            -0.002394478923887944,
            0.0034148391933737157,
            -0.0006287702885335242,
            -0.0019138954135964816,
            -0.02226563734244022,
            0.0034083342737795843,
            -0.012387073005928497,
            0.006518943158984301,
            0.004350257232243747,
            -0.0038366015260157304,
            -0.004299902982756994,
            0.0026891755543859332,
            -0.0014435717280821062,
            -0.002386831673366875,
            0.0069135977703954415,
            -0.0002884614537748289,
            0.003009053753126399,
            0.008460988228764564,
            -0.0014230093200206819,
            -0.009051055231816697,
            0.0035654888403141463,
            -0.0017334122256650283,
            0.0025208809269870285,
            0.0017484730187822138,
            -0.021023552280879418,
            0.003897303587295689,
            -0.009281182409885562,
            -0.011711450876198196,
            0.006717331494442246,
            0.0011421623328661961,
            0.0007604073129067595,
            0.0028620336265972853,
            -0.0045874619540126815,
            -0.0027851390653530744,
            -0.0033603496857974695,
            0.0027766015561789363,
            0.003303233209247439,
            0.0015927761695287007,
            -0.004516298066706,
            -0.0036134736135322388,
            0.0023825738254345794,
            -0.005856207758039631,
            -0.005143029614910174,
            -0.009962784955045873,
            0.011895780154604674
        ],
        "134": [
            -0.0030416010548996813,
            0.00414050076753992,
            -0.005789897532229707,
            0.002403790660461696,
            -0.00781937737129659,
            0.0087744993125883,
            0.0013898606241669418,
            0.008201820401539944,
            0.0032958191657564296,
            0.007468156096075153,
            0.0034901086016005077,
            0.011722073205816988,
            0.0035076092330754297,
            -0.002182328168082812,
            -0.0020389786741287124,
            -0.0023454961975793017,
            -0.0024900481903398185,
            0.008815311943791723,
            0.005715060751607125,
            0.0010529253096908887,
            -0.00319145675796028,
            0.010318268703359959,
            -0.0009745809830969727,
            -0.00017807708641246617,
            0.011054214373580949,
            0.008173825335108662,
            -0.002791606028010733,
            -0.0002011721573611757,
            -0.00563889268148945,
            0.003269705754192768,
            -0.010633051389782829,
            -0.0012753344151723394,
            0.00988053365272489,
            0.004378591445812193,
            -0.002588208391375748,
            -0.0041130477888395986,
            -0.003953659624600546,
            -0.0008089283680914165,
            0.007726737197042393,
            -0.007839556425557817,
            0.004219802711337314,
            -0.001810962422031556,
            -0.005569381604858672,
            0.0009931710630571345,
            0.0064703757999857794,
            0.0023403980360085183,
            -0.012092986843946356,
            -0.0030281918210645587,
            0.00164959519260818,
            0.0019656778353279807,
            0.004553375326217575,
            0.01676940713020838,
            0.0007625870094142421,
            -0.0018410635448714123,
            0.0017911014433200337,
            -0.011601554920779413,
            0.011821129163431041,
            0.005230828069677725,
            -0.009294573661520892,
            0.009793189408857476,
            0.0070158085035392035,
            -0.0062259292649901946,
            -0.006120230990778729,
            -0.004365812991124751
        ],
        "135": [
            0.01008553012431239,
            0.006561263941053417,
            -0.004099314237627493,
            0.00422299367285954,
            -0.0015514876766101165,
            -0.004189896574561178,
            -0.0008069898148084915,
            0.007345585368308863,
            -0.004166417662147535,
            -0.007858196056661824,
            -0.0026856807376507363,
            -0.0033371456322462724,
            -0.007410925749633044,
            0.008165449300141481,
            -0.0006491300258523036,
            -0.0008157215845996644,
            -0.009454539988608164,
            0.002971696284464704,
            -0.0017080540807157469,
            -0.008508837243555034,
            0.010339742780076757,
            -0.005473373945586255,
            -0.001319076122952352,
            -0.003555686262337671,
            0.010393985539482016,
            -0.007216580562195741,
            0.000318402763987812,
            -0.0016144118497941182,
            0.0047683211269219684,
            -0.0073533060444065206,
            -0.00774068128962254,
            -0.005225108133819351,
            0.009535049818553406,
            -0.0013118894344026372,
            -0.004954727485454807,
            -0.010236071747553942,
            -0.004195167872228542,
            -0.0012364372358268717,
            -0.004870132641606194,
            0.006339470647668179,
            0.00028880766692487045,
            0.0028433199555800786,
            0.003443074201787648,
            -0.0026579866249063742,
            0.01216277084817671,
            -0.0033254316947225154,
            -0.005199662809131337,
            0.0036758986117405145,
            -5.141655612763389e-05,
            0.0038768224184475343,
            -0.001233042240513737,
            -0.0028037480968493523,
            0.00023529599842646664,
            0.0005467279884767308,
            -0.009399018649646665,
            0.002649307415017839,
            -0.00017885153719012336,
            0.0013158652641131687,
            -0.0015551773418363167,
            -0.0051183803811560725,
            0.0021326303820860576,
            -0.005573829925097547,
            -0.0024785726041589955,
            -0.0012243250117986552
        ],
        "136": [
            0.0038630571814258843,
            0.005172834081759189,
            -0.005765042933414341,
            -0.000439435794131033,
            -0.00591684473175094,
            0.0005196882039308265,
            0.01214384624824362,
            0.0022339287011154453,
            0.003158229211970916,
            -0.003788597726413279,
            0.0008500866184324226,
            -0.005801899216002407,
            -0.005245376061027319,
            0.001537827996741498,
            0.0028132217796639713,
            0.003915719184487869,
            -0.004389285242428022,
            0.004033423773572141,
            -0.0003758336392814597,
            -0.001088555543500177,
            -0.0007956483737299413,
            -0.0037290868939468848,
            -0.00448559494051634,
            0.006952580132181821,
            -0.0015674330783327533,
            -0.011595398034056027,
            -0.004553867933849923,
            -0.004425118651536096,
            -0.00880564563342391,
            -0.008246196216272485,
            0.003366169074365015,
            0.007951282294870063,
            0.005783735228301768,
            0.0024619897749266987,
            0.01292205804781624,
            0.004546263162308559,
            0.009421123694436246,
            -0.0025920802036169237,
            -0.001091055875685677,
            -0.005885510025031414,
            -0.0020402430539549848,
            -0.0007606242012951499,
            0.0011733951200374201,
            -0.00599750081466639,
            -0.004880139032403437,
            0.0021028191345708394,
            -0.0004569477195545543,
            0.0025402804900528627,
            -0.0008214998021459585,
            0.0075796017628126065,
            -0.007763235589725375,
            -0.0033491633723744525,
            0.005847493940336373,
            -0.000613369224823498,
            -0.0028992660846774133,
            0.0031311833032191608,
            -0.004791797194933398,
            0.0009224194975164103,
            -0.0003686874842828879,
            -0.003068584166932762,
            0.004952537079779503,
            0.006656169958660401,
            0.004249238871551546,
            0.009546799648638811
        ],
        "137": [
            0.009797270994737962,
            -0.001164626126330198,
            -0.00639925923137948,
            0.0011039945637263636,
            0.004085740226332189,
            -0.006184983628154077,
            0.005817388449826224,
            0.002729652603034438,
            -0.013115305170717687,
            0.005231985417013018,
            0.009004659953770316,
            -0.0053413598445908005,
            0.0035121673873938723,
            -0.0035255116460647267,
            0.008495449806509662,
            -0.00553137312070036,
            0.00773852342097026,
            0.0029900810635962345,
            0.005641825675606544,
            -0.0005738599284298919,
            0.00738543392940992,
            -0.004466134053956882,
            -0.005479321817899542,
            -0.008070672103228269,
            -1.3742256432467869e-05,
            -0.0017949329136842402,
            0.008514452389971507,
            0.0015959186285655624,
