{
    "bias": [
        -0.022773839791874875,
        0.02567664696444006,
        -0.049153378432193695,
        -0.08947025250195961,
        0.10018596289622458,
        -0.09464143187724636,
        0.026201541980324934,
        0.02254432713890263,
        -0.15510701890084874,
        -0.03661977238154799,
        -0.06568954667976401,
        0.101710307481984
    ],
    "input": 64,
    "name": "fc_2",
    "output": 12,
    "type": "fc",
    "weights": {
        "0": [
            -0.022773839791874875,
            -0.050872903889661085,
            -0.10508477310151788,
            -0.08711159798819967,
            -0.044448411645347116,
            0.006457072157537953,
            0.02313714327598636,
            -0.05639010263584095,
            -0.00987100196276459,
            -0.009997481232931512,
            -0.045513587121623574,
            0.04556783768485215
        ],
        "1": [
            0.02567664696444006,
            0.05910876692128582,
            -0.0016698138973852909,
            -0.10317038414573901,
            0.09216725793938307,
            0.06337811309504211,
            0.025060625904580563,
            -0.08773969311974371,
            -0.045344619604456946,
            -0.03452040254963645,
            -0.020732616616106953,
            -0.012247297265565
        ],
        "10": [
            -0.06568954667976401,
            0.07118785774652854,
            0.029479209253029024,
            -0.000799797455414193,
            0.06348874836648304,
            -0.022708024508948682,
            0.005622762190223289,
            0.0053249551791019634,
            -0.022470209459487717,
            -0.0114992122963508,
            0.017834660855886506,
            0.02559521805436206
        ],
        "11": [
            0.101710307481984,
            -0.06165767370898132,
            -0.01257622217541282,
            0.003215883442126718,
            -0.015742419129176292,
            -0.060063621710788405,
            0.05108237552142087,
            0.05699843745294084,
            0.018360866947071213,
            0.01902440490592593,
            -0.07410625862322572,
            0.01986985051494519
        ],
        "12": [
            -0.024398131614181195,
            0.015187780714462347,
            -0.015805584946637107,
            -0.05133457996080021,
            -0.03584838736025973,
            -0.008605971638626487,
            -0.011788333391822982,
            0.012821746377033589,
            0.0007652726562559431,
            -0.005442485324753356,
            0.014193423762124274,
            -0.05161083518393702
        ],
        "13": [
            -0.07612226562945162,
            -0.01348194302551147,
            0.08860151768150579,
            0.1339683698998632,
            -0.07702853825722869,
            0.04014139691515072,
            0.045307405056171784,
            -0.0430800092373614,
            -0.045459730065264964,
            0.09903450243229929,
            -0.06117392395160918,
            -0.02733917117198502
        ],
        "14": [
            -0.009997631321410995,
            0.06175660202106622,
            0.029045297505823423,
            0.10834813072287688,
            -0.05269321891802655,
            0.029005567296434245,
            -0.07267160563886688,
            0.07716362270454558,
            -0.013615118354575186,
            0.08325840063440286,
            0.06812068504396844,
            -0.04687692486528879
        ],
        "15": [
            0.004141598028858853,
            0.04944014119896037,
            -0.04875596430826643,
            -0.00641319667131449,
            -0.020248197861718747,
            0.02998732201124176,
            -0.08671718305273424,
            0.03697610580842772,
            -0.08832438783694155,
            -0.05130755938650715,
            0.02735459282809029,
            0.02460253910124178
        ],
        "16": [
            -0.0003267280384303155,
            0.01360156680296411,
            -0.04744800098118545,
            -0.020111298308911615,
            0.13237508602387874,
            -0.022785548153527332,
            -0.053534166780945094,
            -0.05596521872014546,
            -0.09712979633278879,
            0.044124572362607174,
            0.04406625861511488,
            0.011157837180240274
        ],
        "17": [
            -0.023365103904338838,
            -0.06431829488600357,
            -0.00515694084424785,
            -0.02109592243619923,
            -0.040985602203321043,
            0.052913325129306105,
            0.011676199573888187,
            0.00989445928156898,
            0.008569355968421238,
            -0.03366062076505106,
            -0.04026377158008445,
            0.08155047241762438
        ],
        "18": [
            0.1047015955576434,
            0.06862829585178289,
            -0.029970868803307966,
            0.06437207266824202,
            0.019722145145588472,
            0.01630399011646157,
            -0.11080289349836035,
            -0.06622558867046065,
            -0.014554393115229299,
            -0.0017488405902274478,
            0.04685690398327111,
            0.012965142283872064
        ],
        "19": [
            0.068256603284783,
            -0.051749784150341926,
            -0.0014903365533635838,
            0.10594728629873314,
            0.03270853930026454,
            0.07809202498695106,
            0.023514920807649123,
            0.061696715816432844,
            -0.050317716255545084,
            0.017468439142823762,
            -0.017697906491249957,
            0.14162811256126756
        ],
        "2": [
            -0.049153378432193695,
            0.08198504800722509,
            -0.049683222715052676,
            -0.0010815390176501425,
            -0.028411825501836938,
            0.05053735000425359,
            0.1135177847771314,
            0.01200502803255588,
            0.058719869825774644,
            0.02068443571080515,
            0.004381088326062381,
            -0.0053277062777225374
        ],
        "20": [
            0.07799788156323911,
            -0.014458730084338685,
            0.037842626122183885,
            -0.05384702552497635,
            0.09096540798368177,
            -0.11752158840005579,
            -0.03951533958699083,
            -0.07228378495721219,
            0.01169470363311111,
            0.035836289685232454,
            -0.08027017988993976,
            -0.024061780192143764
        ],
        "21": [
            -0.06460507820528312,
            -0.03807047903654929,
            -0.03030182083052296,
            -0.002041257863441433,
            -0.04790518530661936,
            -0.014292364219431352,
            0.015051565411104155,
            0.01795722802422046,
            -0.016372816131556524,
            -0.06753098367872407,
            0.029420556334774375,
            -0.10273998895670987
        ],
        "22": [
            -0.005831027536563505,
            0.08114680378833312,
            -0.04666683509246657,
            -0.05312127412276849,
            -0.022140964574677683,
            -0.004561491604251539,
            0.03732114441304997,
            0.009648186768525897,
            0.03700194700072759,
            0.028550213055696144,
            0.024188282943576268,
            0.056365745753841345
        ],
        "23": [
            -0.06440705292940092,
            -0.0441134935757894,
            -0.012819328524847191,
            -0.03242012565828765,
            -0.033030436749127395,
            0.09029966696748085,
            0.006500969834465156,
            0.04326231007570056,
            0.03247804327161676,
            0.001885523380920597,
            0.05929685120581077,
            -0.018854618246417734
        ],
        "24": [
            -0.03824193411196878,
            0.04756045954057604,
            0.02663566846842568,
            -0.060469656361605104,
            0.037829415694352636,
            -0.10736722621154673,
            -0.08117883791655552,
            0.05340217785463475,
            0.11202468925715608,
            -0.031864143220970795,
            0.08679986035325933,
            -0.0062584164489126425
        ],
        "25": [
            -0.020831545555680116,
            -0.007740336860059964,
            0.013750514399247125,
            -0.006145733558010757,
            -0.046074909674347644,
            0.017297771391089907,
            0.00578053309358214,
            -0.01748743165589775,
            0.012294595688566326,
            -0.06024878173794436,
            -0.07261435560300185,
            0.09282115994163614
        ],
        "26": [
            -0.013050007566223565,
            0.12189980433348739,
            0.00791874721520412,
            -0.0037636868312719363,
            0.05258030767968344,
            -0.04223223439764005,
            0.014135387368842857,
            0.04768595180449142,
            -0.01730075461803696,
            -0.037995171089184536,
            0.04561588153315285,
            -0.11732422011338685
        ],
        "27": [
            0.1073326560513785,
            0.06991552329068643,
            0.025983091078651613,
            0.04947024008710343,
            -0.05902089395250138,
            -0.010429278195334835,
            -0.1393197006143361,
            0.07142234316745436,
            -0.0010104403642877077,
            -0.022666592998294918,
            -0.011486539231389793,
            0.02695780132366704
        ],
        "28": [
            0.04453475985651784,
            0.0604254984702961,
            0.03376586181771434,
            0.027130827052922708,
            0.04997290541878778,
            -0.01242340177672225,
            0.029934941669720196,
            0.007185435401754848,
            0.006235896590570669,
            0.07246037772786779,
            0.0004915139365980671,
            0.013002793581075445
        ],
        "29": [
            0.02401906719844576,
            -0.01625147732076624,
            0.08159793735965899,
            -0.04646903501212448,
            0.09239103342848762,
            0.04511970911930994,
            0.003412521425585146,
            0.01725489838919579,
            -0.014352666250147321,
            -0.006116837280662824,
            0.06638244480873016,
            0.04962010586680018
        ],
        "3": [
            -0.08947025250195961,
            0.03969925708356582,
            0.04482106866037005,
            -0.08769515570755351,
            0.024349657833211684,
            0.011619994913797477,
            0.06854333283238409,
            -0.0427104510032368,
            0.03789186537091606,
            -0.06874711766270047,
            0.01728489372547272,
            -0.014691694105577854
        ],
        "30": [
            -0.07304173084499611,
            0.024947985815507834,
            -0.03040255317395455,
            0.006706460648609444,
            -0.017118506071944206,
            -0.007880286756706106,
            -0.02513920147409731,
            0.025483303577791123,
            0.011407202096382905,
            -0.01952586109849736,
            0.036266739780091276,
            -0.02851328150378129
        ],
        "31": [
            0.02083804262186932,
            -0.006146700184406455,
            0.03278063598183146,
            -0.012909631526539551,
            0.05484282999010317,
            0.04190527138563777,
            -0.06027241621844916,
            0.00804469554195175,
            0.07716055482301282,
            -0.04973364891017504,
            -0.03922348027396489,
            0.05635518980468191
        ],
        "32": [
            0.05206520543880765,
            -0.03047066258477118,
            0.019496460371260786,
            -0.044335398138871426,
            -0.018144199240602323,
            -0.008608885214600535,
            0.01732933148149731,
            -0.05154411251967925,
            0.022185708692836034,
            0.050466167663909454,
            0.0004456627474046888,
            -0.04028638543116197
        ],
        "33": [
            -0.04105502032663482,
            0.009680400101223506,
            -0.08764476657331909,
            -0.03194870691508149,
            -0.1071691298032196,
            -0.0237652255311441,
            -0.02480862007747446,
            0.05692365027283055,
            0.043431547276198086,
            0.0615125107239205,
            0.05450538915748136,
            0.018363338864392335
        ],
        "34": [
            0.037264782048162234,
            0.03998443042621715,
            0.07489322884216976,
            -0.05143650324823371,
            -0.019347389734899557,
            -0.06068164467124376,
            -0.05240564016314023,
            -0.03344324458510347,
            -0.05487274914086275,
            0.0036670788193600328,
            -0.010268163371211265,
            -0.05948041679026516
        ],
        "35": [
            -0.10793199447290497,
            -0.021802934042642063,
            0.028066634989217028,
            -0.06038083449250009,
            0.041296171509486654,
            0.024079147764375794,
            -0.014923829547292919,
            -0.1050182285530934,
            0.09778001529872647,
            -0.10125072290367111,
            0.027040300167328144,
            0.017079167999837854
        ],
        "36": [
            0.04714457229420842,
            -0.017073462462267566,
            -0.023955354055416652,
            -0.009815938140439143,
            0.007754784388866203,
            0.041765144340921316,
            0.06198658081542345,
            0.020580358274354612,
            -0.0337160505340137,
            0.06424849116665944,
            0.05988806922638138,
            -0.021615770154264295
        ],
        "37": [
            0.005373714226936528,
            -0.014756522727322585,
            -0.11830313186609119,
            0.11162648210737026,
            -0.07335944037690266,
            -0.00018709788453314248,
            -0.008657276506371605,
            -0.044726656890897235,
            -0.006895823100394342,
            0.024956022136281814,
            -0.0380146884139227,
            -0.016265168227926917
        ],
        "38": [
            0.011797806717583698,
            0.04460347451016922,
            0.01521959527639061,
            0.040085122259989205,
            0.01626792006636211,
            0.04533269410672594,
            -0.055235013426536375,
            0.016955705089389244,
            0.07108056435903275,
            0.02041020354610868,
            -0.016261899255739787,
            0.06520186660757445
        ],
        "39": [
            -0.0743611648294668,
            0.01973038728816504,
            0.005849930830839513,
            -0.03816277662291817,
            -0.023570898201121113,
            0.05080814374677853,
            0.08138352243378805,
            -0.09577531908944582,
            0.003463496114566507,
            0.11146872561469938,
            -0.040612413746345506,
            -0.03378134341703174
        ],
        "4": [
            0.10018596289622458,
            -0.002790621130609048,
            0.007028471238392817,
            0.0012963883434802875,
            0.029024508014379162,
            -0.04337731347419088,
            0.08877097936315859,
            -0.005378285046272968,
            0.05344255407185002,
            0.10963258579360223,
            0.02311410164185578,
            -0.03296781757471484
        ],
        "40": [
            -0.040152632842058514,
            0.026644401260513383,
            0.012774801956731552,
            0.10046863434436468,
            0.039391399951516505,
            0.0009796803594061291,
            -0.017936857451671055,
            0.11314527156139106,
            -0.06354312263237659,
            -0.0185531094593898,
            -0.050529722489953174,
            -0.038646019743935806
        ],
        "41": [
            0.17590385806023506,
            0.007623642908704937,
            0.016490660848146724,
            -0.05490818246533851,
            -0.0021573587420733306,
            0.04304103831718681,
            0.04345980242967853,
            0.0443166392093339,
            -0.022044526539739685,
            0.009301116180527067,
            -0.0002931365949602399,
            -0.0893792992622415
        ],
        "42": [
            -0.03211638500716066,
            -0.005085168985088177,
            0.02247001300977384,
            0.07056924961584665,
            -0.049326830662007805,
            -0.0436103269073555,
            -0.05421884499596257,
            0.03604424316789282,
            0.00854827545992553,
            -0.016183599112899558,
            0.031685894933378964,
            -0.06515941049474341
        ],
        "43": [
            -0.029844375365045205,
            -0.023084671921370658,
            0.06587276036041038,
            0.011788792813855057,
            -0.02578909417679595,
            -0.046152024958527646,
            0.01375050520403174,
            -0.02634921137301419,
            -0.08843512432231239,
            -0.004486786660817582,
            0.022221136289941122,
            0.011885467996681208
        ],
        "44": [
            0.006916411133043618,
            0.0292640339432977,
            -0.013356907043977587,
            -0.007987446294681413,
            0.06324521117929288,
            -0.04810287868024108,
            0.01258998490872758,
            0.019632598871511822,
            -0.03405958417255665,
            -0.05460186064847195,
            0.034501475275595245,
            -0.025782676011397936
        ],
        "45": [
            -8.72503421803727e-05,
            0.01589127129992149,
            0.06366998633706976,
            0.040615820851733805,
            -0.008361763267907055,
            -0.009906157958198691,
            0.05708352798850691,
            0.034741020805361324,
            -0.05799178128859597,
            0.008292549027016682,
            0.02151066751294564,
            0.04206855642311042
        ],
        "46": [
            0.03464589132028069,
            0.1080894671394098,
            -0.04028467777977091,
            0.029948448083428485,
            0.0994500984243627,
            -0.07678010320411222,
            0.042833372354697176,
            0.020409352864643654,
            -0.02139485038180619,
            -0.01815823278594711,
            -0.041145379706314614,
            0.026655281482226942
        ],
        "47": [
            0.0057049215532208215,
            0.03235693869530126,
            0.02534020324489912,
            -0.013116429164307736,
            0.06708484419671439,
            -0.07590459442438957,
            -0.01853276745742789,
            -0.0091801724512389,
            0.05671927264250341,
            -0.013643482662255974,
            0.02921385238484498,
            0.0030415062743359236
        ],
        "48": [
            -0.028295674893296603,
            0.12311976975832692,
            -0.019956573117045757,
            -0.02926452205834162,
            -0.052476248321338424,
            0.020390346185116186,
            -0.048369817641258764,
            0.019430996063423914,
            -0.049089162761534126,
            0.04819631569447573,
            -0.0004103311675786539,
            -0.05295496410166147
        ],
        "49": [
            -0.032373312245664664,
            0.0821440321042262,
            -0.05291884667579979,
            -0.03883987936407571,
            0.038633026609236815,
            0.021998459820862744,
            0.03552945277798405,
            -0.07459355859130258,
            -0.03831223059605998,
            0.015511000847062341,
            0.10585359158650826,
            0.059485645660968846
        ],
        "5": [
            -0.09464143187724636,
            0.045243277565456,
            -0.027382967343401118,
            -0.047635289604417715,
            0.03909095760295503,
            -0.05030803848194254,
            -0.0757598617171088,
            0.018117240084951188,
            -0.08961095972899595,
            -0.006653904677243305,
            0.04473707659880459,
            -0.005117019930038193
        ],
        "50": [
            0.020802083143570745,
            -0.11498803930252434,
            -0.0516769777564509,
            0.007625864382400099,
            0.010739626113235878,
            0.002397335214235182,
            0.02881114869679245,
            0.05790664477980995,
            0.03612119414625376,
            -0.05292665942435121,
            -0.0109825524521023,
            -0.07894699869374287
        ],
        "51": [
            -0.007255438201639508,
            -0.04111571020608306,
            -0.011922174340844385,
            0.02615265538149805,
            -0.06433623890384384,
            -0.04613075351075389,
            0.07547709332037433,
            -0.009762803910087228,
            -0.05099470901810031,
            -0.054374710353937365,
            -0.04504493063017254,
            0.034297761171379046
        ],
        "52": [
            -0.015147375103827654,
            0.0394067591292812,
            -0.032172676589101154,
            0.03152255575326652,
            0.04612510684498227,
            0.056223993486533654,
            0.1036567793569333,
            0.04860382185833805,
            0.006207343353540921,
            -0.006387608487932803,
            -0.01523653965901756,
            0.012260693301527589
        ],
        "53": [
            -0.06701316833060954,
            0.05163715528191593,
            0.05986926132636902,
            0.08914229246283446,
            0.04618597862719848,
            0.011469155857455993,
            -0.007765745219741094,
            0.03419828040086142,
            -0.032579634862158084,
            -0.04222364371399968,
            -0.07898848335469381,
            -0.016637297720912093
        ],
        "54": [
            -0.07898907632661215,
            0.023338088175439888,
            0.024480980494166686,
            0.04318562130566376,
            0.0003790187948127709,
            0.0072458040613174466,
            0.02551190113952416,
            0.047429035073074194,
            0.013233382889783114,
            0.061511782650204,
            -0.03379216317243887,
            -0.1278628388156507
        ],
        "55": [
            -0.0036455108490789042,
            -0.025644803812063754,
            -0.07890940936325971,
            0.09353996444031508,
            -0.07117293257099014,
            0.019823493956344477,
            -0.026611641432732366,
            0.06312551038274428,
            0.012333473945586787,
            0.07737660398688678,
            -0.028765940394921502,
            -0.0035968343524397264
        ],
        "56": [
            0.052956657912147855,
            -0.041692270579306134,
            -0.03632053351053485,
            -0.10673424605951881,
            -0.006015065161174704,
            -0.06362263610404013,
            -0.033030407973754054,
            -0.06939096582179444,
            -0.038213806913768265,
            -0.07814497308493837,
            -0.03334678052530216,
            -0.00904945807456355
        ],
        "57": [
            -0.07712618546125381,
            -0.0060544065291098965,
            0.08098718193737518,
            0.04219184416889036,
            0.04761907991559099,
            -0.017292630835564298,
            -0.03225736108281355,
            -0.02043528147292215,
            -0.05381649062824297,
            -0.04739196319010292,
            0.00880600731965718,
            0.030613432518312514
        ],
        "58": [
            0.05999265589405914,
            -0.08622785188264764,
            -0.017957172180379437,
            0.005922166581944015,
            0.05059164242879888,
            -0.055402188957324135,
            0.05710955419688102,
            -0.06649744764854544,
            -0.04087145123904283,
            0.034815390139412504,
            -0.026617893684316055,
            -0.05550566633152269
        ],
        "59": [
            -0.07732454459911489,
            -0.019012462998410876,
            -0.09145695427701979,
            -0.05993257915118166,
            0.02995053025115909,
            0.04201447944851174,
            0.0680591149216861,
            0.06444862032760171,
            -0.0011223245868156794,
            -0.007306088226407182,
            -0.012387491183288923,
            0.02310492539111537
        ],
        "6": [
            0.026201541980324934,
            -0.07979293188120279,
            -0.0581412273614384,
            -0.0033235437064082717,
            0.042663840859495615,
            -0.004786233779875229,
            0.03650363191184041,
            0.06933793382986164,
            -0.04965594657669736,
            -0.02768134819914277,
            -0.0029109809791113004,
            0.04529640247625334
        ],
        "60": [
            -0.0026150167529508184,
            -0.05952884373530475,
            -0.03605992987005025,
            -0.05578026914601614,
            0.04612914706518341,
            -0.015930806460464998,
            -0.02628374966643738,
            -0.04947334418814843,
            0.0006762606529021449,
            0.08960810935770482,
            0.05093184443742496,
            -0.0045645649780152175
        ],
        "61": [
            0.053871785895925534,
            -0.006991269104534086,
            0.07216796807445588,
            0.03254339338060798,
            -0.06652657852289671,
            0.002132466567911782,
            -0.030889910355828436,
            0.061702698206161866,
            0.002806244463700723,
            -0.026352304073314667,
            0.011254255080761038,
            0.018330774868641292
        ],
        "62": [
            -0.0033998154143674714,
            0.0640300184678638,
            0.0050762459464721845,
            -0.08531257918469888,
            -0.04011990346697527,
            0.009766563820215256,
            0.13517895886978376,
            -0.001503557411089211,
            0.029132858347632986,
            0.012997553351995234,
            -0.04145614309988196,
            0.05363254754290394
        ],
        "63": [
            0.03107807960802389,
            -0.0046089739294920395,
            -0.10004907985184941,
            -0.06006572136964214,
            0.04292083018366847,
            0.017478726587856763,
            -0.09808815221723086,
            -0.007323895268615933,
            0.030602878677316234,
            0.030156115948787806,
            -0.005989425636576293,
            0.03729080429932113
        ],
        "7": [
            0.02254432713890263,
            -0.0021410162769721595,
            -0.043766256669780186,
            -0.004832456004210725,
            -0.10605545483642889,
            0.07231212803167524,
            -0.08422609707859365,
            0.027819449213523324,
            0.08916305351553945,
            0.044507689529048614,
            0.08758830282673812,
            0.04532750602525979
        ],
        "8": [
            -0.15510701890084874,
            0.05890929932246331,
            -0.05325357999403614,
            -0.057958809577901824,
            0.0035209312931324377,
            0.13663560844781963,
            0.018429954322106343,
            -0.03313790576809404,
            0.032638020526484755,
            0.053897381942496755,
            -0.007118932639792776,
            -0.01294491456745819
        ],
        "9": [
            -0.03661977238154799,
            -0.010091605125737261,
            0.0039004953014224607,
            0.07729268724712456,
            -0.0016347632731028583,
            0.020765853069684367,
            -0.04989384597116519,
            0.00024839102676349337,
            -0.016845768484681525,
            -0.025263967109183195,
            0.058922601587411375,
            -0.010942027361893163
        ]
    }
}