{
    "bias": [
        -0.022773839791874875,
        0.02567664696444006,
        -0.049153378432193695,
        -0.08947025250195961,
        0.10018596289622458,
        -0.09464143187724636,
        0.026201541980324934,
        0.02254432713890263,
        -0.15510701890084874,
        -0.03661977238154799,
        -0.06568954667976401,
        0.101710307481984
    ],
    "input": 64,
    "name": "fc_2",
    "output": 12,
    "type": "fc",
    "weights": {
        "0": [
            -0.02247959963712967,
            -0.0509790111252152,
            -0.10497694445709745,
            -0.08704324277052461,
            -0.04462846088064295,
            0.006815896740128324,
            0.023364485888334466,
            -0.05648909261855942,
            -0.010008814178250742,
            -0.010119760632830972,
            -0.045692770147409516,
            0.045335667567812946
        ],
        "1": [
            0.025533099637031147,
            0.059120259118625916,
            -0.0018511256563651457,
            -0.10283690842864461,
            0.0921573129325833,
            0.06335186182462318,
            0.025151204501965427,
            -0.08775439034709365,
            -0.04543984596714576,
            -0.034473051126206244,
            -0.020759936838696057,
            -0.012231896024578996
        ],
        "10": [
            -0.06569464473951432,
            0.07118205448198979,
            0.029484282336346115,
            -0.0007763169683241214,
            0.0634828278990849,
            -0.022696019403393254,
            0.005617112429633025,
            0.005319186902000957,
            -0.02247489505272753,
            -0.011499805261597313,
            0.017829478018369635,
            0.02559336060378117
        ],
        "11": [
            0.10170225831546234,
            -0.061646188931317465,
            -0.0125793337713164,
            0.003208123843072503,
            -0.01573806475014541,
            -0.06007148541976085,
            0.05107359164938373,
            0.05701882060358665,
            0.01836085880773682,
            0.019039497666310846,
            -0.07411281674386098,
            0.019860669649678406
        ],
        "12": [
            -0.024102923059737304,
            0.0140405634907019,
            -0.016487623747853182,
            -0.04996109257319829,
            -0.036319446895379144,
            -0.008069794121129318,
            -0.011396467791241116,
            0.012072417178323509,
            0.0005368629388064327,
            -0.004712520867068607,
            0.013923364809999209,
            -0.051389425273365805
        ],
        "13": [
            -0.07612430689347427,
            -0.01348416920488355,
            0.08859947901033034,
            0.13396629878785754,
            -0.07700537208040595,
            0.040139409692262935,
            0.04530514065558115,
            -0.04308230056446421,
            -0.04546154055213635,
            0.09903238176622546,
            -0.06117592219663338,
            -0.02734148777368091
        ],
        "14": [
            -0.01001776221190497,
            0.06129331367122697,
            0.0291108656456406,
            0.10828978447595582,
            -0.05267782668747331,
            0.029247622795369077,
            -0.07257027793005631,
            0.07712301439436274,
            -0.013503253693553529,
            0.08347785016994039,
            0.06802083325112354,
            -0.04695035704968147
        ],
        "15": [
            0.004003746128986954,
            0.04937200861278792,
            -0.04893805872953029,
            -0.006318645558131645,
            -0.020305642802076966,
            0.029976613541832883,
            -0.08642388730538055,
            0.03687944246330734,
            -0.08837723883172245,
            -0.05100915267922943,
            0.027247830318514483,
            0.024628794699979806
        ],
        "16": [
            -0.00047692433696332935,
            0.013521283103743054,
            -0.04741683789835702,
            -0.020084516321995316,
            0.1323195778229472,
            -0.022727340306309844,
            -0.0536101515680248,
            -0.056019208368451645,
            -0.09714150691759066,
            0.044405525171693286,
            0.044007540155925624,
            0.011247123132254438
        ],
        "17": [
            -0.023365103904338838,
            -0.06431829488600357,
            -0.00515694084424785,
            -0.02109592243619923,
            -0.040985602203321043,
            0.052913325129306105,
            0.011676199573888187,
            0.00989445928156898,
            0.008569355968421238,
            -0.03366062076505106,
            -0.04026377158008445,
            0.08155047241762438
        ],
        "18": [
            0.1047015955576434,
            0.06862829585178289,
            -0.029970868803307966,
            0.06437207266824202,
            0.019722145145588472,
            0.01630399011646157,
            -0.11080289349836035,
            -0.06622558867046065,
            -0.014554393115229299,
            -0.0017488405902274478,
            0.04685690398327111,
            0.012965142283872064
        ],
        "19": [
            0.0688741508979805,
            -0.05185438683139791,
            -0.0012879574864257265,
            0.10597695185966972,
            0.0325828787095605,
            0.07825835455046944,
            0.024001365688590248,
            0.061712640711219964,
            -0.05034756087237536,
            0.01716016499581794,
            -0.018033389708104593,
            0.14101368623339963
        ],
        "2": [
            -0.04852531414789942,
            0.08155350725545125,
            -0.049271591970809284,
            -0.0005900868420423844,
            -0.028464804781864562,
            0.0512987677940236,
            0.11361442855614669,
            0.011580370275529274,
            0.058652181394361715,
            0.020137780907910106,
            0.0038601707135121023,
            -0.005672476414966796
        ],
        "20": [
            0.07799524292550077,
            -0.014461726925363768,
            0.03783990147213863,
            -0.05384963073156532,
            0.09096230437820946,
            -0.11752409378932258,
            -0.039518146819869614,
            -0.0722867688052976,
            0.01169233207611133,
            0.03585602485027948,
            -0.08026213197630251,
            -0.024064826302727167
        ],
        "21": [
            -0.06452893660286217,
            -0.038597596011487635,
            -0.030064889595680964,
            -0.0014331950785581094,
            -0.046881551759469925,
            -0.013970873041724249,
            0.014829630867250296,
            0.018047172813037738,
            -0.015592292065843238,
            -0.06795078638905824,
            0.028427639519490195,
            -0.1037149471138331
        ],
        "22": [
            -0.0058017081671184155,
            0.08116381535756466,
            -0.04669234756623003,
            -0.053044249611738654,
            -0.022118260285229993,
            -0.004562848429662936,
            0.0373243816520225,
            0.009614621282087739,
            0.037005618676772704,
            0.028512175054952384,
            0.024177965363076852,
            0.05632156746652597
        ],
        "23": [
            -0.064434766805571,
            -0.044097034011183915,
            -0.012908067910911251,
            -0.03236291311080258,
            -0.03300906574835992,
            0.09020906685489413,
            0.006424271701929995,
            0.04327182689932596,
            0.03241641643962321,
            0.0019273354815164299,
            0.05932290942923112,
            -0.01868167016756785
        ],
        "24": [
            -0.03840665465888654,
            0.047437751726872084,
            0.026200424390478268,
            -0.05989538806357087,
            0.03784918484390294,
            -0.10737149917487754,
            -0.080956906701289,
            0.05327738070615628,
            0.11182180339288403,
            -0.03161291759237883,
            0.08686776063534511,
            -0.006338882607791149
        ],
        "25": [
            -0.020831545555680116,
            -0.007740336860059964,
            0.013750514399247125,
            -0.006145733558010757,
            -0.046074909674347644,
            0.017297771391089907,
            0.00578053309358214,
            -0.01748743165589775,
            0.012294595688566326,
            -0.06024878173794436,
            -0.07261435560300185,
            0.09282115994163614
        ],
        "26": [
            -0.013076240568631407,
            0.12181615176135042,
            0.007839346364503313,
            -0.0036043516762455105,
            0.05253172088149785,
            -0.042220782375676544,
            0.014138800306714317,
            0.047665862308668115,
            -0.017368115655407544,
            -0.037895994235629275,
            0.045553398315988466,
            -0.11720979010801405
        ],
        "27": [
            0.10720670961351664,
            0.06979259220065602,
            0.02576240711917878,
            0.049731129831041374,
            -0.059019910909947966,
            -0.010382963460858962,
            -0.1391948081253816,
            0.07141561199969716,
            -0.0011345160170806786,
            -0.022519874278656402,
            -0.01140896968680212,
            0.026900801357434428
        ],
        "28": [
            0.04438707794332368,
            0.0602976302170976,
            0.03366317229561533,
            0.027237411989426235,
            0.04985588459981661,
            -0.012262958858520731,
            0.02995616190943822,
            0.007043589259277698,
            0.006266485711628612,
            0.07268945468190995,
            0.00042486426604737755,
            0.013158635732042937
        ],
        "29": [
            0.0239719813905571,
            -0.016251228515218395,
            0.0815252845523746,
            -0.046324475272451926,
            0.09241112367621189,
            0.04503254265038517,
            0.0034497914395960013,
            0.017237819515477783,
            -0.014382095011905493,
            -0.006016530935182368,
            0.06644558960905012,
            0.04950789863361843
        ],
        "3": [
            -0.08974827843430076,
            0.03927442803700335,
            0.044550597510530685,
            -0.08714604980886702,
            0.024291834270343485,
            0.011891767526591435,
            0.06874701737667144,
            -0.04285314557228739,
            0.03787054060584543,
            -0.06822150637961857,
            0.016997872460378424,
            -0.014759678153600913
        ],
        "30": [
            -0.07305856961265925,
            0.024920275335258094,
            -0.030407831180967338,
            0.0067191581270003,
            -0.017122004972743868,
            -0.007903692006510083,
            -0.0251002238607069,
            0.02545577541496413,
            0.011414609014895077,
            -0.01949323135627401,
            0.03628210609226027,
            -0.02851610000011076
        ],
        "31": [
            0.02078597003279677,
            -0.006208227805234348,
            0.03248449295991147,
            -0.01267222588130558,
            0.05487570458279592,
            0.041870376639817755,
            -0.06014915185699882,
            0.00795761014432623,
            0.07699700857000126,
            -0.04946366204708954,
            -0.039190226147865395,
            0.05635367384439756
        ],
        "32": [
            0.05206520543880765,
            -0.03047066258477118,
            0.019496460371260786,
            -0.044335398138871426,
            -0.018144199240602323,
            -0.008608885214600535,
            0.01732933148149731,
            -0.05154411251967925,
            0.022185708692836034,
            0.050466167663909454,
            0.0004456627474046888,
            -0.04028638543116197
        ],
        "33": [
            -0.04105281497975535,
            0.009551447628819506,
            -0.08762041274392589,
            -0.031760189758386924,
            -0.10726219533076714,
            -0.02367797705167068,
            -0.02472089116638108,
            0.05686652437011054,
            0.043353514621187195,
            0.06163185466507743,
            0.05443479297047664,
            0.01828171394438866
        ],
        "34": [
            0.037262836109055494,
            0.03998231444402217,
            0.07489130799568816,
            -0.051438344515983,
            -0.019349590250591617,
            -0.06068350741989727,
            -0.052407698439127647,
            -0.03342145945554976,
            -0.05487448724646525,
            0.003665106004530263,
            -0.01027011498970391,
            -0.05948259380502812
        ],
        "35": [
            -0.10792700098072963,
            -0.021794336117036614,
            0.02806290816491618,
            -0.060384788120378285,
            0.04131578226536032,
            0.02407658830924796,
            -0.014926870058318319,
            -0.10502256091287979,
            0.09777656254420829,
            -0.10125476752186513,
            0.027036509804624072,
            0.017074866339718116
        ],
        "36": [
            0.04810583948942122,
            -0.017485743244138884,
            -0.02400955384979701,
            -0.008998534501321634,
            0.0069323193423898345,
            0.042065806444406224,
            0.06230777866376101,
            0.01992236243826493,
            -0.033592688073866915,
            0.06374707723288832,
            0.059538172391190684,
            -0.021341411172784392
        ],
        "37": [
            0.0066223290808159856,
            -0.015491246423545602,
            -0.1178524345643713,
            0.11137330041407721,
            -0.0741932574226998,
            0.0009882275380040273,
            -0.008254259893826579,
            -0.045740081633244944,
            -0.005265112385183272,
            0.02487072445628709,
            -0.039061396556426695,
            -0.01720638013365955
        ],
        "38": [
            0.011756583877818905,
            0.04453841229525828,
            0.015106297830294678,
            0.04016019118416357,
            0.016203861562830654,
            0.04525903535259463,
            -0.05514734250077811,
            0.016912134597846466,
            0.07099829394355871,
            0.020651276608025584,
            -0.016196301748964637,
            0.06521559685440124
        ],
        "39": [
            -0.0743611648294668,
            0.01973038728816504,
            0.005849930830839513,
            -0.03816277662291817,
            -0.023570898201121113,
            0.05080814374677853,
            0.08138352243378805,
            -0.09577531908944582,
            0.003463496114566507,
            0.11146872561469938,
            -0.040612413746345506,
            -0.03378134341703174
        ],
        "4": [
            0.10018596289622458,
            -0.002790621130609048,
            0.007028471238392817,
            0.0012963883434802875,
            0.029024508014379162,
            -0.04337731347419088,
            0.08877097936315859,
            -0.005378285046272968,
            0.05344255407185002,
            0.10963258579360223,
            0.02311410164185578,
            -0.03296781757471484
        ],
        "40": [
            -0.040154765869678706,
            0.026642028347242244,
            0.012772703421660675,
            0.10046645567639688,
            0.039388978938567756,
            0.0009775790269651809,
            -0.017939197573320333,
            0.11314287288138669,
            -0.06354507007765463,
            -0.01855518103308623,
            -0.05053185943845385,
            -0.03862181948548721
        ],
        "41": [
            0.17567470414942557,
            0.007767420887189374,
            0.016308587372214738,
            -0.05463547405561283,
            -0.0021148605609978047,
            0.0429391055178158,
            0.043408275263172376,
            0.044437969959675645,
            -0.022162515928546688,
            0.009221814279143826,
            -0.00020214718137950748,
            -0.0892886253526408
        ],
        "42": [
            -0.03211638500716066,
            -0.005085168985088177,
            0.02247001300977384,
            0.07056924961584665,
            -0.049326830662007805,
            -0.0436103269073555,
            -0.05421884499596257,
            0.03604424316789282,
            0.00854827545992553,
            -0.016183599112899558,
            0.031685894933378964,
            -0.06515941049474341
        ],
        "43": [
            -0.02993556931211401,
            -0.02315922695103126,
            0.06569353673894011,
            0.012143095420355928,
            -0.02567648595291505,
            -0.04602210910843311,
            0.013767668537153525,
            -0.02637629271031892,
            -0.08846450392989745,
            -0.004443786480373667,
            0.022133106829425094,
            0.011717940806244803
        ],
        "44": [
            0.006700366268059529,
            0.02898101561062296,
            -0.013739365454507144,
            -0.007554196883700239,
            0.06307950301153203,
            -0.04802711617804473,
            0.012714542416626758,
            0.01949619331983387,
            -0.034069146727558,
            -0.05416328197624792,
            0.034433086100694656,
            -0.025593237047169575
        ],
        "45": [
            0.00012836138824890046,
            0.015476110176230318,
            0.06326975147865226,
            0.041554023308898,
            -0.008515247073080453,
            -0.00932731084020343,
            0.05776137222943291,
            0.03441123481333804,
            -0.057963654402196266,
            0.008236534095765356,
            0.020937686307330183,
            0.041557585906368065
        ],
        "46": [
            0.03464589132028069,
            0.1080894671394098,
            -0.04028467777977091,
            0.029948448083428485,
            0.0994500984243627,
            -0.07678010320411222,
            0.042833372354697176,
            0.020409352864643654,
            -0.02139485038180619,
            -0.01815823278594711,
            -0.041145379706314614,
            0.026655281482226942
        ],
        "47": [
            0.005606160674557051,
            0.03225970222317433,
            0.025128349021638487,
            -0.012889386161146165,
            0.06719984918002424,
            -0.07591980734949744,
            -0.018437844721259092,
            -0.009165644537908777,
            0.0566644862008331,
            -0.01348601190769411,
            0.02919256064810809,
            0.002931679561370151
        ],
        "48": [
            -0.02827172191436384,
            0.12311363053850863,
            -0.01996203804216215,
            -0.029256108414102703,
            -0.05248249634201144,
            0.02038526729908529,
            -0.04836766320952732,
            0.019424991501460927,
            -0.04909398058365207,
            0.04819106976927023,
            -0.0004157171721711681,
            -0.05294509979104688
        ],
        "49": [
            -0.032373312245664664,
            0.0821440321042262,
            -0.05291884667579979,
            -0.03883987936407571,
            0.038633026609236815,
            0.021998459820862744,
            0.03552945277798405,
            -0.07459355859130258,
            -0.03831223059605998,
            0.015511000847062341,
            0.10585359158650826,
            0.059485645660968846
        ],
        "5": [
            -0.09481789657511158,
            0.045006122521584216,
            -0.027690439262050864,
            -0.04730094856531373,
            0.038967068148812546,
            -0.050067643987816796,
            -0.07567510188798307,
            0.017980718516574092,
            -0.08952810554511405,
            -0.006481394720856041,
            0.04466573758777316,
            -0.004979037738725068
        ],
        "50": [
            0.020798867802474783,
            -0.11499166222370404,
            -0.051680268021857455,
            0.0076227048833187915,
            0.010737579187145244,
            0.0024248243321827257,
            0.028807694611519868,
            0.05790304498797929,
            0.03612393151615812,
            -0.05292989094455533,
            -0.010983490704082444,
            -0.07895066657945288
        ],
        "51": [
            -0.006739389327323192,
            -0.04179364934994567,
            -0.012605367101700172,
            0.02711641108957938,
            -0.06473042395740589,
            -0.045358938213931325,
            0.07611174117654297,
            -0.010424630574801941,
            -0.04970956117330445,
            -0.0545608248449871,
            -0.045825172436680765,
            0.033509845511747544
        ],
        "52": [
            -0.014591770739693075,
            0.03878458898455578,
            -0.03177978690327836,
            0.03196567883830627,
            0.0461530851021892,
            0.05681142710820805,
            0.1039047327519199,
            0.04836821310586002,
            0.006891242251179731,
            -0.006680751300588664,
            -0.01590473803310176,
            0.011140932078966983
        ],
        "53": [
            -0.06654655003252105,
            0.050961823808391815,
            0.059037826547028195,
            0.08983932154421524,
            0.045335316917574496,
            0.011958415221915708,
            -0.006693563846097033,
            0.03336481395503591,
            -0.03262569230614226,
            -0.04155654363135753,
            -0.0792310929160094,
            -0.016549924507513525
        ],
        "54": [
            -0.0766955510313242,
            0.024096491422724187,
            0.022530387527136448,
            0.04563484519717775,
            -0.0016773033519259916,
            0.012011851668316913,
            0.02788770233621855,
            0.04392272555175822,
            0.01796719951567961,
            0.060480295970792144,
            -0.03752602168709037,
            -0.13296108685017918
        ],
        "55": [
            -0.0028163431514867435,
            -0.025997673859942273,
            -0.07868365478079455,
            0.09367793105164847,
            -0.07118394694051294,
            0.020210018279458983,
            -0.026023847321297686,
            0.06254017198251087,
            0.011981474803643897,
            0.07750377528206794,
            -0.02921006900910754,
            -0.004145862399796439
        ],
        "56": [
            0.05294803890174726,
            -0.041702056983508796,
            -0.03632957592505964,
            -0.10672747441878681,
            -0.006025474826163615,
            -0.06363113398576344,
            -0.0330398928218224,
            -0.06940096496522637,
            -0.038221704600563775,
            -0.07814691230203466,
            -0.03335573849646401,
            -0.008971595472901377
        ],
        "57": [
            -0.077211890076924,
            -0.006334320088567461,
            0.08083730916746185,
            0.04228098707351946,
            0.04771949531181433,
            -0.017311832482029915,
            -0.03237204873496084,
            -0.020653244780979012,
            -0.053651224135376256,
            -0.047005958700694364,
            0.00883813008679139,
            0.03070782401976136
        ],
        "58": [
            0.05999265589405914,
            -0.08622785188264764,
            -0.017957172180379437,
            0.005922166581944015,
            0.05059164242879888,
            -0.055402188957324135,
            0.05710955419688102,
            -0.06649744764854544,
            -0.04087145123904283,
            0.034815390139412504,
            -0.026617893684316055,
            -0.05550566633152269
        ],
        "59": [
            -0.07732454459911489,
            -0.019012462998410876,
            -0.09145695427701979,
            -0.05993257915118166,
            0.02995053025115909,
            0.04201447944851174,
            0.0680591149216861,
            0.06444862032760171,
            -0.0011223245868156794,
            -0.007306088226407182,
            -0.012387491183288923,
            0.02310492539111537
        ],
        "6": [
            0.026196215031556815,
            -0.07979890255359953,
            -0.05813819324093794,
            -0.0033047736392448016,
            0.04265767718674498,
            -0.004785335641111179,
            0.03649796145295094,
            0.06934368376028074,
            -0.049660695225641004,
            -0.02767603690113987,
            -0.002910854252764172,
            0.045290392596804945
        ],
        "60": [
            -0.002578085204863209,
            -0.05973833477313066,
            -0.036182807529013906,
            -0.05542219245479598,
            0.04577542586091668,
            -0.01559155254413772,
            -0.026073597638862973,
            -0.04983942678007427,
            0.000696245098626097,
            0.08996756852292638,
            0.050906323593612274,
            -0.004810729435375279
        ],
        "61": [
            0.054134784524121266,
            -0.0072943576677585815,
            0.07128189510325789,
            0.033792503795604625,
            -0.06665847839684311,
            0.002310552997188275,
            -0.030366343106220214,
            0.06085550244913178,
            0.0032903072902735835,
            -0.026320576901075567,
            0.010912355268515445,
            0.018111379125396895
        ],
        "62": [
            -0.0034458984455447332,
            0.06403487791264928,
            0.005065313209799958,
            -0.0852902180648913,
            -0.04001793657159935,
            0.009750387452646406,
            0.13512882624877964,
            -0.0015144857758079863,
            0.029161757242231665,
            0.01295146250960291,
            -0.041381160025590356,
            0.05357982207757787
        ],
        "63": [
            0.03107868872719147,
            -0.004617640241804887,
            -0.10007602919475532,
            -0.06005309999404418,
            0.04292538021868271,
            0.017459598131602524,
            -0.09802390023592751,
            -0.0072984958447760186,
            0.030571663878140077,
            0.030156499772361907,
            -0.005984433894156288,
            0.03726395570905364
        ],
        "7": [
            0.02247440538872487,
            -0.0024536348059452854,
            -0.04371306206408242,
            -0.00441460757832061,
            -0.10600032420549785,
            0.07254315901885405,
            -0.0839956897054349,
            0.02769360031158173,
            0.08897143397227636,
            0.044443477258014445,
            0.08735188202005635,
            0.04534053580447443
        ],
        "8": [
            -0.1551425121656086,
            0.05886886947470855,
            -0.05324452212152195,
            -0.05799397514445593,
            0.0035366783158041646,
            0.1366045702517907,
            0.01839098122715876,
            -0.03316341357385433,
            0.03262620119832185,
            0.05396252708924877,
            -0.007097698948249872,
            -0.012837671196970643
        ],
        "9": [
            -0.03661977238154799,
            -0.010091605125737261,
            0.0039004953014224607,
            0.07729268724712456,
            -0.0016347632731028583,
            0.020765853069684367,
            -0.04989384597116519,
            0.00024839102676349337,
            -0.016845768484681525,
            -0.025263967109183195,
            0.058922601587411375,
            -0.010942027361893163
        ]
    }
}